layers=[24 128 128 3]

activations=[relu none]

parameters=[-0.000900125 0.391187 0.157528 -0.17936 -0.518902 -0.039681 -0.00278056 0.16485 0.248916 -0.211065 -0.00212174 -0.214185 -0.00190522 0.248916 -0.000807851 -0.00222316 0.508901 0.00221739 -0.0733004 -0.279304 0.065451 -0.0028218 0.966156 0.00167868 0.00103249 0.158797 -0.00385084 -0.0284179 0.439037 0.562734 -0.789439 -0.00486405 -0.17664 0.00791287 -0.300517 -0.00325636 0.00110812 -0.00567432 -0.864572 -0.510082 -0.860076 -0.0132611 -0.42867 0.00174713 0.563945 -0.000101606 -0.0106631 -0.00497189 0.874968 0.210094 -0.2785 -0.0194555 -0.197849 0.0922141 -0.0107296 0.146139 0.00274497 0.30475 -0.142296 -0.00437435 -0.607833 -0.0015123 1.37253 -1.2812 -0.555901 0.232547 -0.297127 0.0572332 -0.119439 0.00154329 -0.27741 -0.00370698 -0.0364426 -1.08393 0.00248471 -0.0223796 0.11343 0.34678 0.0477732 -0.0749676 -0.375773 -0.835825 -0.740208 0.000285445 -0.026472 -0.0142399 -0.427102 0.543687 -0.000746455 -0.00617463 -0.00254487 -0.0305133 -0.70061 -0.310633 0.144998 -0.696803 0.129725 0.306442 -0.00296186 -0.0215345 0.000935623 0.159411 -0.187333 0.150854 -0.0314029 0.409774 -0.0199017 0.0170893 -0.000985824 -0.00143984 -0.0039033 -0.0403993 0.131554 -0.383591 -0.0235304 -0.000254469 -0.67602 0.177323 -0.021638 -0.018115 -0.00248754 -0.0129264 -0.337868 -0.0563769 -0.00286014 -0.245957 -0.00534316 -0.0194747 -0.0161418 -0.0653812 -0.587014 -0.670642 0.547273 -0.0506317 -0.0133224 0.1844 -0.1488 -0.206288 -0.00145231 0.108324 -0.0139507 -0.630253 -0.00632021 -0.00146979 -0.27595 -0.0101124 0.833554 -0.105605 0.010022 -0.00266599 0.203448 -0.010932 0.00118076 -0.186764 -0.00528673 -0.0384619 0.944249 -1.0421 0.0786307 -0.00649271 0.294833 0.85078 -0.382066 -0.0180559 -0.00392265 -0.0220475 0.227878 0.522787 0.0197439 -0.0277253 -0.56237 -0.00126478 0.174439 -0.00411908 -0.0220431 -0.019408 -0.31654 -0.246396 -0.0665387 -0.0308408 0.130526 -0.433077 -0.00699368 -0.367716 0.000524049 0.932062 0.775129 -0.00408878 0.150301 -0.0039949 -0.264542 -0.410246 0.425022 -0.72371 -0.141233 -0.393234 -0.140438 -0.00794918 0.00541681 -0.000310775 -0.0454524 -0.22506 -9.32228e-05 -0.0337332 -0.220633 0.823421 -0.0498058 -0.0743374 0.208071 -0.851503 -0.343477 -0.00193727 -0.801587 -0.0278604 -0.327663 0.587229 -0.00287816 -0.0156319 -0.00163401 -0.0216695 0.0592061 0.491418 0.0110799 -0.0349554 -0.544792 0.232008 -0.00147238 -0.0311144 -0.311026 -0.14146 -0.608557 0.283834 -0.0232269 -0.347475 -0.0314504 -0.137949 -0.0038762 -0.00686565 -0.564754 -0.0319672 -0.697125 0.338105 0.0133637 -0.00665713 -0.216043 -0.211584 -0.0312384 -0.425535 -0.00432721 -0.025812 -0.110008 0.260382 -0.0128898 0.0747769 -0.00674007 -0.0276288 -0.0140435 0.501174 -0.0429853 -1.6457 0.402421 -0.0433685 -0.00976181 -0.28397 -0.485972 0.887847 -0.00284143 -0.140621 -0.0176728 0.0876617 -0.00724906 -0.00258867 -0.200785 -0.00785584 1.57018 -0.0823141 0.20506 -0.00222873 -6.79075 -0.0100813 -0.00432501 -0.334767 -0.014336 -0.0412123 -1.49545 -1.06218 -0.251547 -0.00383769 0.159185 -0.149389 0.469702 -0.0187659 0.000739455 -0.016483 0.246001 0.471982 0.051322 -0.0231506 0.347223 -0.00110257 -0.717357 -0.000281383 -0.00691816 -0.0194832 -0.561312 -0.579876 -0.244111 -0.0274894 0.338247 -0.0462557 -0.00955253 -0.2263 0.00184916 0.132848 0.192557 -0.00543016 0.390468 0.000402245 -2.27821 0.136919 0.525111 0.0769083 -0.00929414 0.55503 -1.23765 -0.0211148 -0.0734519 -0.00201365 -0.107844 0.193172 -0.00162875 -0.0200098 0.070686 -0.0045539 0.23389 0.0699853 0.112862 0.140339 0.295506 -0.00152551 0.104498 -0.0242145 0.374685 0.162138 -0.00164193 -0.0113288 0.000287225 -0.0389282 0.333864 -0.0178146 0.0714822 -0.164077 -1.13541 0.147092 -0.000182539 -0.00697656 -0.022127 -0.1112 -0.540302 0.272317 -0.0336847 -0.560582 -0.031516 0.0202231 -0.00407636 -0.0132622 0.577571 -0.0308095 0.252481 -0.667795 1.27469 -0.00475748 -0.213507 -0.172911 -0.0304152 0.399028 -0.00224491 -0.0212871 -0.0403894 0.0321115 -0.0107341 0.460006 -0.00474042 -0.0288398 -0.00948392 -0.735408 0.593212 0.857808 -0.552615 -0.0302934 -0.00934598 -0.0336076 -0.0717256 -1.34168 -0.000594633 0.284589 -0.0157353 0.451978 -0.00966667 -0.00229866 0.226398 -0.00644184 -0.804976 -0.00782501 -0.0373145 0.00050784 -0.196584 -0.0106929 -0.00319979 -0.236914 -0.00594073 -0.0292861 -0.937234 0.938479 -0.0536339 -0.000832602 -0.748514 -0.912059 0.378912 -0.0179129 0.000567885 -0.0259808 0.4933 -1.14236 0.50133 -0.0187341 0.564314 -5.31517e-05 0.00747466 0.00137626 -0.0137465 -0.0166278 -0.125569 -0.0673383 -0.0901412 -0.0300942 -1.1887 0.32395 -0.010377 -0.116044 -0.00187057 -0.996616 -0.727205 -0.00435645 -0.378685 0.000838669 0.578678 0.80167 -0.362827 0.800285 -0.233629 -0.377773 0.187809 -0.000978432 0.353071 -0.000674008 -0.0662563 0.729867 -0.00290081 -0.0341342 0.174705 -0.813081 -0.0335365 -0.458365 0.112689 0.873709 0.192333 0.00137967 0.925128 -0.0208765 0.437603 -0.628181 -0.00308333 -0.0150018 -0.00245332 -0.0112585 0.0899842 -0.548515 -0.109598 0.221989 0.466028 -0.269818 0.000259986 -0.0249347 0.275845 -0.00494246 0.489712 -0.428875 -0.0272186 0.0331747 -0.0235078 0.00745501 -0.00101048 -0.00321115 -0.723697 -0.0463888 0.948369 -0.68577 0.074929 -0.0050652 -0.0511093 -0.293267 -0.0271251 0.11478 -0.00331558 -0.0125342 0.162927 -0.25087 -0.00713638 -1.22865 -0.00909565 -0.0251706 0.000263316 0.00132628 0.000134972 0.00296223 -0.00168794 -0.00236521 -0.00234182 -0.00261845 -0.00057252 -0.000309763 -0.000805103 0.00158103 0.000767378 0.00163188 0.00259712 0.00283644 -0.00184783 -0.00216675 0.0011776 -0.00243708 0.000152426 0.000182065 0.00216684 -9.08801e-05 -0.000639262 0.00102859 0.00144755 0.000120315 -0.000913724 -0.00210002 0.000516552 -0.00142713 -0.00273328 0.0015296 -0.00154329 -0.000345586 0.00112678 -0.000844631 0.00141804 -0.000631755 0.0011005 0.00122428 -0.000346167 -0.00288253 -0.00101485 -0.000454143 -0.00137838 -0.00181768 0.00193033 -0.000420471 0.00232663 -0.000652902 0.00161469 -0.000619251 0.00185108 0.00153046 -0.000735627 -0.00170389 0.00174244 0.00269582 -0.00103461 0.00102759 -0.00036813 0.002001 0.00161313 -0.00199648 0.00217188 0.00293923 8.65406e-05 0.00230569 0.000528156 -0.00207149 -0.00180082 -0.000558271 0.00149223 0.0019535 0.00173978 -0.00108885 0.000204385 -0.0024603 -0.00232977 -0.00218224 0.00107191 -2.89378e-05 -0.00186174 -2.99651e-05 -0.00211435 -0.00267016 0.00210428 0.000363357 0.00257765 0.00118 0.000496746 0.00189238 0.00227408 0.00293347 -0.00299687 0.00219263 0.000675399 0.0029397 0.000166081 -0.00012286 0.00180809 -0.00163294 -1.14343e-05 0.00240511 0.000447967 0.00207107 0.00143184 0.000515922 -0.00151959 0.000998497 -0.0024991 0.000755759 0.000965667 0.00137851 0.00234451 0.00289382 0.00161417 0.000488679 0.00256988 0.000480542 -0.0028981 -0.00227484 0.00217626 -9.4221e-05 0.00206913 -0.00174357 -0.00733374 0.0701213 -0.0557766 -4.60118e-05 0.112371 0.0104753 0.010543 -0.051664 -0.0760932 0.0545002 -0.00102785 -0.0162359 -0.00847116 0.0337825 -0.00217571 -0.00152667 0.03076 0.00626024 -0.00693579 0.0484553 -0.368264 -0.000499596 0.0507199 0.00232381 -0.000545861 0.0795114 -0.00183531 0.00016391 0.0485763 -0.0364628 0.00163754 -0.00111651 -0.0621142 0.0852625 -0.0224983 -0.0047023 -7.85746e-05 -0.00169243 -0.0444174 0.0715832 0.00351901 0.00674713 -0.0463469 0.00180475 0.0321203 0.00236934 -0.00276474 -0.0053286 -0.0532775 -0.095219 0.0983833 0.00151142 -0.00745649 -0.0264185 -0.00539959 0.0535584 -0.000666586 -0.117026 -0.00423199 0.0019642 -0.0671689 0.000962636 -0.0600265 -0.0430529 0.0336362 0.0496813 -0.0726188 0.0252078 -0.0394232 -0.00974579 0.151444 0.00249946 -0.0127912 -0.0577556 0.000771593 -0.00473053 -0.225799 -0.0237531 0.0394238 -0.133745 0.060732 -0.0497487 0.0544365 0.000574332 -0.0831061 0.00527661 -0.107332 0.0367352 0.000238512 -0.000189191 0.0024728 -0.00373969 0.0104886 0.0427465 0.0111141 -0.0307055 -0.252438 -0.13213 -0.00143525 0.00983506 0.247111 -0.00859735 0.00497248 0.0891151 2.08032e-05 -0.149458 -0.00371157 0.0443746 0.000214375 -0.00167533 -0.184617 -0.0137865 0.106595 -0.300806 -0.188734 -0.0029653 0.744987 -0.00239953 0.00718625 -0.060058 0.000360176 -0.00644405 0.07384 0.110553 0.00196879 0.0689155 -0.00487632 -0.0120875 0.0167333 0.0790107 0.0914628 -0.193704 -0.169836 -0.007505 -0.00853607 0.684484 0.172969 0.544884 0.00115107 0.00413478 -0.00219237 -0.00676857 -0.00249475 -0.00152238 0.751823 -0.00497281 -0.071585 0.0211831 0.363213 -0.00271132 -0.0125135 -0.000115645 0.00173601 0.119269 0.000566128 -0.00302399 -0.024562 -0.117085 0.183931 0.00333559 0.438483 0.30799 0.288254 -0.00476639 -0.00259126 0.00177372 0.767025 0.717091 -0.00885223 0.0107433 -0.259652 -0.0010746 -0.457221 0.00275363 -0.00237726 -0.00445957 0.143288 0.186481 -0.25291 0.00553186 0.382381 -0.188971 0.00176919 0.144572 0.00138025 -0.212706 -0.169578 -0.000580429 0.169534 0.000164617 -0.320821 0.132821 0.39248 0.251367 0.366646 0.20621 -0.25691 -0.000388879 -0.119475 0.000508953 -0.00326395 1.04731 6.7652e-05 0.000472363 0.256918 0.0382365 0.026825 0.0793721 -0.0260015 -0.570173 0.927061 0.00231078 -0.285753 -0.00581678 -0.182526 -0.0750217 0.00211389 0.0147754 -0.00136237 0.0116333 1.40542 -0.14563 -0.273376 -0.0392277 -0.190519 0.0337032 0.00110806 0.0134727 0.114301 0.156894 -0.641373 -0.0963281 -0.0032802 0.0482781 -0.00223366 0.0642382 0.000290255 0.000164052 0.102182 0.00193309 0.423447 -0.39457 -0.479691 -0.00254485 -0.417901 0.0778143 0.00661007 0.136606 0.00157635 0.0122242 -0.875856 -0.145003 0.013608 0.702051 -0.00117878 0.00548124 -0.00737509 -0.848417 -0.0790111 -0.302864 0.00160436 0.0408468 0.00905362 0.14935 -0.0085917 -1.24324 -6.02731e-05 0.635971 0.00494099 -0.988486 -0.00112111 0.000647251 -0.371743 -0.00391569 0.077245 -0.102454 0.0448428 -0.000449912 -0.0178151 0.00193139 0.000159185 0.00265805 -0.00267532 0.000784942 0.0728808 -0.191532 0.0667563 0.000336607 -0.822195 -0.298601 0.797603 0.00294467 -0.000321285 7.09668e-05 0.516999 -0.622592 0.455034 -0.0103772 0.478875 0.000931162 0.103385 0.00133609 -0.00759288 0.00291824 0.722501 -0.146115 0.410803 -0.00690314 -1.14867 0.363354 -0.00221024 -0.021945 0.00198797 0.252244 0.178329 -0.00203308 -0.551382 0.00120541 0.304618 0.803732 -1.39309 0.0151965 -1.47442 -0.831014 0.454765 0.0049691 0.527925 -0.00302458 0.030555 0.0953645 -0.00110293 0.00712839 -0.329905 0.130414 0.043046 -0.0355636 -0.531163 -0.0753147 0.0762312 -0.00107785 0.370537 -0.00928502 -0.253637 -0.350677 0.00175074 -0.0139063 0.000852365 0.0193359 -0.27323 -0.0254621 0.0726559 0.734695 -0.211043 -0.185735 -0.000261314 0.0125797 -0.351231 -0.209204 0.929241 -0.665914 -0.00530955 -0.535455 0.00736761 -0.597792 -0.00173489 0.000943879 -0.886847 -0.00128133 0.0295718 -0.0533425 -0.030233 0.000996861 0.123293 -0.0235186 -0.0152748 -0.174352 -0.000124914 -0.00709942 0.0706261 -0.248963 0.0133441 -1.34137 -4.31509e-05 -0.00386874 -0.00470477 0.386023 0.161104 -0.182756 -0.518733 -0.0379631 -0.000687473 0.161697 0.248635 -0.212051 0.00140766 -0.215129 -0.00534838 0.249709 -0.00215656 0.000105834 0.508022 -0.00178525 -0.0753437 -0.283694 0.0663424 0.00288055 0.961238 -0.0007113 -0.00251746 0.159063 -0.00237477 -0.0303696 0.44074 0.561816 -0.789572 -0.000352628 -0.175097 0.012949 -0.295706 -0.00444148 -0.00223364 -0.0062701 -0.869181 -0.510038 -0.862065 -0.0118518 -0.427625 -0.000897333 0.565287 0.00286591 -0.00766313 -0.0047899 0.876641 0.210167 -0.278136 -0.0195594 -0.200315 0.0930115 -0.00736252 0.146316 -0.000543928 0.306323 -0.141304 -0.00221603 -0.609029 0.000458548 1.37256 -1.2849 -0.556929 0.232768 -0.298283 0.0622299 -0.118257 0.00531753 -0.279725 -0.00275211 -0.040022 -1.08464 -0.00123739 -0.0201229 0.116947 0.349437 0.0441325 -0.0727473 -0.372348 -0.836183 -0.743465 -0.00074378 -0.0277498 -0.0115779 -0.430299 0.540782 0.00100906 -0.00671661 0.000742299 -0.0294183 -0.70273 -0.31033 0.143995 -0.691978 0.12696 0.304719 -0.0024387 -0.0206186 0.00112256 0.160021 -0.188606 0.147945 -0.029053 0.410797 -0.0196079 0.0142412 -0.00308738 -0.00466787 -0.00354547 -0.0354641 0.133951 -0.388463 -0.0221 -0.00488167 -0.676241 0.173938 -0.0161217 -0.0159017 -0.000213544 -0.0133311 -0.33707 -0.0586858 -0.00219982 -0.245664 -0.00156834 -0.0181634 -0.0155833 -0.0610103 -0.601108 -0.667323 0.547357 -0.0470711 -0.0119977 0.199574 -0.150846 -0.201379 -0.00143138 0.126001 -0.0157257 -0.631036 -0.00478954 -0.002416 -0.280059 -0.00766939 0.837407 -0.116055 0.0370709 -0.00214207 0.208515 -0.00678078 0.00149532 -0.189234 -0.00611993 -0.0374156 0.946982 -1.04492 0.0768666 -0.00344444 0.298675 0.848969 -0.385858 -0.0183079 -0.00179561 -0.021482 0.223161 0.514444 0.0246926 -0.0237995 -0.566604 0.0016236 0.200658 -0.00068112 -0.0203639 -0.0155023 -0.311417 -0.250526 -0.0623726 -0.0310832 0.134614 -0.429544 -0.0114327 -0.365247 -0.00246731 0.952807 0.782231 -0.00385199 0.161528 -0.000768842 -0.263143 -0.383228 0.420978 -0.70267 -0.121836 -0.388138 -0.155771 -0.0109712 0.0806407 -0.00353441 -0.0480428 -0.190642 -0.00285525 -0.0363365 -0.164066 0.81844 -0.0480374 -0.0756484 0.0388153 -0.852854 -0.335 0.00102904 -0.802308 -0.0252174 -0.331969 0.587657 -0.0024186 -0.016379 -0.00182714 -0.0197664 -0.0487598 0.495275 0.0137179 -0.0740796 -0.544914 0.219733 -0.00238402 -0.0283629 -0.298604 -0.152753 -0.591874 0.286293 -0.0242624 -0.345771 -0.0315337 -0.133314 -0.00263274 -0.00497488 -0.557826 -0.0340634 -0.700224 0.337501 0.0103923 -0.00221318 -0.213428 -0.215849 -0.0340401 -0.419105 -0.00395077 -0.0228854 -0.119439 0.255268 -0.0112185 0.0853183 -0.00620067 -0.0261711 -0.0131076 0.449516 -0.111278 -1.9882 0.421218 -0.0480438 -0.0105541 -0.0909453 -0.48174 1.09063 0.00012231 -0.0988716 -0.0160172 0.0589342 -0.00287928 -0.00089578 -0.0374173 -0.00895123 1.84298 0.0377801 0.223333 -0.000234862 -8.02043 -0.00642728 -0.00160355 -0.321099 -0.0140271 -0.0381091 -1.71022 -1.25892 -0.220177 -0.00624624 0.163577 -0.205107 0.634798 -0.0144621 -0.00123092 -0.0131675 0.288585 0.48792 0.108965 -0.0259116 0.417213 0.000652383 -0.51564 -0.00266379 -0.0018305 -0.0156787 -0.708281 -0.602302 -0.28512 -0.0278325 0.523978 0.0395182 -0.00803319 -0.239274 -0.0010035 0.177504 0.225881 -0.0047992 0.416596 -0.00259664 -2.70082 0.198627 0.698567 0.126837 0.17548 0.625998 -1.32196 -0.0210552 0.137789 0.000521224 -0.121833 0.254162 -0.0012993 -0.0202907 0.119688 0.0142293 0.100362 0.0196022 0.237091 -0.0942762 0.385142 0.00076764 0.0403211 -0.0249343 0.414482 0.115194 -0.00274259 -0.0119201 -0.00105468 -0.0431485 0.621496 -0.0701594 0.00348203 0.0667584 -1.19193 0.0852028 0.00147156 -0.00575049 0.0201828 -0.130749 -0.531573 0.215077 -0.0315864 -0.688838 -0.0368823 0.0246872 -0.00471519 -0.0126758 0.773542 -0.0364105 0.300915 -0.72947 1.30022 -0.00152899 -0.328496 -0.160371 -0.0275719 0.489484 -0.00276227 -0.0184197 -0.0858859 0.0554268 -0.00997015 0.611101 -0.00607298 -0.0253061 -0.0108268 -0.806675 0.596933 0.86222 -0.562331 -0.02849 -0.0130761 -0.042088 -0.0781391 -1.53956 0.000861169 0.268235 -0.0161893 0.448464 -0.00816219 0.00130702 0.218408 -0.00832654 -0.808798 -0.00266794 -0.0427976 0.000551659 -0.202269 -0.008542 -7.19122e-05 -0.237156 -0.00869148 -0.0319637 -0.936926 0.935973 -0.0518182 -0.00612862 -0.828287 -0.932103 0.383385 -0.0182976 -0.00336368 -0.0246087 0.487304 -1.17496 0.506713 -0.0197768 0.567649 -0.000615961 0.00375416 -0.000172416 -0.0131817 -0.0172748 -0.119179 -0.0660379 -0.0947495 -0.0310556 -1.27648 0.333637 -0.0146044 -0.118033 0.00168763 -0.985775 -0.726732 -0.00625425 -0.403091 -0.00322668 0.581111 0.786755 -0.398104 0.801768 -0.236235 -0.407022 0.188469 0.00254547 0.311399 -0.0026509 -0.0615302 0.717296 -0.00300976 -0.0292042 0.162273 -0.814754 -0.0321367 -0.472658 0.15859 0.879068 0.187818 -0.000603815 0.928988 -0.0238481 0.441087 -0.632766 0.00079095 -0.0144041 -0.000658944 -0.0123603 0.0850307 -0.556029 -0.112178 0.237827 0.466097 -0.263602 -0.00100883 -0.0286892 0.262086 0.00928136 0.49608 -0.427393 -0.0303757 0.0383642 -0.0254506 -0.0234809 -0.00562552 -0.00410258 -0.788732 -0.0475665 0.944448 -0.697134 0.0782623 -0.0032164 -0.042562 -0.297503 -0.0294941 0.123697 -0.00206681 -0.0114947 0.169776 -0.289043 -0.00993062 -1.35732 -0.00646837 -0.0260515 0.00276935 0.00157449 -0.00295591 0.00108023 0.0012357 0.000870773 0.000313859 -0.00169135 0.0016342 -0.00163183 -0.000774812 0.00234557 0.00213826 -0.000585399 -0.00109189 0.000651813 0.00246117 0.00245459 0.000549566 -0.00100457 0.00211838 -0.000345613 0.00242613 -0.00280092 0.000194559 0.00129898 -0.00192419 -0.000980803 -0.00187372 -0.00106844 -0.00057686 0.000291398 -0.00270757 0.000316393 -0.00135113 -0.00155099 -0.00154113 -0.00207504 0.0027385 0.00261397 0.00191229 0.00136957 -0.00194513 -0.000837774 -0.00186726 -0.00299281 -0.00110148 0.0011977 0.000751531 0.000258373 -0.000365777 -0.00127544 9.95467e-06 0.00156928 0.00157445 0.000456335 0.00148598 0.000873207 -0.00226068 2.63872e-05 -0.000916432 -0.00244711 -0.0021129 -0.00181098 0.00103362 -0.000410933 0.00116642 -0.00145929 -0.00294145 0.000193698 -0.00132365 0.00267738 0.00243866 -0.000643892 -0.00285087 0.00102862 0.00202302 0.002829 -0.0026584 -0.000298057 0.000494822 0.00111983 0.0013166 0.000900245 0.00136149 -0.000756914 0.000489492 -0.00230329 -0.00265407 0.00287859 -0.00129106 0.000569846 0.00277297 -0.00188533 -0.00184176 -0.000950135 0.00259739 -0.000655995 -0.0013607 -0.00208832 -0.000617347 -0.000751665 -0.00221331 -0.000389756 -0.00245092 0.000687762 -0.00293413 0.000439562 0.00173838 -0.0015878 -0.000311882 0.000416149 -0.00263159 -2.22665e-05 0.000853891 -0.00167241 0.00202234 0.00282645 0.00207824 3.59968e-05 -0.00132675 0.0014797 -0.00157842 0.00274407 0.00072156 0.000601573 -0.00196437 -0.00245792 -0.0091159 -0.0542766 -0.0674321 0.13476 0.0467945 -0.00194402 0.000245571 -0.100403 -0.104304 -0.0614464 -0.00136695 -0.0695732 -0.00565863 0.035958 0.000487088 -0.00141891 0.0252835 0.00197989 0.000649603 0.0121695 -0.351608 -0.000728496 -0.0296295 0.00552358 -0.00150917 0.0812739 -0.00207742 0.00215795 -0.0506076 -0.0287038 -0.014932 0.00349322 0.00374478 0.105221 -0.045736 -0.00789593 0.0015087 -0.000110854 0.0492763 -0.0123413 0.0730255 0.00807731 -0.0867239 -0.00265577 -0.01833 -0.000423819 -0.00251866 -0.00434751 -0.0775641 -0.0870955 0.216964 0.00535484 0.0278629 0.0331016 -0.00628685 0.0547327 0.00197962 0.0834374 0.0192105 -0.00276593 0.02926 -0.00145372 -0.096158 -0.00504514 0.0132063 -0.0318763 -0.00115525 0.110396 -0.0627934 -0.00562671 0.0873642 -0.000284634 -0.0144578 0.0760233 0.00089931 -0.00569158 -0.343159 0.0150772 0.00491263 -0.183587 0.0695149 0.0195812 -0.0622813 -1.16261e-05 0.000693986 0.00721278 -0.0844293 0.0181859 -0.00337245 0.000545949 0.00246113 -0.00431997 0.0306637 0.0269171 0.0717182 -0.122923 -0.107454 -0.0715328 -0.00113693 0.00228867 0.228121 -0.0288611 0.042004 0.00489615 0.00154406 -0.215713 -0.00348483 0.0106732 0.0010449 -0.00114191 -0.154662 -0.00634282 -0.00107417 -0.42028 -0.171342 -0.000124615 0.75812 -0.0145796 0.00446238 -0.0301591 4.30648e-05 -0.00379766 0.11248 0.00998053 -0.000870135 -0.00338381 -0.00125676 -0.0169423 -0.0075382 -0.0127226 -0.00497731 -0.243866 -0.200336 -0.00750779 -0.00186388 1.02613 0.112973 0.658604 -0.00157616 0.186345 -0.00352095 -0.117424 -0.00379864 0.00392163 1.08466 0.00209364 -0.032126 0.339856 0.345942 0.00123046 -0.0562176 -0.00469732 0.00178382 0.071434 -0.0018339 0.000247925 -0.0683718 -0.191783 0.27693 0.00208728 0.543923 0.434928 0.338067 -0.00356185 -0.00286881 -0.00097871 0.923748 0.686617 0.457546 0.0127343 -0.207478 -0.00247504 0.0496544 -0.00181914 -0.00484904 -0.00421338 0.0842922 0.126452 -0.47722 0.00662688 0.54625 -0.153862 0.000828304 0.0822412 -0.00270475 0.0214029 -0.228739 0.00115701 0.192668 0.00209465 -0.414648 0.678016 0.42019 0.134735 0.951485 0.184185 -0.20936 0.00762967 0.558582 0.00084931 -0.0113378 0.07238 0.000918024 0.00201736 0.328466 -0.0105581 -0.113545 -0.00373034 0.384287 -0.457177 0.552157 0.00259409 -0.269807 -0.00602043 -0.31901 -0.18234 -0.00183606 0.0148441 0.00230446 0.0146986 1.19317 -0.184827 -0.195502 -0.0676522 -0.0161918 -0.17192 0.00161311 0.00955445 0.503872 0.127009 -0.260825 -0.162575 -0.00192023 -0.091998 -0.00290598 0.144009 0.00079795 0.000899881 0.147101 0.00271789 0.27449 -0.392615 -0.641928 0.000710653 -0.445799 0.0264253 0.0110094 0.118358 0.000756147 0.0124593 -0.825836 -0.0766215 0.0150796 0.84079 -0.00106852 0.00625147 -0.00534928 -0.701744 0.000725748 -0.304835 -0.728694 0.020078 -0.000579048 0.350435 -0.0858698 -0.893723 -0.00161115 0.256726 0.00405479 -0.556289 0.000363539 0.00079742 -1.05484 0.000623998 -0.00091797 -0.32023 0.0492765 -0.000275686 0.0135567 0.00586371 0.00101644 -0.00483123 0.000473881 0.00303727 0.169745 -0.212378 -0.313236 -0.00216687 -1.02551 -0.320048 0.971934 0.00437584 0.002021 -0.000432262 0.236939 -0.836314 0.60249 -0.0071742 0.424551 0.0022305 0.027909 6.35569e-05 -0.0117464 0.00682398 0.776139 -0.0267921 0.227694 -0.00191735 -1.02106 0.517035 5.36126e-05 -0.0747377 -0.00206267 0.31555 -0.0204067 0.00153065 -0.60395 0.0012199 0.455951 0.806012 -1.31049 -0.300777 -1.03076 -0.79803 0.673005 0.00313745 0.243129 -0.000735391 0.0235128 0.546405 0.00370821 0.00177409 -0.0893748 0.109264 0.0622779 -0.122566 -0.277751 0.0200306 0.345976 -0.00184595 0.222137 -0.00855696 -0.385162 -0.25592 -0.00197015 -0.0146415 -0.00202261 0.0218521 -0.0761334 -0.19557 0.0263231 0.866711 -0.361948 -0.0111521 -0.000908099 0.0107677 -0.303021 -0.154102 0.901424 -0.304452 -0.00707353 -0.271815 0.00142061 -0.994807 -0.000843139 -0.00128805 -0.360891 0.00165787 -0.438746 -0.209229 -0.0503232 -0.00138554 0.098993 0.0204539 -0.0161729 0.420816 0.000564059 -0.0104284 0.450768 -0.441346 -0.012198 -0.623474 0.00439512 -0.00365427 -0.00429477 0.388607 0.159161 -0.181244 -0.517892 -0.0396358 0.000477101 0.166615 0.245298 -0.214273 0.00036601 -0.215802 -0.0031934 0.250553 -0.00327476 -0.000498662 0.512109 0.000160804 -0.0729555 -0.283402 0.0652514 0.000494097 0.966841 -0.00340987 -3.69286e-05 0.157379 -0.00776863 -0.0253433 0.440411 0.564341 -0.788985 -0.00416426 -0.174582 0.0091992 -0.298425 -0.00313311 -0.00188362 -0.0057538 -0.867374 -0.508263 -0.857919 -0.0096255 -0.432309 -0.00160279 0.56704 -0.000787362 -0.00749437 -0.00301594 0.874574 0.210727 -0.277746 -0.0197421 -0.195867 0.0945959 -0.00584204 0.14747 -0.000109258 0.306542 -0.140482 -0.00452481 -0.609967 0.00291018 1.37191 -1.28145 -0.555838 0.232763 -0.296491 0.0570522 -0.120117 0.0037068 -0.27905 0.000539116 -0.0368517 -1.08142 4.90015e-05 -0.0229201 0.118023 0.348515 0.0442554 -0.0736295 -0.374761 -0.840454 -0.738379 -0.00103168 -0.0305981 -0.0152713 -0.429779 0.540538 0.000882853 -0.0091846 -0.00134741 -0.0291461 -0.698513 -0.312643 0.143929 -0.693964 0.131012 0.30431 0.00283812 -0.0184656 0.000267946 0.157446 -0.187246 0.151464 -0.031015 0.409642 -0.0178606 0.016765 -0.00243054 -0.00571621 -0.00352338 -0.0384558 0.130829 -0.386312 -0.0217395 -0.00190253 -0.674418 0.175551 -0.0168737 -0.0204588 -0.00180937 -0.0159399 -0.332147 -0.0562862 -0.00505271 -0.249167 -0.00549521 -0.017428 -0.0145308 -0.0627282 -0.609109 -0.669109 0.540549 -0.049673 -0.00872075 0.248752 -0.151273 -0.191571 -0.00150592 0.158237 -0.0146159 -0.600656 -0.00332303 -0.00452401 -0.20802 -0.00902886 0.84004 -0.107801 0.0312626 -0.000288579 0.212418 -0.00600988 -0.00388817 -0.178289 -0.00511513 -0.0372032 0.955488 -1.05377 0.0949808 -0.00148599 0.302386 0.79883 -0.397497 -0.0165474 0.000271163 -0.0189744 0.215207 0.489367 0.0184119 -0.0225606 -0.556686 -0.00216747 0.18261 0.00127587 -0.0181091 -0.0184927 -0.311525 -0.248986 -0.0632057 -0.0311859 0.0518695 -0.445279 -0.00692521 -0.369232 -0.000154508 0.978687 0.779596 -0.00376943 0.186756 -0.00184973 -0.262728 -0.342069 0.444173 -0.685636 -0.0822712 -0.3904 -0.143531 -0.011337 0.125541 -0.00429224 -0.0499356 -0.21725 -0.00404919 -0.0336867 -0.165825 0.82767 -0.0432909 -0.0670469 0.103313 -0.884794 -0.347644 -0.000498829 -0.808924 -0.0235504 -0.335431 0.597138 0.00159067 -0.0144659 -0.0011451 -0.023166 -0.0359006 0.534914 0.0150747 -0.177542 -0.554863 0.217693 -0.000594957 -0.0272798 -0.325749 -0.139877 -0.526259 0.272388 -0.0253374 -0.342684 -0.0320158 -0.162035 -2.98067e-05 -0.00864775 -0.551133 -0.0370695 -0.671865 0.345562 -0.00478296 -0.00218172 -0.213468 -0.214011 -0.0337524 -0.415085 -0.00102709 -0.0279238 -0.0831157 0.130431 -0.0154012 0.077132 -0.00571064 -0.0271601 -0.0154388 0.204898 -0.175671 -2.66705 0.332849 -0.0537413 -0.014302 1.22878 -0.78627 1.58728 -0.00205173 0.0325858 -0.0162099 0.0881549 -0.00491854 -0.00391557 0.740549 -0.00564691 2.59695 0.548829 0.184377 0.00139072 -10.287 -0.0081024 0.00121512 -0.73975 -0.0140193 -0.0381446 -2.52545 -1.99875 0.124765 -0.00764345 0.523129 0.122617 0.937178 -0.0157196 0.000194092 -0.0154284 0.914091 0.165642 0.849913 -0.0217298 0.803687 -0.00092777 -0.352515 -0.000458649 0.00176183 -0.0163037 -1.09477 -0.964751 -0.245706 -0.0300342 1.23598 0.396088 -0.00974658 -0.386256 -0.00302737 -0.0347771 -0.13627 -0.00689931 0.409538 -0.000993166 -3.64694 0.591399 0.873353 -0.101397 0.399313 0.231703 -0.959736 -0.0279799 0.791167 0.00090239 -0.126281 0.590952 -0.00250639 -0.0201868 0.176054 -0.26355 -0.598723 -0.472943 0.533099 0.051514 0.833208 -0.000613082 0.266876 -0.027609 0.196753 -0.125931 0.00156921 -0.0117868 -0.0025001 -0.0423573 0.710238 -0.505363 -0.336405 0.55332 -1.37828 -0.589814 -0.00363419 -0.00211427 0.364684 -0.341206 -0.0844201 0.0473408 -0.031623 -1.20882 -0.0327495 0.494679 -0.00260913 -0.0145089 1.26659 -0.0160208 0.10158 -0.92574 1.23637 -0.00587907 -0.535249 -0.555594 -0.0308053 0.190224 -0.00138603 -0.0188176 0.0818454 0.662244 -0.00984362 1.08776 -0.00777881 -0.0296301 -0.01273 -0.894777 0.603856 0.865897 -0.564414 -0.0284053 -0.0131738 -0.0995447 -0.0886939 -1.78102 -0.00396979 0.221241 -0.0142141 0.404493 -0.00624916 -3.82775e-05 0.144158 -0.00752986 -0.811763 -0.0145395 -0.0423365 -0.000738036 -0.206787 -0.00528483 -0.000821493 -0.24306 -0.00627583 -0.0292345 -0.946908 0.947834 -0.0746929 -0.0030461 -0.847935 -0.877362 0.399183 -0.018748 -0.00148809 -0.0242974 0.493342 -1.08477 0.5178 -0.0199994 0.57477 -0.00203896 0.00348634 -0.00061927 -0.0159826 -0.0225988 -0.1059 -0.066528 -0.104227 -0.0338018 -1.15027 0.35531 -0.0103426 -0.133423 -0.00200381 -0.99453 -0.755012 -0.00382975 -0.469977 -0.0027166 0.585094 0.753984 -0.505067 0.780769 -0.146185 -0.523322 0.272204 0.00183002 0.118324 -0.00350151 -0.0627124 0.699274 -0.00230774 -0.0287754 0.136723 -0.820296 -0.0358047 -0.482992 0.0497677 0.911061 0.173425 -0.00148197 0.932948 -0.0239874 0.424625 -0.641484 0.00135388 -0.0151253 -0.000971491 -0.00917271 -0.105683 -0.60729 -0.10957 0.318397 0.469954 -0.257068 0.000206213 -0.0252572 0.247282 0.00522621 0.509469 -0.414595 -0.028315 0.0497351 -0.0195973 -0.00125491 -0.00300988 -0.000689058 -0.809848 -0.0426211 0.917405 -0.714832 0.0780756 -0.00712783 -0.0392127 -0.302438 -0.0270993 0.142844 -2.52268e-05 -0.00867463 0.121002 -0.0360997 -0.0109114 -1.44622 -0.00614566 -0.0241199 0.00237846 -0.000106618 -0.00291544 0.000737282 -0.00161343 0.000164604 0.00134995 0.000644495 0.000530199 -0.000399391 -0.00153496 -0.000426238 -0.00293894 0.000652929 0.00274785 -0.00242732 -0.00278646 0.00231741 -0.00151835 -0.00294651 0.00188952 -0.002157 0.0022792 -0.00242774 -0.000884639 0.000560523 0.00051109 0.00100609 0.000888163 -0.000399786 -0.00216145 0.00151158 -0.00154928 0.000902756 0.00214424 -0.00249378 0.00283254 -0.00281124 0.00201243 0.00201428 -0.00270086 0.000275317 0.00265902 -0.00107116 0.0018388 0.000608393 0.00173772 0.00179511 -0.00270261 -0.00130081 0.000920741 -6.2068e-05 0.00283711 0.00149094 0.000407047 -0.00120622 -0.00146334 0.00231938 -0.000319195 0.00189592 -0.00240998 0.00215756 -0.00283423 0.00239494 0.00239961 0.000144636 -0.0022788 -0.00193324 0.00123665 0.00198816 -0.002791 0.00154703 0.00274267 -0.000942777 0.000829462 -0.000941965 -0.00170117 0.0017172 0.00133854 -0.00132697 0.000494589 -0.000473965 -0.00244759 -0.00285584 -5.31252e-05 -0.0013304 -0.000961457 -0.0012759 -0.00197458 -0.00060442 0.0011859 -0.00177794 0.000997959 -0.000341604 -0.000400228 -0.00194856 -0.00184079 0.000698528 -0.00138594 0.000358068 0.0026687 0.00128683 0.00107532 0.00275628 0.00165201 0.000646362 0.00268801 -0.00264215 -0.00138773 0.00292008 0.00163324 -0.000147874 0.0010854 -0.000498391 -0.000719105 -0.00172038 -0.000702372 -0.00282199 -0.000166074 -0.000999764 0.00285507 0.000332661 0.00207782 -0.000551619 -0.000227891 0.00195784 0.00294722 0.000143686 -0.00513766 -0.0606674 -0.0611425 0.151434 0.047908 0.00264333 0.0114836 -0.0347563 -0.101254 -0.0559653 -0.00181782 -0.093789 -0.00589764 0.00257067 -0.00350874 -0.000810069 -0.186632 0.00392332 -0.0111315 0.00838109 -0.366066 0.000210813 -0.0311365 0.00567342 0.0011024 0.0874183 -0.000212808 0.00132216 -0.0602558 -0.0139657 0.00434582 -0.000882928 0.00151688 0.0956299 -0.0465586 -0.00796607 -0.000675544 -0.0112627 0.0366827 0.00622246 -0.00350779 0.00711937 -0.092173 0.00142116 -0.065615 -0.00119248 -0.0022893 -0.00806009 -0.0745791 -0.0840707 0.206957 0.0037334 0.000981296 0.0323815 -0.00250263 0.0583505 -0.00132729 0.103314 0.00381821 -0.00056926 0.0258841 -0.000576041 -0.0935689 0.00558336 0.00474774 -0.0387068 0.0278913 0.0874012 -0.057902 -0.0112499 0.305537 -0.000714426 -0.0126315 0.0671543 0.00124147 -0.00585778 -0.355417 0.0260047 0.00594344 -0.177857 0.0316228 0.00628814 -0.0970634 0.000115354 -0.00210976 0.0063445 -0.0772799 0.0279379 0.00143829 -0.00090855 -0.00274847 -0.00462858 0.0701552 0.0241216 0.0805996 -0.0796268 -0.0992272 -0.0733788 0.00153217 0.00456754 0.278354 -0.024629 -0.0415768 0.0035526 -0.00236537 -0.207903 -0.0072468 -0.0214606 0.00356868 -0.000333215 -0.145615 0.0086493 -0.00274779 -0.425048 -0.173561 -0.00100216 0.761132 -0.0110613 0.00826312 -0.00911271 0.00238278 -0.00569241 0.0498583 0.0173814 -0.00104431 -0.00749542 -0.00255734 -0.0131341 -0.00790325 -0.232118 -0.27533 -0.503647 -0.273683 -0.00701623 0.00747003 2.56296 -0.175278 0.832068 0.00246156 0.589458 -0.0061263 -0.13096 0.00111151 0.00117412 2.25856 0.00147307 0.205683 0.740362 0.36859 -0.00088988 -0.33466 -0.00526361 -0.00352491 -0.193706 0.00168626 -5.3079e-05 -0.37467 -0.520327 0.609876 0.00338256 0.675807 0.887393 0.519592 -0.00269353 -0.000739971 -0.000791304 1.33658 0.400933 1.58205 0.0104226 0.0607921 0.000587691 0.435604 -0.00179026 -0.00405192 -0.00412047 -0.204181 -0.170976 0.594838 0.00326214 0.911187 0.0407202 0.00386488 -0.160719 -0.00198481 0.726561 -0.372821 -0.000960387 0.262051 0.000314005 -0.835065 1.3787 0.614817 -0.0488667 1.71678 -0.0626084 0.936872 -0.00385621 2.26246 0.00476142 -0.0098294 0.825939 0.000596574 -0.0282432 0.228368 -0.320481 -0.654694 -0.334476 2.98175 0.603828 1.64707 -0.001584 -0.00296953 -0.00526508 -0.872819 -0.487935 -0.00099908 -0.0135313 -0.00249346 0.00889401 0.828159 -0.266569 -0.144527 2.58821 0.161965 -0.338874 -3.85157e-06 0.0101689 0.825651 -0.281532 0.00079666 -0.425741 -0.00323922 -0.59465 -0.00245707 0.456303 0.00119926 -0.000211175 0.383245 0.0190332 0.0432962 -0.46935 -1.17565 0.00183545 -0.550243 -0.239748 0.00906671 -0.271603 0.000209081 0.01034 1.15557 0.820259 -0.0142563 1.11669 -0.00112751 0.00156251 -0.00759643 -0.203621 0.107658 -0.438285 -1.04639 0.0134476 -0.00918307 0.375749 0.0256852 -0.683337 0.00212886 -0.547937 0.00663962 0.0863118 0.00243308 0.000790956 -0.932451 0.00395596 0.0345006 -0.796439 0.100273 -0.00166903 -0.0768881 0.00559381 -0.000235619 -0.00239675 -0.00259194 0.00242985 0.314648 -0.27851 -0.590701 -5.00252e-05 -0.99703 -0.188228 1.17249 0.00847418 -0.00151305 0.00361646 0.200253 -0.671009 -0.212653 -0.0126594 0.757441 -0.00278506 -0.207233 0.000626552 -0.0294547 0.00538686 0.945361 -0.00107864 0.461916 -0.00322889 -0.837541 0.942321 -0.000669248 -0.0963012 -0.000722368 0.555669 -0.30273 0.00135463 -0.892003 -0.00144811 0.438718 0.845112 -1.26643 -0.690443 -0.88941 -0.94119 0.920312 -0.00406795 0.291437 -0.000154293 -0.00509313 0.656553 0.0017406 0.00206649 -0.440741 -0.225592 0.349261 0.0109036 0.671582 0.085519 0.767574 0.00226385 0.00101277 -0.00896001 -0.638368 -0.145554 -0.00211454 -0.0129404 0.000660553 0.0180432 -0.0689406 -0.390333 -0.34498 1.27058 -0.923369 -0.0343356 0.000787237 0.010994 -0.383909 -0.0280713 0.352702 -0.696669 -0.0180826 0.0559689 -0.00688432 -0.932226 -0.00256941 -0.00124038 0.23498 -0.00147633 -1.01473 0.0464092 -0.201041 -0.00270175 -0.0300852 0.0511698 -0.0152957 1.24111 -0.000609869 -0.0101379 -0.00923752 -1.1015 -0.0154282 -0.720439 0.00439392 -0.00586095 -0.0230664 0.0503644 -0.0742827 -0.430906 -0.544429 -0.0520805 -0.0138947 0.534753 -0.0797553 0.0761656 -0.0034393 -0.246602 -0.0127299 0.148154 -0.00456365 -0.00600402 0.20277 -0.00984173 0.0274815 0.477222 0.0255674 -0.0034526 0.672976 -0.0118271 -0.00264232 -0.0900999 -0.00512168 -0.0360024 0.173968 0.29582 -0.791594 -0.00427504 -0.171616 0.0139157 -0.292958 -0.0118567 -0.00306536 -0.0325355 -0.864935 -0.752244 -0.858815 -0.0300399 -0.420329 -0.00449185 0.617476 -0.00290286 -0.0243286 -0.0108553 0.571611 -0.0823097 -0.272142 -0.03253 -0.100463 0.138988 -0.0166114 -0.0751084 -0.00285299 0.273018 -0.131373 -0.00362114 -0.62244 -0.00459795 1.04103 -0.924543 -0.556939 -0.051186 -0.115738 -0.1896 -0.112063 -0.0119907 -0.00931388 -0.00350478 -0.0437694 -1.07237 -0.00427649 -0.0323065 0.00407532 0.107104 -0.268559 -0.329832 -0.368152 0.0669185 -0.733393 -0.0033807 -0.0197169 -0.0352003 -0.726324 0.245511 -0.00350272 -0.0171836 -0.00267487 -0.0280418 -0.959012 -0.322691 0.0938696 -0.598375 0.208786 -0.0701756 -0.00345389 -0.0223803 0.254167 -0.126605 -0.186478 -0.180377 -0.0277889 0.071391 -0.0435255 -0.0513647 -0.00562658 -0.00353066 0.0610329 -0.0459659 -0.133856 -0.41228 -0.314337 -0.00633017 -0.67261 -0.0698636 -0.02964 -0.266799 -0.00107343 -0.0224661 -0.346057 0.0846653 -0.0168967 0.387533 -0.00859512 -0.0278519 -9.52068e-06 -0.000127129 -0.000289025 0.00319978 0.00194788 -0.000282008 -0.000594079 0.00205183 0.00144506 0.0014258 0.00138503 -0.000812535 0.00264291 -0.00160039 0.00325431 2.5279e-05 0.00122764 0.00285863 0.000139794 -0.000970774 -0.00164051 -0.00296447 -0.00237191 -0.00074874 -0.00102058 -0.00192035 0.000881768 0.0010297 0.000126732 0.00196835 -0.00227842 -0.000636472 -0.000920108 -0.000992284 0.000447699 0.00160585 -0.00203117 0.00103471 0.00175727 -0.00180506 -0.0012103 -0.000620483 0.00233943 8.48761e-06 -0.00133803 0.000203749 0.000950305 -0.000523174 -0.00291142 0.00121659 4.04827e-05 -0.000712404 -0.00261041 -0.00084852 -0.000290497 -0.00177898 0.00142883 -0.000628921 -0.00192431 -0.00074969 0.000867192 -0.00200821 0.00247331 -0.00126775 -0.000674118 -0.000875287 0.000665638 -0.00258016 0.0027002 -0.00265866 -0.00128132 0.00112278 -0.00241631 -0.00116272 0.00203156 0.00257307 0.00215426 0.00149909 0.00235565 -0.00352424 -0.000182775 -0.00168554 0.00176657 0.000977598 0.00189741 0.00176327 -0.000185369 -0.00114285 0.00112548 0.00350252 0.0016196 0.00197749 0.00123651 0.000462907 0.00151724 0.00177864 0.00508949 -0.00145662 0.00281128 -0.00300447 0.000716914 -0.00118065 -0.00223063 0.001345 -0.000539276 0.00253197 0.00146641 0.000535825 0.000460655 0.00202204 0.00222871 4.56134e-05 0.000995676 -0.00170231 0.00197281 -0.00106511 0.00189603 -0.00133073 -0.00265986 0.00150734 0.00309169 0.00253403 -0.00103785 0.00182442 0.000229502 -0.000472063 0.00122698 0.00421375 0.373228 -0.00372823 0.447722 -0.00544167 -0.00504175 -0.00556813 0.00290357 -1.22076 0.000446328 -0.00529455 -0.206079 -1.27406 -0.0038174 -0.590529 -0.00486849 0.0576373 -0.595592 -0.0111703 2.0483e-05 -0.0143266 -0.00612233 -0.351811 -0.00363058 -0.00444036 -0.00142669 -0.00238976 0.00016519 -0.00716478 -0.00159026 -0.00670856 -0.00202178 0.69202 -0.00749005 -0.0302628 -0.00498838 -0.00258705 -0.00193686 -0.0142141 -0.00399066 0.770718 -0.00147769 -0.000456034 -0.010762 -0.00903629 -0.00775418 -0.00299654 0.41384 -0.00471919 -0.0114258 -0.000753926 -0.00324531 -0.00320006 0.000582498 -0.00539142 -0.00659045 -0.0154239 -0.485344 0.131926 -0.0167582 0.0124261 -0.00259848 -0.00934705 -0.00659314 -0.00147479 -0.900731 -2.33484 -0.213561 -0.00361565 0.00241859 -0.00542759 -0.0364901 0.00137623 0.297114 0.059977 -0.00525568 -0.000326726 -0.018682 -0.0032346 0.301312 0.438365 -0.016085 -0.0127553 -0.106132 -0.00987801 -0.0105945 -0.11233 -0.31236 -0.00175045 0.392389 0.741951 -0.00341238 -0.00747223 -0.0112644 -0.00758063 -0.0179796 0.35904 -0.0159357 -0.00732823 -0.00738706 0.00834191 0.000345298 -0.00107784 -0.881578 -0.0140274 -0.159625 0.63897 0.319974 0.377008 -0.00115741 0.447117 -0.0173484 -0.000211804 -0.0372862 0.110883 1.01032 -0.00343587 -0.140417 -0.0023353 -0.00495648 -0.00481906 -0.990968 -0.0006056 -0.0161706 -0.0379995 -0.00274861 -0.0065105 -0.146547 -1.58935 4.14506 -0.00367441 3.34298 -0.0039802 -0.00242433 -0.00263901 -0.000161373 4.25205 -0.00182583 0.00237071 3.20496 3.28723 0.000708685 2.12981 -0.00278067 -3.20361 2.84496 -0.00250038 -0.0126365 -0.00279135 -0.00199626 1.80741 -0.00254536 0.000705604 -0.00171733 -0.000322794 -0.00129772 -0.00482306 0.0227856 -0.00382817 -0.00155229 2.24357 -0.0107702 -0.0279294 -0.00169325 0.00198017 0.00170992 -0.00129637 -0.00166191 3.78527 0.00272908 4.57395e-05 -0.000691106 -0.00202414 0.00178051 -0.0023171 3.62062 -0.000865031 0.00208655 -0.0153111 0.000517066 -0.00679865 0.00045047 -0.000321452 -0.000496979 0.00065285 2.46088 3.08621 -0.015708 -0.00457986 -0.00224628 -0.00270839 -0.00198455 -0.00402217 2.56284 1.93649 -0.0157272 -0.00790648 -0.0139886 -0.00123011 4.03641 0.00168651 2.05023 4.44278 -0.00494177 0.000903711 -0.00422497 -0.00153676 2.76218 2.188 -8.44224e-05 0.00270455 3.36888 -0.0131562 -0.00471466 0.252902 0.0474982 0.000307072 0.181436 1.49014 -0.00128645 0.0017809 -0.0021434 -0.00239943 -0.0176799 1.14563 1.66816 -0.000951578 0.00232371 -0.0157841 -0.00451493 -0.00018718 2.93289 -0.000532115 3.02596 1.75276 4.72685 -1.76947 -0.000272138 2.71246 -0.0156824 0.000421535 1.99546 -0.852972 2.38188 -0.0085551 2.1332 0.000991948 0.000385025 0.00102691 0.947089 0.000186759 -0.00299122 2.41795 -0.000573697 -0.00374707 3.06482 1.92934 0.392836 -0.00740952 -0.235036 -0.00684069 -0.00617685 -0.0070731 0.000606144 1.29614 0.000491079 -0.00573722 0.973455 -0.0712843 0.000110087 -0.221789 -0.00233591 1.42788 -0.287474 -0.0102188 0.00121283 -0.0145124 -0.00464117 0.0894239 -0.00600222 -0.00454049 0.000870434 -0.00293175 -0.000973981 -0.00572124 -0.00223177 -0.00321358 -5.18603e-05 -0.239791 -0.0107244 -0.0291408 -0.00317747 -0.00478123 -0.000672253 -0.0149798 -0.00378265 -0.979517 0.000934159 -0.00163936 -0.0110432 -0.00972481 -0.0085231 -0.00525765 0.540859 -0.00300793 -0.0101251 -0.0129754 -0.00333817 -0.00202767 -0.00204652 -0.00250733 -0.00417492 -0.0170493 0.311043 -0.432512 -0.020616 -0.00819459 -0.0034511 -0.0105075 -0.00256851 -0.00229564 1.36786 1.1009 0.757022 -0.00747633 0.00135557 -0.000816868 -0.388028 0.000493769 -1.20817 0.958613 -0.00488249 0.00219596 -0.0198642 -0.00632032 -0.05504 -0.572852 -0.0153626 -0.0134921 -0.572676 -0.00883317 -0.00979337 0.26187 -0.533717 0.00228274 -1.83639 -0.569621 -0.00580139 -0.00750295 -0.0103614 0.000546114 -0.00590891 1.41603 -1.35966 -0.00591495 -0.00782134 0.000971806 0.000841792 -0.000817248 1.6604 -0.0130567 0.0489208 0.859977 0.294421 -0.70342 -0.00405442 -1.87756 -0.0177248 0.00177217 -0.746235 0.16184 -0.701393 -0.00278256 -1.41862 -0.00184972 -0.00208799 -0.00761133 0.687211 0.00216801 -0.0136975 -0.213169 -0.00303854 -0.00178278 -0.269069 1.80179 0.109984 1.13014e-06 -1.10664 -0.00452712 -0.00192781 -0.00153897 -0.000922313 -0.378305 0.00289764 0.00125783 -0.938928 -2.36983 -0.000717107 0.685689 -0.0127682 0.353213 -0.494943 -0.0036036 -0.00976545 -0.0136732 -0.00256681 -0.557939 -0.00439476 0.000739013 -0.0056994 -0.00221433 3.48743e-06 -0.00363092 -0.0185616 -0.00337802 -0.00219048 0.936088 0.000843353 0.000952645 0.00105198 0.00139879 -0.00609019 -0.0156667 -0.00459398 -0.195715 0.00192612 -0.010288 -0.00102015 0.00279883 0.00183776 -0.00166687 -0.0803554 -0.00261757 -0.000447101 -0.000573971 -0.000598243 -0.00232846 -0.000454135 0.000681275 0.000355588 -0.0016806 -2.55284 0.562258 0.000566959 -0.0202982 -0.00295142 -0.00781411 -0.00153816 -0.000417555 -2.14678 -3.28991 0.964441 0.000512556 -0.00228615 -6.59931e-06 -0.920252 0.00230169 0.563608 -0.835943 -0.00518783 0.00254863 -0.00176996 -0.002373 1.16086 -0.458225 -0.0179899 -0.00171313 0.490829 -0.00164008 -0.00232527 -0.0524944 0.0318987 0.0003209 0.945356 0.0853536 0.000805669 0.000602734 0.00245512 -0.00214717 -0.0238158 0.208699 0.410353 -0.00193782 0.00132157 -0.0139862 -0.0042603 -0.00500964 -2.24751 -0.01171 0.422438 -1.41249 -0.19799 0.76051 0.000923522 0.341283 -0.00203387 -0.000405739 0.0741085 0.508537 -1.11194 -0.000945471 0.309326 -0.000696337 -0.00127158 -0.0001144 -2.4181 0.00111687 0.000103527 0.162144 -0.00169084 -0.000382827 0.654568 -0.920001 -0.0226903 0.00186261 -0.0262372 -0.00198301 -0.00191038 0.00114862 -0.00172242 -0.032129 0.00161001 6.9004e-06 -0.00514453 -0.0115999 -0.000316695 -0.0201558 0.000435071 0.0859148 -0.0314874 -0.0011993 -0.00298727 0.00268351 0.0016037 -0.0171044 -0.00218067 -0.000904083 -0.00209196 -4.45368e-05 0.00180524 0.000791953 0.00113041 0.000863321 0.00137593 -0.0243345 0.000761732 -0.00191645 0.000439839 -0.00204713 0.00242002 -0.00253594 -0.000991405 0.016275 -0.000148589 0.00179925 0.000184669 -0.00163614 0.00125691 -0.0021082 0.010439 0.000803895 -0.00162416 -0.00190663 -0.00200188 -0.00210236 -0.00178352 0.00272975 -0.00289961 0.00274509 -0.00747409 0.012002 -0.00121494 0.000150438 0.00213604 0.00237843 -0.00186594 0.000923467 -0.0143609 0.0283958 -0.0380796 -0.0019266 0.00147931 -0.00272037 -0.0248764 -6.52468e-05 -0.0162662 -0.0272902 -0.00299412 0.000255645 0.00213987 0.00245483 0.0243375 -0.0388358 0.00145785 -0.00229506 0.0201491 -0.00198701 0.00198667 0.00256807 -0.00198309 0.00230242 0.00218672 0.00448908 -0.00137128 0.0022073 0.00144901 -0.000325063 0.00125783 0.0226918 -0.0410632 -0.00150586 0.000845575 0.00182486 0.00214333 -0.000616075 -0.015789 -0.00251831 -0.0136337 0.0239845 -0.0291021 0.0484986 0.00092813 -0.0199247 0.00171466 0.00253538 -0.00558676 0.128479 0.00164134 0.0015587 0.0162494 0.00199625 -0.00143292 -0.00172187 -0.00367593 -0.000615857 -0.000125341 0.00296342 0.000626871 0.00262774 -0.0157899 -0.0114088 0.00516387 0.0014644 0.00352291 -0.002682 -0.00247307 0.00178792 0.000933494 0.00166949 0.000342401 0.00131881 0.00152599 -0.00163277 0.00186612 -0.00209336 0.00229139 -0.000877148 -0.00285108 -0.000737044 -0.00199313 0.000241337 -0.00239003 -0.00267728 0.00259937 0.00282955 -0.000834432 0.000865232 -0.00259232 -0.00175253 -0.00276238 -0.000183844 -0.00209942 0.00300771 -0.000437626 0.00273223 0.00134548 0.00048535 0.000241548 0.00123265 -0.00296983 0.00169509 0.00256116 -0.00295023 0.00194777 0.00160402 0.00298282 -0.00163408 0.00253852 0.000851996 -0.00236808 -0.00139103 0.00158306 0.00183306 -0.00237448 -0.000181447 -0.00168563 0.00253625 -0.00102028 0.00216967 -0.00144092 0.00226838 -0.00187039 0.00155516 -0.00280986 0.000854035 0.0004338 -0.00451415 -0.0016438 0.00175294 -0.00212734 -6.51453e-05 -0.00292293 -0.00188033 -4.64275e-05 0.00601662 -0.00215366 0.0013933 0.0011464 -0.00279304 0.00393348 -0.00106224 -0.00232529 0.00145928 0.000885433 0.000565097 -8.26502e-06 0.000407116 -0.000440974 -0.00254256 -0.00125648 -0.00322581 0.000800001 0.00258466 0.00286662 -0.00243842 0.00097041 -0.00391537 -0.00563608 -0.000862462 -0.000146529 0.00102613 0.00275787 -0.00246549 0.00183819 0.000544654 0.00253245 -0.00626795 0.00273786 0.000467187 2.4769e-05 0.00168414 -0.00130209 -0.00164784 -0.000957678 -0.000280492 0.00142431 5.93141e-05 -0.000619468 0.0024329 0.00279155 0.000769604 -0.00665147 0.000709811 -0.000701879 0.00294716 -0.00127904 0.00123715 0.000284049 -0.00578513 -2.1909 -0.00500034 -0.0683184 -0.00304405 -0.000203493 -0.000291624 -0.00219596 -0.793554 -0.00660005 -0.00243543 0.00833249 -2.04892 0.000193534 -1.6077 -0.0170883 -2.19268 -0.805719 -0.00101254 -0.0212399 -0.000868994 -0.00378412 -1.72673 -0.00281004 -0.000513335 -0.00313114 -0.00217661 0.00129149 -0.00331185 -0.0440585 -0.00291867 -0.00386098 -0.0769569 -0.000949938 -0.0046401 -0.00422174 -0.00444894 -0.00726687 0.000535452 -0.00295625 -1.65381 -0.0120908 -0.0147736 -0.00651517 -0.0163767 -0.000785111 0.000597498 -2.10791 -0.000365851 -0.00246065 -0.00283032 -0.00102586 -0.027182 -0.00879028 -0.00295757 -0.00161843 -0.00846624 -2.86804 -2.72488 -0.00688705 -0.0158372 -0.00479609 0.000889725 -0.000115176 -0.00140813 -2.71009 -0.167102 -0.0352415 -0.0152746 -0.00142526 0.000158682 -1.2191 -0.00244036 -1.22127 -1.17734 -0.0046831 -0.00518137 -0.0133864 -0.00312013 -0.252885 -0.776731 -0.0138639 -0.000274885 -0.204772 -0.0154176 -0.00260757 -0.266495 -0.38792 -0.00588018 -3.61437 0.227419 -0.000281873 -0.00293902 0.000594487 -0.0145512 -0.0249216 0.443434 -0.590149 -0.000294415 0.00232682 -0.0201274 -0.00572508 -6.22626e-05 -1.48387 0.0016957 -1.47554 -0.742219 -1.52318 -0.400886 -0.0133847 -0.908398 -0.00219915 -0.00192674 -1.07447 -1.17128 -0.712763 -0.0140686 -1.91264 -0.00310523 -0.00388757 -0.00586278 -2.09359 -0.00398924 -0.0131957 -0.360302 -0.00098653 0.00400309 -0.856533 -0.728505 -0.460493 -0.00801767 -0.216127 -0.00775112 -0.0041198 -0.00774707 -0.00384605 -0.0444298 0.00170602 -0.00768331 -0.0610559 -0.0142896 -0.00537356 -0.285927 -0.00517351 -0.085708 -0.0783537 -0.0110964 -0.000211212 -0.0186704 -0.00194302 -0.236978 -0.00210058 -0.00341751 0.0029035 -0.000391429 -0.00341288 -0.00400845 -0.000391038 -0.00446885 -0.000373252 0.0238204 -0.0110825 -0.0320195 -0.00757047 -0.00198776 -0.00365706 -0.0162854 -0.00421623 -0.0831236 0.00189145 -0.00226565 -0.00986119 -0.00850333 -0.00509539 -0.00249986 0.147036 -0.00612105 -0.0056219 -0.0130753 -0.00817916 -0.00390599 0.00190542 -0.00274568 -0.00475906 -0.0120341 -0.00412951 -0.0210968 -0.0184445 -0.00250795 -0.00125864 -0.00517935 -0.00654402 -0.00564407 0.111348 0.155591 -0.213574 -0.00199929 0.00268463 -0.00116528 -0.120943 0.00282147 0.0535278 -0.227591 -0.00710063 0.00189061 -0.017949 -0.0079614 0.170949 -0.185109 -0.013851 -0.0184752 0.0134935 -0.00827931 -0.0107986 -0.00261527 0.14922 -0.00238368 -0.0590664 -0.13556 -0.00640966 -0.00295204 -0.00935549 -0.0131644 -0.00369181 0.0533264 0.00782366 -0.00789448 -0.00589975 -0.0176397 -0.00148041 -0.00345585 0.0413797 -0.0119166 -0.00917343 -0.0579176 -0.258687 0.195902 -0.000596263 0.0925518 -0.0136674 0.00157597 -0.120771 -0.0117763 0.166689 1.60804e-05 -0.129757 -0.00355875 -0.00227949 -0.00950318 0.125899 -0.000403421 -0.0110566 -0.15728 -0.00134296 -0.00488313 0.0630888 0.0781663 -0.905439 -0.00759429 0.098949 0.0021489 -0.00236504 -0.00247118 -0.00266743 0.496846 -0.00249928 -0.00731843 -0.623862 -0.442805 -0.00509427 0.130969 -0.0164757 -0.675658 0.136456 -0.0123965 0.0144795 -0.00255429 -0.0010179 -0.163796 0.000326152 -0.00111018 -0.0021155 0.000569142 -0.0010337 -0.00284485 -0.0574631 -0.00407751 -0.00467088 -3.89429 -0.00807135 -0.00953843 -0.00622621 -0.00303868 -0.0107854 -0.00422418 0.000367724 -2.63218 -0.0143231 -0.0140475 -0.00966516 -0.0144789 -0.00388767 -0.000669727 -0.785905 -0.00115129 0.000999093 0.0020361 -0.00621977 -0.014815 -0.00787254 -0.0159249 0.000401089 -0.00926483 -0.00717256 -1.37926 -0.0124978 -0.0157169 -0.00122841 -0.00139088 -0.00493163 -0.00101861 -0.745405 0.599874 -0.283787 -0.0161407 -0.00253566 0.00171643 -2.20463 -0.00383199 -2.33365 -1.26835 0.00130922 -0.00305849 -0.0114974 0.000466273 0.0568597 -0.156321 -0.0163528 -0.00125853 -1.91682 -0.0220446 -0.00829331 -0.109173 0.415752 -0.0113381 -1.72609 -0.216517 0.00259836 0.000617229 -0.000735047 -0.0138694 -0.000970913 0.113163 0.222367 -0.00357842 0.00275228 -0.0124447 -0.00645366 -0.00127725 -1.14397 0.00143971 -0.100258 -0.0361355 -1.04307 -0.208702 -0.0526606 -4.78541 -0.00112514 -0.00179841 -0.38483 0.463863 -5.00677 -0.014773 0.00606127 -0.000757327 0.000661874 -0.00669408 0.316223 -0.00606853 -0.0133167 0.25599 -0.00509006 -0.00177134 -2.07373 -1.00196 -0.000530545 0.000732682 -0.000481015 -0.00237345 2.51527e-06 0.00196209 -0.00158051 -0.0026287 -0.00152117 0.000964393 -0.00102354 0.00145217 -0.00237419 0.000600745 0.000124419 -0.00279897 0.000125419 0.00129785 0.00252802 0.0025221 0.00304298 0.00211532 0.00198999 0.00180577 0.000329873 -0.000915405 -0.00298916 0.000930154 0.00218379 -0.000817906 0.00204098 -0.00329939 -0.000727247 -0.00139098 -0.00208247 0.000303031 -0.00139374 0.00275467 -0.000377394 0.00143165 -0.00292347 0.00010951 0.000458708 0.00184427 0.000929809 0.00226937 0.00285981 -0.0020866 -0.00184452 0.00174585 -0.00263577 -0.000661037 -0.0012002 0.00140508 -0.00223269 0.00175545 0.00210011 -4.56814e-05 -0.00149495 -0.00257427 0.000156303 -0.00285191 -0.00262775 -0.00282057 9.57016e-06 0.00103402 0.00190088 -9.32743e-06 -0.00270729 -0.00136994 0.000849787 0.00171832 -0.0012993 -4.24559e-05 0.00165766 0.00057077 -0.000182288 -0.00101476 2.77981e-05 0.00176404 -0.00128913 -0.00022436 -0.000189234 0.00107742 0.000406674 0.000910661 -5.33175e-05 -0.000609251 -0.000135095 -0.00260047 -0.000533829 0.00281455 0.00168433 0.00118231 0.0015939 0.00153949 0.00205962 0.00212975 0.00287197 -0.00277381 -0.000173848 -6.87018e-05 -0.000694322 -0.0027782 0.0020254 0.00135856 -0.00189143 -0.00178414 0.00122894 -0.000330473 -0.00254153 -0.000534958 -0.00224649 0.00179352 0.00258149 -0.00297168 0.00029169 0.0010712 -0.00121866 0.00205909 -0.00123625 -0.00283884 -0.00244016 0.00178731 0.00126842 0.00108283 0.00136138 0.00195249 0.197103 5.16581e-05 -0.203416 0.000870926 0.00228503 -0.00131589 0.000467926 -0.0917668 -0.00206881 0.00200347 0.0101676 -0.428375 0.000257347 0.0475169 -0.00968801 -0.464838 -0.135856 0.0026598 -0.0160808 -0.00151335 -0.0020032 -0.534284 -0.000782415 -0.00249262 0.00130006 -0.000865718 -0.00232249 0.00165218 0.00201603 -0.000608171 0.00020655 0.160329 -0.00205378 0.000602887 0.0026247 -0.00322653 0.00190907 0.00030279 -0.0012134 -0.073213 -0.00151472 -0.00122396 0.000196701 -0.000872093 0.00163869 0.00229009 -0.0130123 -0.000561407 0.000625072 0.00084663 -0.0022352 -2.28479e-05 -0.00113718 0.000471447 0.00320161 -0.000438362 -1.0913 0.354333 0.00277379 -0.000850159 -0.00252002 0.00172116 6.94934e-05 -0.000608704 -0.225888 0.496131 0.225153 0.00265763 -0.00242043 0.00145868 -0.398638 -0.00293195 0.0115141 -0.49773 -0.00102133 0.000895812 0.000975234 0.000454116 -0.295317 0.480452 0.00144152 -0.00043899 0.0309647 0.0020008 -0.00137889 -0.482004 0.121541 -0.000336808 -0.0430149 0.0847748 -0.00280431 -0.000421545 -0.00277643 0.00252434 0.000448302 0.274469 -0.438535 0.00331528 -0.00146989 0.00160318 0.00319841 -0.000933498 -1.07504 0.000405584 0.245256 -0.331742 -0.364083 -0.488371 -0.00158927 0.294333 0.000845502 -0.00117285 0.232935 0.0969167 0.137475 -0.000655228 -0.618656 -0.00205732 0.00118366 0.00119391 -0.521454 0.000187077 0.0023314 -0.001418 -0.00159129 0.00100829 0.0520439 0.268733 0.00362861 -0.00165293 0.00335112 -0.00383841 0.00073383 0.00129543 -0.00381696 0.00212113 -0.000826766 0.00168835 0.00336233 0.00500757 -0.00383949 0.00205058 -0.000888449 -0.00859618 -0.00445052 0.00117972 -0.00222592 0.00264703 -0.000258705 0.00263337 -0.00153161 0.00286076 -0.00224724 0.000192016 0.00185535 -0.000922654 -0.0018547 -0.00302851 -0.00291326 0.00137526 -0.00219179 -0.000296895 0.00043365 0.00172158 -0.000480754 0.000195219 2.7001e-06 0.00239449 0.000269 -0.000183551 -0.00268904 0.00185162 -0.000990573 -0.0016279 -0.000627198 -0.000910592 -0.00200718 -0.0028312 0.00273222 0.00108174 0.00216337 0.00263456 -0.00151758 0.00250454 0.00102564 0.00422404 -6.31234e-05 -0.00119962 -0.00260979 0.00160439 -0.00249029 -0.00125242 -0.0160761 -0.000482036 -0.00427818 0.000188695 0.000802805 -0.00551264 -0.000177772 0.00231796 -0.00486085 0.00392382 -0.00165964 -0.00123136 8.10914e-05 0.00116572 0.00671391 -0.0144156 0.00227206 0.000347146 -0.000686437 0.0023694 0.00205107 -0.00221486 -0.00186508 -0.00207816 -0.00282659 -0.00218359 0.000578711 0.000654296 0.00251354 -0.00119617 -0.00119312 -0.00481635 -0.0115312 -0.0011948 -0.00229944 0.00144424 -0.000729336 -0.00108792 -0.00339996 0.00050595 0.000482178 -0.0029428 0.00562159 -0.000778554 -0.00139605 0.00510701 -0.00189735 -0.00120035 0.00202556 -0.0116061 -0.00182967 0.00123228 -0.00445332 0.000133998 -0.00381187 -0.000223309 0.00196454 -0.00170467 -0.00299395 0.00243964 0.00108025 -0.00253078 0.00269496 -0.0104212 -0.673659 -0.00316344 -0.554369 -0.00278272 -0.00295403 0.00027171 -0.00247338 -0.597777 -0.00272763 0.00205038 -1.14581 -0.399135 -0.000356887 -0.227524 0.00132595 0.274054 -0.195285 0.000905921 -0.0128768 0.00187016 -0.0022264 -0.267104 -0.00174454 -0.000356793 -0.00220276 -0.00317322 -0.0013499 -0.00311941 -0.000610368 -0.0007549 0.000134102 -0.0774765 -0.00246793 -0.00149489 -0.000314646 -1.62096e-06 0.000847833 0.00295572 -0.000410574 -0.708878 0.00272124 -0.00503806 0.00282273 0.00058204 -0.00155864 -0.00257823 -0.800745 0.00188127 -0.00253974 -0.000873161 -0.00220793 -0.00205092 -0.00262712 0.00121106 -0.00476672 0.000700724 -0.836402 -0.555232 -0.00240208 -0.0292337 0.000928359 0.00191016 0.00262902 -0.00603665 -0.630463 -0.597877 -0.162483 -0.00235923 -0.000797346 -0.00453338 -0.617694 -0.00150228 -0.273733 -0.659753 -0.00184407 0.00172532 -0.00418879 0.00206389 -0.174365 -0.648771 -0.00242084 -0.00260738 -0.082422 0.00120932 -0.00233029 -0.145115 0.00972486 0.0018734 -0.839966 -0.634742 0.00138767 0.00242314 -0.000286609 -0.0113996 -0.0173113 -0.724722 0.153317 -0.00259895 0.000241291 -0.0136481 -0.00398538 -0.00518514 -0.284616 -0.00234953 -0.270779 -0.987099 -0.647393 0.511767 0.00198033 0.230397 0.00156437 0.00249065 0.452754 0.12054 0.542643 0.00170826 -0.643943 0.00148134 -0.00258529 0.000499551 -0.722281 -0.00249107 -0.0012112 0.0227389 -0.000176891 -0.00444469 0.00160101 -0.337787 -0.00412034 -3.99736e-06 0.000212939 -0.00319083 0.00101427 -0.00122224 -5.10762e-05 -0.00288035 -0.00198672 0.001471 0.00461999 0.00397755 0.000760666 0.00045851 -0.00459116 -0.00319233 -0.00272291 0.000510596 -0.00189998 -0.00344214 -0.0044958 0.00416761 -0.00401949 -0.000696693 0.000904494 -0.000656957 -5.68093e-05 -0.00327195 -0.00186083 -0.00131469 -0.00297837 0.000628277 0.000831604 0.000552448 -0.00104826 0.00192074 -0.00282134 0.00141526 -0.00508171 -0.000392115 0.00199346 -0.00391079 -0.00254257 0.000341553 -0.00135642 -0.00220767 -0.00095248 -8.45706e-05 -0.0019037 -0.00239271 -0.00179049 -0.00219152 -0.00105727 0.00270327 -0.00212771 -0.00151389 0.00260622 0.00313777 -0.00218809 0.000654327 0.000940452 -0.000715824 0.00149373 -0.00516866 -0.00468915 -0.00614887 -0.000876501 -0.000734714 0.00283563 -0.00233809 -0.000970583 0.0025679 -0.000225659 0.000278712 -0.0042411 -0.00128703 -0.00124936 0.00120837 -0.00161406 -0.00091741 -0.000829873 0.00296943 -0.0019068 2.07203e-05 0.00161264 -0.000671493 -0.000280445 -0.00220288 0.00155104 -0.00460172 0.00089182 0.00178835 -0.00167731 -0.00064948 0.00242837 -0.00583393 -0.00344859 -0.00309359 -0.00136391 -0.00296776 -0.00120814 -0.00260471 6.04327e-05 -0.00139583 -0.00251487 -0.0055902 -0.00181662 -0.000185376 -0.00221609 0.000117097 0.000765039 -0.00282547 0.000358265 0.00116733 9.40736e-05 0.000255494 -0.00128374 0.00176212 -0.0023575 -0.00134021 -0.00722009 0.00231959 0.00282173 0.00265516 0.000828769 -0.00558396 0.000558374 -0.00703645 -0.000673581 0.00139512 8.8703e-05 0.000867091 0.00173909 0.000397519 -0.000759032 0.00417285 -0.00117072 -0.00108376 0.00390526 2.32116e-05 -0.00133622 0.00131571 -0.00190923 -0.000506575 -0.00161295 -0.00249835 -0.00255779 0.00158123 0.00192019 0.00139919 0.00154932 0.00276717 -0.00020145 0.00167952 -0.000562709 0.00269392 -0.00299211 0.00296352 0.000421165 -0.00100875 0.000345018 -0.00120129 -0.00204556 0.000939635 0.00108896 0.00175446 -0.000934092 -0.00149955 -0.00092998 -0.00107041 0.00256491 0.00153643 -0.00127057 0.000637079 0.00163069 0.00207691 0.00241189 0.000574243 -0.00258878 -0.00169174 0.00221645 -0.000514693 0.000992225 0.00170091 -0.00150835 0.000277191 -0.00162479 -0.00295852 0.00152879 -0.002869 -0.00064138 -0.00152057 -0.00177422 -0.00213976 0.00246053 -0.00295858 0.00147854 0.0017931 0.00244679 0.00284744 -0.00228702 0.00230353 0.00195383 0.000822137 0.00272142 0.00268156 0.00500593 -0.00264625 -0.000402913 -0.00107496 -0.00215377 -0.00219249 0.00183569 0.000148586 0.00266554 0.00293004 -0.000540635 -0.00355962 -0.00163888 -0.000323814 -0.00140267 -0.000249531 -0.000402568 -0.00198787 -0.00131605 -0.000422821 4.11631e-05 -0.00109849 0.00115786 -0.000330648 -0.000325948 0.00175814 0.00180074 -0.00144782 0.00395085 0.000946123 0.000331091 0.000801935 -0.00241206 -0.00152594 0.00064602 -0.00117024 0.00160181 -0.00139663 -0.00281855 -0.00122063 0.000370899 0.00281445 0.000285221 0.00130729 0.000354175 0.000200125 0.00225434 -0.000683968 -0.000226055 -0.00469109 -2.99688 -0.00458877 -0.183985 0.00115128 -0.004576 -0.005389 0.000551423 -1.14067 -0.00414697 -0.00243743 -0.93879 -0.456865 -0.0036887 -1.15777 -0.0127075 -1.76029 -1.15576 -0.0107019 0.0107864 -0.000324491 0.000772967 -1.07376 0.00152965 -0.000257199 -0.00934118 0.00074512 -0.00400334 -0.0066022 -0.063109 -0.00038205 -0.000501441 -0.815641 -0.00243506 -0.00643248 -0.00358115 -0.00685856 -0.00944669 1.84005e-05 -0.000755945 -3.68524 -0.0134884 -0.0149664 -0.00688425 -0.0165652 -0.000683948 0.000685322 -2.60982 0.0013929 0.0012007 0.000653313 0.000527615 -0.016843 -0.0077901 -0.0166772 -0.001793 -0.0126097 -0.958587 -2.15084 -0.00972496 -0.0150069 -0.00806434 -0.00130225 -0.00259014 -0.00219219 -3.87378 -3.2697 -0.948856 -0.0150876 -0.00207565 -0.00101296 -1.91159 -0.00231214 -0.401756 -1.3396 -0.0101796 -0.00180011 -0.0118315 -0.00481185 0.00555457 -0.238493 -0.00220874 -0.00125131 -1.02089 -0.0204691 -0.00742374 -0.280583 -0.372313 -0.0126003 -2.12109 0.484333 0.00181598 -0.000548521 -0.00103565 -0.0135609 -0.00136801 -0.225625 -0.276295 -0.0031899 0.000764455 -0.00273903 -0.00399088 -0.00345698 -3.44953 0.00126462 -0.659751 -0.0205477 -0.23744 -0.149067 -0.0538698 -0.589009 -0.000135823 -0.000618676 -0.343986 -0.893399 -1.9823 -0.0122991 -0.0885598 -0.00312304 -0.00393755 -0.00595177 -1.81824 -0.0032641 -0.00898057 -0.514631 -0.00537901 -0.000151857 -0.896339 -2.87706 0.000505695 -0.00110246 -0.00179127 -0.00207592 -0.0021783 0.00125882 -0.000211267 -0.00207495 0.00120527 -0.00192008 0.0020426 3.01387e-05 0.000294903 -0.00179171 0.00172126 -8.0566e-05 0.00039278 -0.000467755 0.00132694 -0.00256281 0.000571951 0.00212039 -0.000301381 0.000915464 -0.00117916 0.000641227 -0.00133251 0.0018088 0.00177701 0.00273314 -0.000333971 -0.000300098 0.000598903 0.00205573 -0.0028128 -0.00187798 0.00266309 0.00268753 -0.000282226 0.001865 0.00257328 0.00103751 -0.000766006 -0.000565826 -0.000367057 0.0010719 -0.00022592 0.00271958 -0.000871812 -0.000965875 0.00237516 0.000272605 0.0014957 -0.00225074 -0.00027153 -0.0025515 0.000938235 0.00118732 0.00251775 0.000960432 0.00113729 0.00212234 -0.00019259 -0.000242107 0.00180567 0.00169192 -0.00189202 -0.00284596 -0.00265911 -0.00214037 -0.00197149 0.000755069 -0.00284589 9.66143e-05 0.00108562 -0.00231127 -0.00157155 -0.00126552 -0.00174063 -0.0012116 0.00180732 -0.0012022 0.00161838 0.000316625 0.00032815 0.00138388 0.00164175 0.00240508 -0.002171 0.00152076 -0.00186352 -0.00282615 -0.00223568 -0.00219467 -0.00223013 0.00238921 -0.00158696 0.00266593 0.000828903 0.00223337 -0.000799416 -0.00158242 -0.00190802 0.000273896 -0.00150534 -0.00142137 -0.00265598 0.000697419 0.00277535 0.0020593 -0.00295236 0.000804153 -0.000891246 -0.00231564 0.000244908 -0.000501472 7.41416e-05 0.00231674 -0.00209971 -0.000391941 -0.00289102 -0.00071382 0.00133422 -0.00242928 0.00100314 -0.00121628 0.000543367 -0.00234209 0.15755 -0.0125731 0.179785 -0.00567706 -0.0157824 -0.0040557 -0.00457734 0.160393 -0.00517802 -0.00704288 0.23446 0.113998 -0.00278227 -0.122309 -0.0137241 -0.471519 -0.27629 -0.014008 -0.0182355 -0.0169728 -0.0034419 -0.351139 -0.000796437 -0.00243487 -0.00426021 -0.000983453 -0.0025454 -0.00873548 -0.0615866 -0.0023316 -0.00542459 -0.116844 -0.00969584 -0.00748845 -0.00127662 -0.00878123 -0.0105043 -0.0164432 -0.00386968 -0.500977 -0.0120744 -0.00756833 -0.00632048 -0.016611 -0.00221716 -0.00435459 0.0202495 -0.00851679 -0.000112501 -0.0158605 -0.00360423 -0.0139893 -0.00625719 -0.0131784 -0.006365 -0.0135084 -0.427212 -0.594288 -0.0104469 -0.0373494 -0.0062018 -0.0108545 -0.00196326 -0.00080701 -0.323264 -0.200129 0.281529 -0.0175499 -0.0149428 -0.00263442 -0.625049 -0.000808551 -0.13575 0.572171 -0.0150082 -0.00434738 -0.0147681 -0.000951568 -0.0289557 0.00132619 -0.0141776 -0.00529294 0.0521895 -0.0226588 -0.00780992 -0.0411544 -0.160437 -0.0121167 -0.611237 0.106629 -0.00108832 -0.00148572 -0.00179955 -0.0167827 -0.028702 -0.0135847 -0.0820864 -0.00509731 -0.000691283 -0.0242573 -0.00453241 -0.00132233 -0.555385 -0.0135275 -0.111957 0.393378 0.208183 -0.318169 -0.0560546 -0.00150645 -0.0128653 -0.00481386 -0.301227 -0.230031 -6.41056 -0.0150405 -0.150639 -0.00192889 -0.00356141 -0.00663294 -0.473119 -0.00294197 -0.00990104 0.0516492 -0.00379632 -0.0028557 -0.00845648 -0.612587 -1.13925 -0.00799172 0.90106 -0.00676617 -0.000819532 -0.00441478 -0.00073412 -1.05349 -0.00487035 -0.00342293 -0.066513 0.495669 -0.00496897 -1.54719 -0.0128865 -0.505514 -1.42565 -0.0113989 -0.00402756 -0.00122995 -0.00200024 -1.20185 -0.00234096 -0.000468084 -0.00428117 -0.00169037 0.00123647 -0.0095722 -0.0521498 0.00101619 -0.00505467 -0.893944 -0.00214521 -0.00401918 -0.00532511 -0.00577075 -0.00792981 -0.000534745 -0.0010018 1.07509 -0.0132298 -0.0109102 -0.00987874 -0.0143103 0.000358251 -0.00156302 0.763261 0.00241082 -0.00372448 -0.00108584 -0.00185494 -0.0165722 -0.00642438 -0.0143092 -0.00646265 -0.00866414 -1.58822 -0.468859 -0.00977222 -0.0135996 -0.00938789 -0.00444366 -0.00773043 0.00271069 -0.341658 -0.485734 -0.294464 -0.0147475 0.00173908 0.00248112 0.42152 -0.00125591 -0.315915 0.661761 -0.0150741 -0.00446273 -0.0164992 -0.00325969 0.369355 -0.414948 -0.0153886 -0.00164672 0.111237 -0.0164132 -0.00835865 -0.0281085 -0.342977 -0.0112049 -1.19357 0.2242 -0.00251208 0.000955362 -0.00283561 -0.0121191 -0.024805 0.098041 0.0991328 -0.00239805 -0.000706336 -0.00943885 0.000612428 0.00165155 -1.18137 -0.00181367 -1.04979 0.471735 -1.07819 -0.299524 -0.05379 0.121295 0.000987852 -0.00337609 -0.210156 -0.265795 -2.38412 -0.0122657 -0.483285 -0.00580197 0.000497602 -0.00683318 -0.744429 -0.000175928 -0.0111734 -0.533365 -0.0046446 -0.00255192 -0.374903 -0.245385 -0.452452 -6.34228e-05 0.025664 -0.00405165 5.19555e-05 0.000619806 -0.00468413 0.0523255 0.00206364 0.00169362 0.121033 -0.549572 -0.00379646 -0.275567 -0.000780159 0.0710887 -0.685542 -0.000601846 0.00409679 -0.000683263 -0.00490239 -1.27075 -0.00156297 0.000450886 -0.0017986 -0.000829827 -0.00253224 -0.00216877 0.000167804 -0.00396331 -0.00250986 -0.0482831 -0.00281667 -0.000390095 0.00034719 -0.000533264 -0.00361499 0.0012594 -0.00513663 -0.31968 0.000648389 -0.00155451 -0.00266236 0.00212835 -0.000694294 -0.000602286 -0.0203897 0.000332341 -0.00122748 -0.00080328 -0.00090571 0.000781344 0.000986652 0.00295258 0.000475699 -0.000897913 -0.684842 -0.0882813 -0.00366595 -0.0187667 0.000910463 -0.00245971 -0.00145382 -0.003658 -0.0208546 0.180648 -0.337966 0.00280219 -0.000396112 -0.0013848 -0.9061 -0.00101234 -0.439644 -0.106089 -0.000336765 0.00234017 -0.00521157 -0.00228052 -0.188188 -0.209539 -0.00374498 2.82959e-05 -0.0587733 -0.000685629 -0.00124769 -0.00357082 0.0157279 -0.000718164 -0.382752 -0.226077 0.000734656 0.0018274 -0.00237617 -0.014119 0.0164777 0.00289678 0.0796608 -0.00441848 0.000594642 -0.00293659 -0.00486625 -0.0024343 -0.153435 0.000341382 -0.493676 -0.626516 -0.407166 0.192227 -0.00126276 0.114957 0.00120898 0.00271255 -0.67924 -0.11205 0.284805 -0.00130762 -0.0789969 -0.00128209 0.000522356 -0.00161583 -0.409192 -0.00176995 -0.000395752 -0.00214673 -0.000746497 -0.0014793 -0.280837 -0.0217408 0.000817142 0.00208578 0.00146778 -0.00245945 -0.00212432 -0.00159999 -0.00159587 -0.00190683 -0.00158966 -0.00134723 0.00270964 -0.000637863 -0.000821139 -0.00102469 -0.000701799 0.00154387 -0.000424681 -0.0022506 0.000703095 -0.00111641 -0.000747615 -0.00276612 0.00208252 -0.000252623 -0.00253431 0.00215865 -0.00179172 0.000689822 0.000971148 -0.0014873 0.00275992 0.000528149 0.000247799 0.00221381 0.000342285 -0.00317711 -0.00026343 0.00184791 0.00118516 0.000433826 -0.00294609 0.00098888 -0.00030344 0.0009577 0.00151925 0.00182843 -0.0025626 0.0016789 0.000404103 -0.0025433 -0.00149027 -0.00219927 0.000386843 0.000245888 -0.00249532 0.00293059 -0.00126551 -0.00124267 -0.00119641 -0.00274777 -0.000231084 -0.00146387 -0.00054774 0.00231658 0.00269351 -0.00227254 0.000403915 -0.000842087 0.00131584 -1.95983e-05 -0.00143494 -4.15242e-05 0.00210934 0.00133913 -0.00194384 -0.00205628 -0.0010099 0.00217363 0.00145606 0.000805187 -0.00235177 -0.00252419 0.00261467 -0.000477428 -7.40185e-05 -0.000238047 9.40636e-05 -0.00136803 -0.00161052 0.0023972 0.00245218 0.000621857 -0.000808581 0.000479162 0.00101092 0.00236738 -0.00247599 0.00054089 -0.0004293 0.000416076 0.000615344 -0.00168189 -0.0019053 -0.00294013 -0.00317511 -0.00106409 0.0018047 -0.000799334 0.000717412 0.00316851 0.000888034 0.000238655 -0.00167288 0.00143899 0.00233395 0.00215885 0.000200045 0.000928513 0.00262878 -0.000400902 -0.00126144 0.000791294 -0.00122747 0.000732173 -0.00271479 0.00258459 -0.0013948 0.000644184 1.59553 -0.00178221 1.80425 -0.00555756 -0.00100601 -0.0100308 -0.00386483 4.0981 -0.00255407 -0.00763004 3.7962 0.138432 0.000636865 -1.04092 -0.00298694 3.64006 -1.68989 -0.01366 0.00330131 -0.00207447 -0.00491988 -2.75192 -0.00358357 -0.00713228 0.00125545 -0.00243171 -0.00402224 -0.00551085 -0.00142972 -0.00281041 -0.00402319 -4.13734 -0.00856938 -0.0316014 -0.00310001 -0.00138066 -0.00716168 -0.0181632 -0.000141724 2.81759 0.000691235 -0.00596379 -0.0106161 -0.00719847 -0.00933044 -0.00402368 2.96651 -0.00622154 -0.00772939 -0.00255093 -0.00831165 -0.0026867 0.000130327 -0.00564592 -0.00417242 -0.0122831 -2.30008 2.89685 -0.0149759 0.00579005 -0.00294324 0.00186354 -0.00579219 -0.00463766 3.38741 2.15922 -2.45921 -0.00566305 0.000889924 -0.00239301 -1.05125 0.000466684 -1.10844 2.5666 -0.00482438 -0.00094536 -0.0190644 -0.0057742 -4.48861 1.50161 -0.00139966 -0.0132503 -0.0217239 -0.0109247 0.00191177 -2.53449 -3.3646 -0.00228908 3.53377 -2.00183 -0.00849706 -0.00323825 -0.00883522 -0.00508054 0.014665 3.22506 -3.46681 -0.000182493 -0.00619547 -0.00132657 0.00136038 -0.00440325 1.03181 -0.00102615 -2.00114 0.72188 0.92732 -5.92742 -0.00287733 0.284198 -0.0141285 -0.00111719 -2.4193 6.10398 4.08988 -0.00213114 -1.57105 -0.00360873 -0.00024838 -0.00726465 -6.11989 -0.00243118 -0.014467 -0.13669 -0.00570742 -0.00420923 -0.516262 4.99505 0.000645109 0.00179275 -0.00191297 0.00237496 0.00147426 0.000218315 0.00282079 0.000225032 -0.00169386 0.00214658 0.00200703 -0.00113397 -0.00104517 0.00202559 -5.54043e-05 -0.00247195 0.00164965 -0.000439966 -0.00132023 -0.000998952 -0.000801458 0.00174582 -0.00277028 0.00136002 0.00223611 -0.00128562 0.000941095 -0.00161047 0.000731724 -0.00255952 0.00280054 0.000649897 -0.000697709 -0.00281658 0.00214539 0.000621259 0.00208704 2.76975e-05 -0.00295307 0.00251444 -0.000535771 0.00139456 -0.00209337 0.0018914 0.00245761 0.00166766 0.00153598 -0.000568815 0.00121141 0.000392766 0.000508418 -0.000930513 0.0012254 -0.00203482 -0.00298979 0.000372005 0.00026895 0.000307829 0.00116978 0.00256496 0.00266526 0.00241958 0.000624638 0.00255898 -0.00230103 -0.000736142 -0.00279736 0.000230219 0.00142337 -0.0019136 -0.00044252 -0.00241099 -0.00119496 0.00151886 0.000221474 0.00161443 0.000835185 0.00235889 -0.00279683 -0.00190556 -0.000502009 0.00143875 0.00233797 -0.00284488 -0.00217462 -0.000455475 0.0015874 0.000146623 0.00152689 -0.00178769 0.00103636 0.000711916 -0.00295892 0.00144122 0.00295041 -0.00219628 -0.000840417 -0.00185795 0.00128639 -0.0019328 0.00291476 -0.00289966 -0.00277798 0.00182598 0.00214924 0.000608647 0.00135827 4.45541e-05 0.000515427 -0.00187518 2.06488e-05 -0.00269451 -0.00266767 -0.000988816 0.000785428 0.00235187 0.00102209 0.0011116 0.00116791 0.00179899 0.0010065 0.00011962 -0.00100958 0.00260504 -0.00152114 6.88682e-05 0.00142469 -0.00126624 0.00246664 0.000340092 0.00257879 -0.000722748 0.00261195 0.00256632 0.00046895 -0.00238103 -0.000798744 -0.00134493 -0.00140341 -0.00141897 -0.00264587 0.00205002 5.0141e-05 0.000470526 -0.000801048 0.0029641 0.00290336 0.00263144 0.00104476 0.00127191 -0.00108667 0.000136637 -0.00135987 0.0011411 0.00134082 -0.0025348 -0.00167052 -0.00156144 0.000744596 0.0010366 0.00200619 -0.00288663 -0.00178729 -0.00038993 -0.000852318 -0.000957638 -0.0027657 0.00156802 -0.000584027 0.000818647 0.000306454 -0.00269126 -0.00115502 0.00279267 0.00276341 -0.00073184 0.000706021 0.0003752 0.00198336 0.00274619 -0.00254697 0.00232815 0.000405823 -0.00183387 -0.00150038 0.00113695 0.000560341 0.000517776 0.00255201 0.000490461 -0.0024012 -0.002272 -0.00227077 -0.00212252 0.000939874 0.000839119 -0.000765387 -0.0021239 -0.000662887 0.00179986 -0.000617895 0.00149293 -0.00135672 0.000840035 0.00212276 -0.00174214 8.59157e-05 -0.00232207 -0.00235247 -0.00261599 -0.00226157 0.000761725 -0.000531996 0.000831538 0.00213934 0.00158145 0.00285696 0.00168922 0.0026135 0.00143491 -0.00147828 0.00123057 0.00116108 0.00163991 0.0014833 -0.000895853 6.25856e-05 0.00145455 0.000611966 0.00272004 -0.00163284 0.00244341 0.00114242 -0.00128295 0.000826428 -0.000114569 -0.00222336 0.000459088 0.00281706 -0.000347157 0.000514062 -0.00233418 -0.00180089 -0.00202222 -0.00304159 -0.00136365 -0.0015229 -0.000848732 -0.00219394 0.00299157 8.11249e-05 -0.000672922 -0.00150088 -0.0010897 -0.000327418 0.0025578 0.216355 -0.00454372 0.159355 -0.004544 -0.00196487 -0.00661366 0.00043681 0.200206 0.00191662 -0.00900532 0.149507 -0.00354507 -0.00607431 0.122572 -0.00515494 -0.0691864 0.093822 -0.0129569 -0.000336063 0.000744918 -0.00335454 0.070732 -0.00409749 -0.0018575 0.00293366 0.000653008 -0.00167072 -0.00215454 -0.0016556 -0.00367997 -0.00203288 0.122246 -0.0105578 -0.0275929 -0.00488633 3.98378e-06 -0.00497763 -0.00101014 -0.0046992 0.104889 -0.00128062 -0.00380252 -0.00933665 -0.00403517 -0.00975286 -0.0031768 0.11577 -0.00372958 -0.0105641 0.00273165 -0.00601021 0.000523677 0.00218971 -0.00638833 -0.00362846 -0.0125657 0.0612656 0.177641 -0.0197646 -0.00210484 -0.00396427 0.0016935 -0.00653652 -0.00219158 0.0456583 -0.202858 0.123087 -0.00448439 -0.00162225 -0.00368395 0.0345352 -0.00139534 0.0974885 0.17664 -0.00509802 -0.000660688 -0.0222081 -0.00463359 -0.604627 0.349334 0.000507902 -0.0151628 -0.0238818 -0.0114857 -0.00553484 -0.00225672 -0.0112133 -0.000235543 0.171409 -0.279906 -0.00547221 -0.00336751 -0.00911655 -0.00561163 -0.00389442 -0.187752 -0.0618564 -0.00378665 -0.00915707 -0.00225785 -0.000530214 -0.00393431 0.0745988 -0.0121911 0.052862 -0.265497 0.236686 0.118995 -0.0020789 0.0490834 -0.0130541 0.000748093 0.182814 -0.679146 0.0542177 -0.0029215 0.0751927 -0.00579794 -0.00720582 -0.00567142 -0.193379 0.00184419 -0.0148918 -0.144374 -0.00357522 -0.00808381 0.0759282 -0.141848 0.00427869 -0.000411586 0.00715493 -0.00191577 0.00284898 0.00200256 -0.000937711 0.00474931 -0.00117746 -0.00246469 0.00364714 0.00284304 0.00165739 0.00370875 -0.000777479 -0.00422461 -0.00095954 -0.000997774 0.000322073 0.000270621 -0.00208363 -0.00145084 -0.0005761 0.0019883 -0.00188999 -8.35107e-05 -0.00229791 0.00235961 0.00132752 0.000426496 -0.000662584 0.000921661 0.00232142 0.00243029 -9.66643e-06 0.000155377 0.00246508 0.000471591 0.0015999 0.000968368 -0.000182057 -0.00170483 0.000615538 -0.00189445 -0.00181494 0.00217195 -0.000913418 0.000873481 -0.000376091 0.000675631 0.00142489 -0.00118032 -0.00274219 0.00201304 -0.000469355 0.000968036 0.0034064 -0.000183465 0.00310311 0.00200612 0.0017059 0.000939676 0.000262038 -0.000631752 0.00316552 -0.0032177 0.00280881 0.00292605 0.00172952 0.00205998 -8.63229e-05 0.00224254 0.000255519 0.00323208 0.00014555 -0.00281275 0.00235243 -0.00141446 0.00461951 -0.00112447 0.00109469 0.000904555 -0.000452756 -0.000135579 0.00261852 -0.00155338 -0.00174532 -0.00136517 0.0016549 -0.00466043 0.000618448 -0.00189591 -0.00247525 -0.00114264 -0.00161473 -0.00116261 -0.00131596 -0.00251846 0.000561882 -0.00276764 -0.00398644 5.19913e-05 0.00324661 0.000750178 -0.000421495 -0.00136629 0.00647311 0.00360528 0.00238292 0.000224227 -0.000973614 0.000713132 -0.00148282 -0.000747015 -0.00187571 0.00186316 0.00253147 0.00104804 0.00242563 0.00192577 -0.00356239 -0.00290675 -0.00243188 8.85497e-05 0.0027149 0.00210571 0.00355691 -0.000913264 0.0167705 -0.000419479 -0.000355661 -0.000696817 0.00275491 0.0025814 -0.000831855 -0.00598757 0.00115609 0.00129962 -0.00159121 0.0157849 -0.00103487 -0.000813944 -0.00144234 -0.0159064 0.0166775 0.000596756 -0.00163803 0.000552025 0.00167934 -0.00176691 -0.00301664 0.00206169 0.0016218 -0.000830478 5.90026e-06 0.00211242 -0.00101599 0.00332125 0.00046023 0.0123354 -0.00139881 0.00234107 -0.000803393 -0.00288571 0.00235906 0.000905012 0.00215846 0.0133502 0.00197246 -0.000807001 0.000544671 -0.00273066 0.000386749 0.000801266 0.0159532 -0.00264226 9.0979e-05 -0.00268083 0.00206179 0.000568037 0.00114611 0.000883361 0.00143579 0.00272315 0.0115174 0.0142836 0.00242994 -1.82195e-05 0.000551791 -0.00192074 0.00114973 0.00169148 0.0134671 -0.00666634 0.0116285 -0.00164552 0.000996903 0.00165096 0.0142863 -0.00283649 0.0168748 0.0148121 0.00250994 -0.00103212 0.000851181 -0.00289531 -0.012225 -0.0337667 -0.00142946 0.00272007 0.0170096 -0.000996455 0.000796997 -0.000506726 0.000458999 0.002757 0.00069509 0.0141304 0.00202962 0.00135699 -0.00234692 -0.00221234 -0.00121794 0.00657016 0.00223474 -0.000306809 0.00196774 0.000962754 -0.000541913 0.00027449 0.0126619 0.00101978 -0.00220302 -0.00355303 0.0132466 0.00109113 -0.000637362 0.0144732 -0.00175822 0.00134712 0.0040772 0.00255883 8.47199e-05 -0.00184114 -0.000381405 -0.00181092 -0.000133607 0.00211845 0.0151908 0.00255395 -0.000761534 0.00118948 0.000531753 -0.00326053 0.0150735 -0.0131008 1.30253 -0.00579939 1.35959 -0.00659748 -0.00449381 -0.00500522 0.000526823 -2.60915 -0.00168818 -0.00813547 -2.4085 -0.947355 -0.00564312 -0.281088 -0.00146887 3.01684 -0.550117 -0.0131597 -0.0157132 -0.0138912 -0.0070948 -0.653764 -0.000849882 -0.00474589 -0.000931507 -0.00486552 -0.00314104 -0.00403589 -0.000300024 -0.00571311 -0.00150201 -0.483308 -0.00661616 -0.0311496 -0.00649816 -4.13223e-05 -0.00425658 0.000185551 -0.00348959 1.23795 -0.00130493 -0.00199528 -0.00701812 -0.00801253 -0.00503585 -0.00271144 1.80564 -0.00798021 -0.00885602 0.001124 -0.00470677 -0.000476136 -0.00294368 -0.00811367 -0.00276794 -0.0127021 -2.87256 1.40093 -0.0164686 0.013448 -0.00111118 0.00172644 -0.00536523 -0.00331062 -3.13469 -3.01688 -0.559649 -0.00842485 -0.00162046 -0.00377487 0.0590244 0.00146211 0.284828 1.30773 -0.00698419 -0.00237256 -0.0205555 -0.00570633 0.149898 -0.0364069 -0.0132905 -0.0149728 0.367219 -0.00959726 -0.00745009 -0.251644 0.607049 -0.000344126 2.03945 -0.268615 -0.00630083 -0.00486809 -0.0106453 1.62757e-05 -0.000881013 0.621831 0.571159 -0.00228351 -0.00597707 -0.000650072 -0.000448234 -0.000927484 -2.30316 -0.0100446 -0.675743 -2.08708 1.21544 -1.10708 -0.000901039 0.615895 -0.0136353 -0.000727898 1.13906 0.494398 1.12287 -0.00204277 -0.377121 -0.00215052 -0.00540354 -0.00603435 -3.55395 -0.00113336 -0.0126046 -0.105998 -0.00660891 -0.00668842 0.150921 -0.581101 0.496715 -0.00644957 -0.291847 -0.00489882 -0.00641337 -0.00895992 -0.00263787 1.81995 0.000765809 -0.00711988 0.98288 -0.358912 -0.00608856 -0.134557 -0.00317435 -0.67415 -0.69146 -0.0112495 -0.0112116 -0.0154116 -0.00247313 -1.36503 -0.00230761 -0.00311716 0.000545654 -0.00334122 -0.00171148 -0.00523779 -0.00198736 -0.0063515 -0.00247817 -0.765245 -0.00853518 -0.0316928 -0.00325907 0.00172763 -0.004017 -0.0128044 -9.1528e-05 -1.02131 -0.00205369 -0.00583194 -0.0110621 -0.00790655 -0.00852077 -0.00289938 0.0986446 -0.00623388 -0.00981842 -0.00821845 -0.00323636 -0.00514883 -0.00220666 -0.00334186 -0.00267702 -0.0164666 0.884223 -0.273172 -0.0197597 0.0074941 -0.00282388 -0.00251821 -0.0050238 -0.00344425 1.58542 2.23552 -0.42866 0.000811054 0.00181449 -0.00178506 -1.02598 0.00266687 -0.879639 1.12841 -0.00378943 -0.00174002 -0.0167887 -0.00245349 -0.155649 -0.280752 -0.0140001 -0.0179172 -0.218381 -0.00744238 -0.00970871 0.198221 -0.20847 -0.0028903 -2.07125 -0.575014 -0.00349137 -0.00478953 -0.00812219 -0.00499792 -0.0102211 1.09292 -2.18835 -0.00639302 -0.00838984 0.00111144 -0.00407268 -0.000129859 2.00395 -0.012827 -1.0321 1.66961 0.54709 -0.969384 -5.09777e-06 -0.830921 -0.0138981 -0.000231296 -0.925053 0.691682 0.734254 -0.00298469 -0.673 -0.00581927 -0.00503448 -0.00661962 0.803447 0.00200466 -0.0105034 -0.167925 -0.0027488 -0.00695975 -0.548316 1.84468 1.24291 -0.00381281 0.427168 0.00079403 -0.000302897 -0.00405596 -0.000849272 0.436037 -0.00454353 -0.00391712 0.156092 -0.754369 -0.00227608 -0.366 -0.0111362 -0.474557 -0.153484 -0.0117894 0.00746885 -0.00324002 -0.0029034 -0.410808 -0.000903072 -0.00326502 -0.00200086 -0.00312379 -0.000836536 -0.00523809 -0.0548474 0.000956121 -0.00256284 -0.22659 -0.00140213 -0.00830232 -0.00367775 -0.00248169 -0.00853049 0.000107633 0.00158769 0.424012 -0.01528 -0.00971995 -0.00436843 -0.0130456 0.00127739 -0.00220272 0.414676 -0.00299781 -0.0010768 -0.00211515 -0.00379288 -0.0187017 -0.00699786 -0.0131986 -0.0022773 -0.014311 -1.35651 0.576346 -0.0123976 -0.0195269 -0.00282944 0.00140878 -0.00375864 -0.00244512 0.217509 0.303071 0.119681 -0.0116599 0.00296444 -0.00218503 0.668319 -0.00510524 -0.185426 0.820563 -0.00841899 -0.00481372 -0.0138885 -0.00133173 0.568874 -0.0108265 -0.0138793 -0.000399046 -0.398313 -0.0224248 -0.00374135 -0.0861299 0.250441 -0.0109553 0.682204 0.0242439 -0.00068605 0.00214168 -0.00549354 0.000561264 -0.00316822 0.0369201 0.0123647 -0.00416056 -0.00830789 -0.00997812 -0.00319693 -0.00262648 -1.64899 -0.00172679 -0.571893 0.0937181 0.258411 -0.489399 -0.0573588 -0.765127 -0.00254617 -0.00405945 0.441658 0.465471 -0.800644 -0.0134839 -0.988656 0.00219691 -0.00394638 -0.00661246 -0.520535 -0.00119894 -0.0135817 -0.168913 -0.00513116 0.00321454 -0.117514 0.400153 -0.00400649 -0.00322698 0.00050856 -0.00169785 -0.00298162 -0.000210352 0.00079494 0.000496182 -0.00119355 -0.00158397 0.0020531 0.00172362 -0.000819205 -0.00253794 -0.00360284 0.00236949 0.00314235 -0.000659511 0.00196086 0.00210843 0.000962431 0.00312512 -0.000877161 -0.00196922 -0.00157469 -0.00118791 -0.00388218 -0.00339311 0.00288096 -0.00264875 0.00043051 0.000667003 0.00240923 -0.000623761 0.0011566 -0.00245295 -0.00297122 0.000734315 -0.000562181 -0.00121929 0.000429371 -0.00309453 0.00185699 -0.000807015 0.00119274 0.000800556 0.00174538 -0.00179522 0.000589066 -0.00249778 0.000266488 0.00207689 -0.00275581 -0.00102384 -0.000470371 0.00216187 0.00148898 0.00311174 -0.00198125 -0.00139593 -0.00103637 -0.00203493 -0.00204661 -0.00374149 0.00142441 0.000578166 0.0018887 0.00163992 0.000437187 -0.00218771 -0.00127766 0.00151432 -0.00374905 -0.00438087 -0.000889134 -0.000872448 -0.00185867 -0.00120687 -0.000306668 -0.000883839 0.000878705 0.00297194 -0.00217497 -0.000190765 -0.00243718 0.00135102 0.00247227 -0.00248151 0.000119705 0.000243165 0.00111089 -0.00120207 0.000611266 -0.0036631 0.000940545 0.0011255 -0.000309729 -0.00354572 -0.000469285 -0.000100176 -0.00242346 0.000489246 -0.00218261 -0.00149292 0.00154101 0.000854549 -0.000334873 -1.66736e-07 -0.00270944 0.00050134 0.00135293 -0.00216574 0.00218784 -0.001519 0.00203983 0.00202002 -0.0020887 -0.000631448 0.00132038 -0.00295093 -0.000681523 -7.33663e-05 0.000708821 -0.00257994 -0.00214387 -0.00136905 0.000262119 -0.00236084 -0.269046 -0.00970656 -0.184986 -0.00332856 0.001305 -0.00459158 -0.00470986 -0.56845 -0.00490703 -0.00678531 0.0908393 -1.03148 -0.001606 -0.478824 -0.0149828 -0.400672 -0.781771 -0.0122975 -0.00176632 -0.0156924 0.000516578 -0.238555 -0.0047717 -0.00367471 -0.00291742 -0.00492613 -0.000181045 -0.00964511 -0.0341865 -0.00157554 -0.00527368 -1.80472 -0.00109742 -0.00744087 -0.00404148 -0.000574534 -0.00728815 -0.000625656 -0.0058472 -1.16444 -0.0140195 -0.0111376 -0.00600955 -0.0130601 -0.0024736 -0.00476356 -0.207677 0.000966263 -0.00162497 -0.00244647 -0.00538924 -0.0286862 -0.00922554 -0.0120573 -0.00394858 -0.0124657 -0.262618 -1.07531 -0.0135974 -0.00746829 -0.00480429 -0.000456797 0.00179594 -0.000493727 0.161428 -0.279064 -0.848233 -0.0138521 -0.00134992 -0.00517687 -0.829971 -0.00310703 -2.80479 -0.311869 -0.00478802 -0.00634261 -0.0164388 -0.00123993 -0.823022 -0.107904 -0.00383253 -0.000763326 -1.65238 -0.0178132 -0.00896636 -0.0979617 0.0217996 -0.00842907 0.475113 0.416794 0.000778086 0.000879386 -0.00184902 -0.0142626 -0.0200755 -0.369695 -0.100032 -0.0084772 -0.00995027 -0.0190985 -0.00199425 -0.00306771 -0.731254 -0.0020312 -0.719173 0.256633 -0.0894919 0.183788 -0.0415976 -1.15264 -0.00136474 -0.00412184 -0.523194 -0.223684 0.867274 -0.01557 -0.165253 -0.00205591 -0.00435887 -0.00559366 0.102531 -0.00309282 -0.01252 -0.791764 -0.00180245 -0.00453556 -0.877652 0.292342 0.0278301 -0.00711201 -0.158125 -0.0030611 -0.0024775 -0.00257613 -0.00109085 -0.535946 -0.00279008 0.000651784 0.998387 -1.2352 -0.00302437 -2.63948 -0.0169232 0.885266 -2.88893 -0.000387756 -0.00252973 -0.00369427 -0.00152823 -1.32552 -0.00348735 -0.00301472 -0.00301177 -0.00382687 -0.00167058 -0.00993613 -0.0395656 -0.0034429 -0.000575585 -6.85755 0.00120724 -0.0042793 -0.00186695 -0.00308383 -0.00694648 -0.0151298 -0.00175757 -1.41529 -0.0154393 -0.00481646 -0.00818346 -0.0128272 -0.0025136 -0.00451224 -0.790248 -0.00676195 0.00160815 0.000662226 -0.00364669 -0.0271372 -0.00623216 -0.0153727 -0.00587 -0.0112248 -1.75969 -1.81504 -0.0110756 -0.0118665 0.00166499 -0.000536629 -0.002938 -0.00415039 -0.0512333 -0.857992 -4.63583 -0.0134025 -0.00142601 -0.000638314 -2.32543 -0.00111991 -3.5298 -0.667868 -0.00248332 -0.00213968 -0.0179638 -0.00265796 -0.873101 -0.887332 -0.00268161 -0.002747 -2.30072 -0.0184831 -0.0012164 0.664919 -0.447339 -0.00696881 -2.81362 0.659105 -0.000349904 -0.00792441 0.00105234 -0.012078 -0.0202447 0.306048 -0.539 -0.00499404 -0.00630165 -0.0136035 -0.00104447 -0.00348699 -1.12117 -0.00245245 -3.73032 0.899241 -0.160375 0.549694 -0.0532938 -1.33291 -0.00194331 -0.000658732 -1.50713 0.231491 -4.40798 -0.0112342 -1.30086 0.00262562 -0.00294746 -0.00883939 0.881435 -0.0020221 -0.011896 -0.948717 -0.000892754 -0.00366819 -3.15146 0.189861 0.676412 -0.00518436 0.252837 -0.00148034 -0.0167877 0.0006253 -0.000726836 0.694659 -0.00476543 -0.00542471 0.332313 0.835607 -0.00160279 0.270812 -0.016349 -0.779557 0.120486 -0.0147905 -0.0156993 0.00103209 -0.0010459 0.111571 0.000275741 -0.00455228 0.00112057 -0.00270604 0.000435591 -0.00381546 -0.0627791 0.000350408 0.000659514 0.57614 -0.00608408 -0.00828628 -0.0015588 -0.00853055 -0.00653207 0.0012882 -0.00186525 -1.51299 -0.0142393 0.00167128 -0.00538205 -0.013707 0.000801135 -0.00442321 -0.00235241 0.0021499 -0.00288812 -0.0144483 -0.00064681 -0.0169165 -0.00753889 -0.0158018 -0.00350484 -0.0128832 0.301629 -2.12683 -0.00959086 -0.00260758 -0.00185338 -0.00335231 -0.00512587 -0.00294266 0.582545 0.248029 -0.278762 -0.0162335 -0.0152985 0.0026334 -6.52516 -0.0021858 -0.276544 -0.230923 0.000360769 -0.00696093 -0.0159186 -0.00340159 0.359455 -0.125303 -0.00259415 -0.000960559 -0.210253 -0.0197089 -0.00549147 0.0105155 0.216185 -0.0121486 -6.3039 -0.429462 -0.000730626 0.000993092 0.00261488 -0.000441113 -0.0201757 0.407495 0.180198 -0.00513658 -0.00111147 -0.016442 -0.00122793 -0.0012278 0.949411 -0.00432008 0.475341 -0.159562 0.542812 0.0327109 -0.0468134 -1.52851 0.00103954 -0.000632063 -2.59834 0.292642 0.0394625 -0.011772 0.596437 0.00215984 -0.00294785 -0.00457904 0.0133871 -0.00563733 -0.0139957 -0.113496 -0.000347781 -0.00129921 0.623981 0.641502 -0.00324243 -0.00371037 -0.00712397 -3.15112e-05 0.00111931 0.00274866 0.000952539 -0.00458578 0.00243588 -0.000140108 -8.09209e-05 -0.000385573 -0.00421227 0.0017662 -0.00273144 0.00158915 -0.000340659 -0.00285669 -0.000673974 -0.00300823 -0.000965361 0.00209883 -0.00495091 -0.000562442 -0.000418723 0.000230747 -0.00247994 -0.00491195 -0.00019397 -0.000721744 0.000683903 0.00361165 -0.00148332 -0.00167943 -0.00158517 0.00138072 0.000924698 0.00227103 -0.000896769 0.000966481 -0.000362535 -0.00205305 0.00294187 0.00274389 -0.00097909 -0.00206727 -0.00243587 0.000326862 -0.00282149 0.00220024 0.00236649 -1.68576e-05 -0.00174428 0.00132958 -0.00112845 -0.000235517 1.01763e-05 0.00222765 5.51987e-05 -0.00214491 0.00205648 -0.00299843 -0.00036717 -0.00557379 0.0114395 0.00346708 -0.000274107 -0.00140927 -0.00104056 -0.00473467 -0.0027504 0.00155568 -0.00308439 -0.00485201 0.000147152 0.00101387 -0.0027814 0.000896233 -0.0101166 -0.000327516 0.00147461 1.67103e-05 -0.00105745 0.0012542 0.000331584 -0.00146998 -0.0025488 0.000534614 0.00104545 0.00254906 0.000202213 -0.000164302 -0.00105713 -0.00276763 0.00158939 0.0055568 0.000645283 -0.000388075 -0.00219234 -0.00320379 -0.00234128 -0.00159672 -0.00278349 -0.00213143 0.000353336 0.00125704 -0.00479915 -0.00431341 0.000571758 0.00158231 0.0016584 0.00111122 0.000900419 0.0121209 0.000964929 0.000522409 -0.00512595 0.0020217 -0.00440196 0.00204252 0.00113709 -0.000423386 0.00176267 -0.0021506 0.000648611 -2.52673e-05 0.00320168 -0.000249243 0.00199072 -0.00118364 0.00151343 -0.000381945 0.000251306 -0.00166715 0.0023489 -0.000557916 -0.0025271 -0.00281442 0.000761405 0.00296355 -0.000430252 0.000842673 -0.000590498 -0.00225388 0.000629934 -0.000674929 0.00287166 -0.00162505 0.0006712 0.000102994 0.000546149 0.000365486 -0.00132084 -0.0025024 0.000727398 -0.00269153 0.00180973 -0.000132325 0.00198007 0.00218181 -0.000465102 -0.00267657 0.00172222 0.000350601 -0.000136076 0.000406117 -0.00149007 0.00148282 -0.000980035 0.00186925 -0.000998064 0.00177609 0.0018287 -0.00269857 -0.000200622 0.00279115 -0.000513744 -0.00101686 0.000818234 0.00214815 0.0017297 0.000230459 0.00165541 0.00143832 -3.59431e-05 0.00194014 2.58941e-05 0.00268895 0.00121295 -0.00220173 -0.00157338 -0.00270878 0.000478334 -0.00265982 -0.000418832 0.00289613 0.00109333 0.00197448 -2.27366e-05 -0.00127403 -0.00193568 0.00283701 0.00142127 0.00270212 0.000766355 -0.00188367 -0.0007055 -0.00265075 -0.0029883 -0.00132265 -0.00150994 0.0010626 0.00241451 -0.000888076 -0.00239905 0.00175801 -0.000189405 0.00112405 0.00109847 -0.000471385 0.000956055 0.00066357 0.000150876 -0.00185231 7.14362e-05 0.00195458 -0.000481038 0.0010037 0.00149563 0.00262143 -0.00052914 -0.000946195 -0.00139791 -0.00284294 0.00103332 0.000689499 -0.000806931 -0.000214001 -0.000226798 -0.00111337 -0.00175659 -0.00230438 -0.0021962 0.00267914 -0.000576456 0.00148928 -0.000945266 -0.00295377 0.00069373 -0.00085456 0.000892974 0.00207586 -0.00239188 2.73965e-05 0.000950721 0.000130822 6.12408e-05 0.00280021 -0.00157858 0.000356353 0.000758847 -0.00281922 0.000853638 0.00236939 -0.000629184 -0.000375947 -0.00884404 0.00798392 0.00223009 0.0058004 -0.00243234 0.00589507 0.00846448 0.00139453 0.000786063 -0.000190763 -0.00111383 0.00835281 0.000372162 0.00098236 -0.00225074 0.00104416 0.00108187 0.00258072 0.00197292 -0.0019314 0.00269544 0.00575251 -0.00169392 -0.00294887 -0.00119624 -0.00135318 0.000518691 -0.000620683 -0.00188158 0.0082391 -0.00207244 0.00199383 -0.00210149 0.00107728 0.00150054 -0.00291066 0.00606332 -0.00281607 0.00185217 -0.00271712 0.000997089 -0.000263806 0.00181798 -0.000849367 -0.002848 -0.00168847 0.00877058 0.00811289 0.00221816 0.00143301 -0.00238062 0.0028286 0.00143228 -0.00291685 0.00898079 0.00783079 0.00473458 -0.00231336 -0.00254025 0.000646948 0.00726082 -0.00214793 0.00762556 -0.0036565 0.000701417 0.00113935 -0.00159344 -0.00175894 -0.00247156 -0.00037728 4.35272e-05 -8.51974e-05 0.00967161 0.00279309 0.00155813 -0.00151992 0.0010576 0.00155583 0.00983308 0.00156602 0.00256101 0.000825401 -0.00288637 -0.00189396 -0.00283956 0.00234239 -0.00033372 0.00176871 -0.000258988 -3.47444e-05 -0.000445716 0.00235063 0.00975346 0.000798902 0.00631325 0.00638677 -0.00781179 0.00142405 0.00164767 0.00950327 0.00183714 -0.00147737 0.00942951 0.000778252 0.00818715 -0.00071354 0.00719892 3.35742e-06 0.000243429 -0.000929129 0.00134343 0.00122117 0.00260447 0.00600962 0.000558545 0.00143239 0.00676166 -0.000661989 -0.622006 -0.0056621 0.692989 -0.00138671 -0.000243817 -0.00213092 -0.00524133 -0.407017 -0.00366652 -0.00613039 0.583758 -0.959161 -0.00271989 -1.88217 -0.0163043 0.437571 -2.76224 0.000995454 0.0102324 0.000922736 -0.00281251 -1.79158 -0.0017651 -0.00532968 -0.0073233 -0.00404559 -0.0031258 -0.00449304 -0.0246474 -0.00136074 0.0010068 -0.674147 -0.00164956 -0.00739663 -0.00134936 -0.00922651 -0.00921712 0.000924083 -0.00194046 -0.448562 -0.0106128 -0.0108622 -0.00994704 -0.0131958 0.00112434 -0.00562331 0.0602975 0.00258482 -0.00327013 -0.0154606 -0.00480438 -0.0274772 -0.00855126 -0.00187696 0.00038544 -0.00989616 -4.21613 -0.438503 -0.0146893 -0.0234598 -0.0106595 -4.19058e-05 0.000357239 -0.000883209 -2.32695 -0.522112 -1.62959 -0.0140198 -0.0153735 -0.0015153 -0.709231 -0.00195147 -0.900313 -0.166292 -0.0154731 -0.00651187 -0.015829 0.000854413 -0.172726 0.644848 -0.000981773 -0.00208613 -0.593874 -0.0170133 -0.00314538 -0.0309535 -0.0241296 -0.0108363 0.593194 -0.236128 -0.00808642 0.00205218 -0.00201173 -0.00494308 -0.0230409 0.238956 0.30523 -0.0013185 -0.00367966 -0.0122618 -0.000858015 -0.0041228 -2.4438 -0.000897896 -2.66719 -1.3409 -0.341657 -0.122395 -0.0462303 -0.191737 0.00131615 -0.00297607 -0.27302 0.172137 -0.306782 -0.0121082 -3.94662 -0.00203656 -0.00234412 -0.008115 -2.07018 -0.0041394 -0.0133605 -0.351861 -0.00133209 -0.00499759 -1.28511 -0.943217 -0.981746 -0.00644808 -0.47401 -0.00688641 -0.0122295 -0.00690848 -0.00292051 -0.825078 -0.00377294 -0.00678468 -0.585796 -0.340458 -0.00289061 0.364669 -0.0062274 -0.395317 -0.474257 -0.00852563 -0.00120915 -0.0154506 -0.00565194 -0.249767 -0.00357299 -0.00672465 -0.00217707 -0.00390039 -0.00151708 -0.00288895 -0.000951494 -0.00247873 0.000431733 -0.30834 -0.0107919 -0.0285621 -0.00638096 0.00195506 -0.00521508 -0.0137131 -0.00208076 -0.487473 -0.000938857 -0.00561148 -0.0113965 -0.00690034 -0.00977214 -0.00412528 -0.999329 -0.00474713 -0.00605342 -0.0184503 -0.00660532 -0.00221929 -0.00251993 -0.007734 -0.00733955 -0.0123439 0.16669 -0.203068 -0.0203651 -0.00991738 0.00150326 -0.00581286 -0.00332049 -0.00212473 -0.71171 -0.445424 -0.773432 -0.0098692 0.00126871 -0.00237769 -0.184033 1.34397e-05 0.0251272 -0.788339 -0.00709201 0.00241917 -0.0216999 -0.00811329 -0.558514 -0.388508 -0.0174387 -0.0146675 -0.587074 -0.00841743 0.00084783 -0.0671005 0.431372 0.000648854 0.557669 -1.04678 -0.00790866 -0.00673832 -0.009609 0.000342995 -0.00243903 -1.1326 0.533181 -0.00718823 -0.00416717 0.00273357 -0.00108132 -0.00248958 -0.526722 -0.0122706 -0.349624 -0.535261 -0.0183987 0.359522 -0.0014343 -1.07561 -0.0128575 -0.0020505 -0.0279918 0.632112 -0.196779 0.000686931 -0.527458 -0.00493039 -0.00675391 -0.00775648 0.330966 0.000920939 -0.0150175 -0.250552 -0.00544958 -0.00543001 -0.672279 -1.00538 -1.7706 -0.00720558 0.860448 -0.00456815 -0.00393555 -0.00487189 -0.00254861 -0.756467 -0.00590365 -0.00523284 -0.456218 0.996926 -0.0014911 -0.41031 -0.0129988 -0.212152 -1.78544 -0.0130421 0.00979582 -0.00205675 0.00248009 -0.44146 0.00244528 -0.00260609 -0.00270771 -0.000701213 -0.00124114 -0.0043842 -0.0550523 0.000437044 -0.000299806 -0.18465 -0.00153584 -0.00642621 -0.00196335 -0.00219804 -0.00691641 0.00111726 -0.000169685 -1.15284 -0.0105099 -0.00929531 -0.00530495 -0.0145754 -0.00135118 -0.00322263 -0.202261 -0.00252828 -0.00312917 0.000809927 -0.00222273 -0.0344482 -0.00688668 -0.0118121 -0.000824472 -0.00969134 -2.71724 -0.769717 -0.013649 -0.0239228 -0.00664634 -0.00135036 -0.00406965 -0.000479689 -2.41491 -1.02159 -0.376118 -0.011574 -0.00168638 -0.00176739 -0.600099 -0.00185101 0.33587 -1.15338 -0.0115166 -0.00248071 -0.0145757 -0.00249723 0.374917 -0.383904 0.000959097 -0.0026409 -0.251378 -0.0175125 -0.00444686 -0.0207262 0.0209173 -0.0106608 0.884172 0.2163 -0.00158303 -0.00251659 -0.00252597 -0.0108248 -0.0293548 0.286101 0.153294 -0.00105021 -0.000941124 -0.0150146 0.0013883 9.12052e-05 -1.79027 -0.00293895 -0.721873 -1.58134 -0.92024 -0.403045 -0.0352675 -0.369889 -0.00290731 -0.00462664 -0.390099 -0.321133 0.259595 -0.0111051 -0.73816 -0.00332855 -0.00329317 -0.00878976 -1.78138 -0.0046412 -0.0108203 -0.660826 -0.00282256 -0.0010489 -0.484287 -0.447792 -0.00115451 0.000206359 -0.0171855 0.000331215 -0.00136787 0.00016194 -6.99684e-05 -0.0191674 0.00196071 -0.00217003 -0.0143035 0.0205939 -0.00107314 0.00167886 -0.0016584 -0.00374173 0.0119093 -0.0028453 0.00207886 -0.0032341 -0.00221526 0.000147211 -0.00216809 0.000733265 0.00148211 -0.00283683 0.00172682 -0.000929832 -0.00239372 -0.00372062 0.00244503 0.0153957 0.00173892 -0.00238632 0.00160766 0.00055438 0.00137466 0.00259189 -0.00463949 0.0128278 0.00200183 -0.00295905 -0.00234812 -0.00246567 -0.00230922 -0.00199216 0.0161351 -0.00128398 0.000594143 0.00211326 -0.00153129 0.00136301 -0.000595256 -0.0011364 -0.0016208 -0.000649049 0.0154177 0.0203067 -0.00246826 4.66118e-05 -0.0015645 -0.00181637 0.00217736 -0.00425426 0.0136498 -0.00102772 0.0159708 -0.00138255 -0.00140569 -0.00384446 0.0160538 -0.000730864 0.0114035 -0.0165252 -0.00416682 0.00276892 -0.00280402 -0.000433366 -0.0168266 -0.0158004 0.00153524 0.0022847 0.0115073 -0.00246494 -0.00112119 0.000644116 -0.000727569 0.00255326 0.0130705 0.0168028 0.00100175 0.0007029 -0.00211269 -0.00550171 0.000434822 0.0109839 0.0146896 -0.00411537 -0.00146888 0.00237408 -0.00432447 -0.00078029 0.0104279 -0.00114504 0.00287136 -0.00277946 -0.00441599 -0.0171637 0.000872114 0.0202027 0.00238398 -0.00268093 0.0146606 0.00215342 -0.000109661 -0.00254942 -0.00523762 -0.00179871 -0.000822221 -0.000556323 0.0156589 -0.00211219 0.00139749 -0.00210065 0.00203058 -0.00258995 0.0211651 -0.00395769 -0.023468 -0.00519269 -0.476574 0.00200872 -0.00152792 -0.00279479 7.52603e-05 -0.472341 -0.00626434 -0.00859476 -0.471231 -1.70263 0.00266677 -2.34512 0.00222237 0.813594 -2.07896 0.0015979 -0.0173397 -0.00316917 0.000158801 -2.40091 -0.0023102 -0.00169627 -0.000712591 0.000581125 -0.00079415 -0.00469889 -0.0470409 0.00199048 -0.00288492 0.963872 -0.00556791 -0.00185554 -0.0016514 0.000710351 -0.00222988 5.5801e-05 -0.00151016 -1.25413 -0.0142848 0.00143294 -0.00447775 -0.0109756 -0.00383171 -0.00408252 -0.0307746 0.000164844 -0.00421767 -0.0186565 -0.00560944 -0.021332 -0.0102291 -0.0131538 -0.000213716 -0.0124822 0.269508 -0.615102 -0.0117113 -0.00117385 -0.00131277 -0.00289433 -0.00419386 0.00281585 0.500018 -0.178104 -1.45736 -0.0166507 -0.0155865 0.00136824 -2.15296 -0.00379981 -0.615092 0.121893 0.00169862 -0.0018352 -0.0111882 -0.000452121 -0.292613 -0.585553 0.000765573 -0.000638106 -3.05902 -0.0128525 -0.00596927 -0.234933 0.382662 -0.00826551 -3.06671 -0.162142 -0.00178449 0.00228363 -0.0016917 -0.00119137 -0.0175621 0.287271 0.220768 0.000620652 -0.00913974 -0.0209069 -0.000460602 -0.00403436 -0.518282 -0.000596542 -1.36187 -0.401486 -0.672442 0.799569 -0.0538996 -2.44364 -0.0018751 -0.00413483 -0.65206 0.863681 -2.21516 -0.0127885 -0.0707017 -0.00143981 -0.00314833 -0.00612821 -0.0477753 -0.00220664 -0.0143094 -0.917711 -0.00585287 0.000383947 -2.56371 0.279679 -0.00217714 0.000594265 -0.00213926 -0.00230798 -0.00035356 -0.0013734 0.00266464 0.000172279 -0.000328248 -0.00114847 4.89815e-06 0.00145186 -0.00198712 -0.00308269 0.00125238 0.000630898 -0.000724378 0.00248862 -0.000136915 0.00249733 -1.85592e-05 0.00233946 0.00122191 0.00116785 -0.00297244 0.000241316 -0.000522178 0.000768779 0.000261214 -0.00170401 0.000312629 0.00195671 -0.00297036 -0.0022495 0.00165042 -0.00287768 -0.0021442 -0.00107754 0.0024285 0.000684934 -0.00290461 -0.00113163 -0.00184337 -0.00134719 -0.00283974 0.00198384 0.00138736 0.00132694 0.0019363 0.00158726 -0.0022766 -0.00069401 -0.00283246 -0.00299217 -0.00295801 -0.00199329 -0.00231121 -0.000117592 -0.000486705 0.000562876 -0.00133811 0.000556963 0.000510842 -0.00227046 -0.00273383 -0.0028076 -0.0022043 0.000145027 0.00204821 -0.00116153 -0.00185304 -0.00260928 0.00247142 -0.00144592 0.000752425 -0.00175996 -0.00154954 0.00146048 -0.00201795 0.00193903 -0.00243609 0.00287879 0.000708211 -0.00129531 0.0022034 -0.00281916 0.00156563 0.00237706 0.000713248 0.00132447 -0.0002169 0.00155332 -0.00295715 -0.00183908 -0.00245129 -0.0019924 0.00265349 0.00209659 -0.0021763 0.000964352 -0.00276906 -0.00211102 -0.0020976 0.000872172 0.00192314 0.00212025 3.06219e-05 0.00168526 -0.00135208 0.00258728 0.00294318 -0.00249331 -0.00124264 -0.00139021 -0.00170446 0.00160213 -0.00101808 -0.0020759 -0.00200987 0.00236018 0.00267474 0.000104804 -0.00288976 -0.000484165 -0.00226749 0.00271109 -0.00159813 0.00236192 0.201973 -0.00662985 0.373578 -0.00608961 -0.0119176 -0.0049275 -0.00424744 -0.00587062 -0.00187785 -0.00603851 0.232695 0.255297 -0.00532785 -1.70744 -0.0171899 -0.936517 -0.682776 0.000686335 -0.012412 -0.00368631 -0.0052113 -0.87463 0.000121614 -0.00228474 -0.00452918 -0.00395111 -0.00302971 -0.00443558 -0.0462189 -0.00285207 -0.000437057 0.841691 -0.00585761 -0.00543216 -0.00424367 0.000302187 -0.00524221 0.000200374 -0.00524416 -0.0505788 -0.0141027 -0.0150888 -0.00885671 -0.0109539 -0.0041989 -0.00349628 -0.0786021 -0.00125157 -0.0034871 -0.0018664 -0.000180902 -0.0218277 -0.00911821 -0.0136581 -0.00706091 -0.013677 0.368458 0.501926 -0.0128723 -0.0146445 -0.00687215 0.000354358 -0.00495095 -0.00287543 0.370977 0.502336 -0.162233 -0.0134874 -0.00116976 -0.00536557 0.376165 -0.00480989 0.285124 -0.187878 -0.0162337 -0.0036637 -0.0179068 -0.00235395 0.796395 0.800965 -0.0141576 -0.00213413 -0.0715984 -0.0133062 -0.00438535 0.147186 0.281289 -0.00524106 0.608569 0.0967917 0.00229177 -0.000228246 -0.0018777 -0.0151932 -0.0172422 0.0780328 1.17117 -0.00455866 -0.00174247 -0.0128451 -0.000433494 -0.00456377 -0.636919 0.00111279 0.083238 0.0197425 0.153582 0.143486 -0.0559919 0.345171 -0.00107163 -0.0035852 0.358648 -0.224671 -0.078765 -0.015879 0.375024 0.00128013 -0.00161418 -0.00830457 0.881988 -0.000758091 -0.0109854 -0.532736 -0.00259135 -0.0030748 -0.499448 -0.179957 0.00268509 -0.00034378 -0.000354385 -0.0027397 6.25581e-05 0.00278222 -0.00137447 0.00149222 -0.00229918 0.00161598 0.00159432 0.000289983 -0.00184226 0.00244656 -0.00158766 -0.00288144 0.00071723 0.000644227 -0.000186871 0.000509867 0.00136237 -0.000613666 0.000567266 -0.000445742 -0.00226895 -0.00097656 0.00012741 -0.00221227 -0.00251102 -0.00116016 0.0010609 -0.000399817 -4.70947e-06 -0.00264913 -0.00255836 -0.00105996 -0.00101826 0.00290976 0.00145285 0.000879186 0.00229719 -1.09853e-05 -0.000742783 0.00230257 -0.00152543 -0.00201598 0.00101966 -0.00146629 -0.00205438 -0.00134037 -0.00120775 -0.00296457 -0.00162809 0.00102071 0.00292507 -0.00146311 0.000754422 0.00277775 -4.5748e-05 -0.00119384 0.000462866 0.000260297 -0.00222138 0.000227127 -0.00207489 -0.00144871 0.000128448 0.00188026 0.00131121 -2.61237e-05 0.00236389 0.0027043 -0.000233989 -0.00124812 0.00255478 -2.20307e-05 0.00222731 -0.00172057 -0.00219628 -0.00225411 0.000394686 -0.000201767 -0.000667657 0.00152769 -0.000266387 0.00123617 0.00257705 0.00192279 -0.00276092 0.00279713 0.00232781 0.000832643 -0.00293428 0.00284391 -0.00068683 -0.000602047 6.17288e-05 0.000405357 0.00275336 0.00205232 -6.22601e-05 0.00226511 -0.000537661 -0.00270503 -0.00131439 -0.00107874 -0.000171428 1.11749e-05 0.00124045 -0.000752119 0.00264864 -0.00139087 0.00142858 0.00245444 0.000507315 0.00243902 -0.00276422 0.000340419 