layers=[24 128 128 3]

activations=[relu none]

parameters=[-0.53103 -0.365555 -0.0224298 -0.372778 -0.0178503 -0.00241476 -0.00378748 -0.0020731 -0.387438 -0.000201585 -0.00402203 -0.155536 0.00107294 -0.252118 -0.201424 -0.0104944 0.157553 8.87788e-05 -0.257055 0.0021762 -0.207763 -0.00471705 -0.456317 0.00176177 0.000149842 -0.261182 -0.00153156 -0.252746 0.0260572 -0.0242635 -0.0688157 -0.00368122 -0.00238288 -0.00570983 -0.00332412 -0.00740634 -0.000848154 -0.0010974 -0.000298128 -0.0148693 -0.00336171 -0.26551 -0.000710213 -0.00719667 -0.00487568 -0.253693 0.0160067 -0.0163254 -0.236579 -0.232762 -0.00396618 -0.24646 -0.00206256 -0.0169461 -0.0205162 -0.0101266 -0.0153355 -0.00196118 -0.171087 -0.00460731 -0.000701384 -0.00394359 -0.0165397 -0.0145765 -0.218767 -0.204202 -0.0027127 -0.264599 0.301668 -0.00342879 -0.000922316 -0.0126303 0.294919 -0.0081327 -0.0133588 -0.0030825 -0.209663 -0.663835 -0.000308473 -0.00280942 -0.0303895 -0.00101158 -0.00247831 -0.0054129 -0.0149319 -0.00428157 0.272846 -0.0162423 -0.0115251 0.00040693 -0.00254487 -0.0214678 -0.00142834 -0.217165 0.000636182 -0.00521318 -0.250959 -0.00421914 -0.00473126 -0.270609 -0.0191548 0.017654 -0.0228231 -0.0105068 -0.00200611 -0.21958 -0.0153492 -0.218927 -0.00387354 0.0694725 -0.00296234 -0.00467554 -0.19454 -0.274469 -0.31948 -0.000227819 -0.00283471 -0.208384 -0.00551426 -0.218894 -0.214936 -0.079724 -0.00594604 -0.00133417 -0.00896269 -0.00791329 -0.00478836 -0.0159254 -0.289089 -0.299494 -0.0194536 -0.754119 -0.0187888 -0.00141718 -0.00464767 -0.00460877 0.203818 -0.00250226 -0.00136809 0.686227 0.000754969 -0.326154 -0.112743 -0.00918168 0.290725 -0.00500049 -0.166665 -0.00253737 -0.0601975 -0.00313494 0.175595 -0.00317281 0.00167864 0.0669384 -0.00303919 -0.427424 0.375005 -0.0205901 -0.145285 -0.00300335 0.000647778 -0.00364076 -0.0020104 -0.00498467 -0.00412726 -0.00220816 -0.000341515 -0.00904154 -0.00253877 -0.239988 -0.00389298 -0.00774534 -0.00106735 -0.873638 -0.621985 -0.0135897 -0.0983666 -0.000324297 -0.001653 -0.465772 -0.00270645 -0.0160368 -0.0123602 -0.0063119 -0.0153942 -0.00251275 -0.0192837 -0.00217142 -0.00063876 -0.00502999 -0.0148053 -0.0126562 -0.181397 -0.113727 -0.00331074 -0.13056 0.100678 -0.00201819 -0.00104065 -0.00239557 0.38966 -0.00460742 -0.00951827 -0.00163495 -0.346809 0.556146 0.00158443 -0.002238 -0.030559 -0.00247073 -0.00473698 -0.00692095 -0.0202484 -0.00460335 0.547733 -0.0206461 -0.0171358 -0.00197575 -0.00163401 -0.0176764 -0.00235885 -0.0710987 -0.00163854 -0.00487927 -0.0146583 -0.00108085 -0.00157298 -0.20515 -0.019129 0.612509 -0.0187217 -0.00381605 0.000617059 -0.117188 -0.0119636 -0.114093 -0.00581323 0.000930936 -0.00316891 -0.00221196 -0.125024 -0.00744968 -0.138879 -0.00512517 -0.000331314 -0.139402 -0.0030423 0.00203044 -0.0883727 1.11347 -0.000181499 -0.00269365 -0.0135519 -0.00351607 -0.00239478 -0.0155883 0.803474 0.287899 -0.0208576 0.199129 -0.0141285 0.00231101 -5.92155e-05 -0.000681908 0.248391 -0.00441453 -0.0027134 -0.210355 -0.00355862 0.0904477 0.145671 -0.00400785 -0.457762 -0.000800553 0.23561 0.00190541 -0.03394 -0.00255759 0.667676 -0.00226491 -0.00369374 -0.0183461 -0.00299042 0.164751 -0.157021 -0.0206351 -0.195353 0.00137525 0.000808621 -0.00252676 -0.00237195 -0.00606526 0.000443874 -0.00282796 -0.003056 -0.0143335 -0.000122223 0.164433 -0.00230067 -0.00857786 -0.00563971 0.45019 -0.323664 -0.0136911 0.0963025 -0.00919642 -0.000668672 -0.177962 -0.00165866 -0.0040508 -0.0139679 -0.00453089 -0.0112894 0.000363431 0.136232 -0.00322765 -0.00288093 -0.000545125 -0.0205974 -0.00943234 0.0292866 0.116506 -0.00100655 0.0989774 -0.375651 -0.00225885 -0.0028028 -0.00424618 -0.59622 -0.00355965 -0.0123487 -0.0022199 -0.0493556 0.99637 -0.0022782 -0.00483499 -0.0339173 -0.00480739 -0.00305238 -0.00668204 -0.0177079 -0.00046894 -0.656424 -0.0166681 -0.0155616 -0.000462986 0.000287225 -0.0095015 -0.00163247 0.233759 -0.00179832 -0.00178629 -0.02729 -0.00402876 -0.000636533 0.218509 -0.0193846 -0.501636 -0.0142918 -0.0041874 -0.0028044 0.178739 -0.0116287 0.181285 -0.00196667 0.17813 -0.00296331 0.000679466 0.150514 -0.0301002 0.466331 -0.00304366 -0.00431189 0.137991 -0.00309144 -0.0750993 0.169361 0.0437738 -0.00366659 -0.00248611 -0.0103928 -0.0380421 -0.00172932 -0.0183145 0.065693 0.201008 -0.0170934 1.01551 -0.0119896 -0.00235339 -0.000119449 -8.08609e-05 -0.0200091 -0.00438198 -0.000509273 -0.65837 -0.00139763 -0.20845 -0.0043267 -0.0138344 0.0502058 -0.00494976 0.0886965 -0.000695902 -0.152301 2.71735e-05 -0.0173751 -0.00317708 -0.00278894 -0.0382875 -0.00277558 0.395255 -0.288526 -0.0155681 0.50426 0.00257786 -0.00085399 -0.0039982 -0.00243278 -0.00284524 -0.000214477 -0.000459282 -0.00543154 -0.0222209 -0.00505164 0.108718 -0.00265428 -0.00109373 -0.00323975 0.585339 0.602374 -0.00346876 -0.00318721 0.0362519 -0.00224019 -0.74664 -0.00423572 -0.013861 -0.00900551 -0.00602309 -0.0174224 -0.00225732 0.0053779 -0.000766376 -0.00340521 -0.000824169 -0.0194919 -0.00623565 -0.00384101 -0.0139379 -0.00047928 0.0466353 -0.210232 -0.00320245 -0.00310631 -0.00177294 -1.40455 -0.00155031 -0.00466735 -0.0043019 -0.261598 -0.416571 -0.00108638 -0.00488088 -0.0308891 -0.00233454 -0.0048027 -0.00475181 -0.0190421 -0.00045379 -0.391973 -0.00574972 -0.0164892 -0.00127501 -0.00245332 -0.0156411 0.000513272 0.00410359 -0.000890541 -0.00210335 -0.496626 -0.00334849 0.000289067 0.126133 -0.0189593 -0.591077 -0.0160136 -0.00370421 0.000643824 -0.0286216 -0.0139649 -0.0118463 0.00128644 -0.0340981 -0.00173751 -0.00278212 0.0128185 0.101427 0.113775 -0.00171784 -0.00275818 -0.00403555 -0.000717812 0.106012 -0.00536518 -1.22933 -0.000267618 -0.00206502 -0.0166855 -0.016547 -0.00197005 -0.0156539 0.000263316 0.00132628 0.000134972 0.00296223 -0.00168794 -0.00236521 -0.00234182 -0.00261845 -0.00057252 -0.000309763 -0.000805103 0.00158103 0.000767378 0.00163188 0.00259712 0.00283644 -0.00184783 -0.00216675 0.0011776 -0.00243708 0.000152426 0.000182065 0.00216684 -9.08801e-05 -0.000639262 0.00102859 0.00144755 0.000120315 -0.000913724 -0.00210002 0.000516552 -0.00142713 -0.00273328 0.0015296 -0.00154329 -0.000345586 0.00112678 -0.000844631 0.00141804 -0.000631755 0.0011005 0.00122428 -0.000346167 -0.00288253 -0.00101485 -0.000454143 -0.00137838 -0.00181768 0.00193033 -0.000420471 0.00232663 -0.000652902 0.00161469 -0.000619251 0.00185108 0.00153046 -0.000735627 -0.00170389 0.00174244 0.00269582 -0.00103461 0.00102759 -0.00036813 0.002001 0.00161313 -0.00199648 0.00217188 0.00293923 8.65406e-05 0.00230569 0.000528156 -0.00207149 -0.00180082 -0.000558271 0.00149223 0.0019535 0.00173978 -0.00108885 0.000204385 -0.0024603 -0.00232977 -0.00218224 0.00107191 -2.89378e-05 -0.00186174 -2.99651e-05 -0.00211435 -0.00267016 0.00210428 0.000363357 0.00257765 0.00118 0.000496746 0.00189238 0.00227408 0.00293347 -0.00299687 0.00219263 0.000675399 0.0029397 0.000166081 -0.00012286 0.00180809 -0.00163294 -1.14343e-05 0.00240511 0.000447967 0.00207107 0.00143184 0.000515922 -0.00151959 0.000998497 -0.0024991 0.000755759 0.000965667 0.00137851 0.00234451 0.00289382 0.00161417 0.000488679 0.00256988 0.000480542 -0.0028981 -0.00227484 0.00217626 -9.4221e-05 0.00206913 -0.00174357 0.0420774 -0.0472519 0.00120075 -0.00928969 0.011767 -0.0027028 -0.00269289 -0.00468769 0.0540391 -0.00473353 -0.00124424 0.0379002 -0.00268539 -0.0868305 -0.00734068 0.00558211 0.119608 -0.000370395 -0.00862681 -0.000522682 0.0304484 0.000252945 0.00302435 0.00230843 -0.00100519 0.0359291 -0.00258218 -0.0241368 -0.0598877 -0.014957 -0.0206598 -0.00223969 -0.00336363 -0.00511122 -0.0015665 0.0011314 -0.00103815 -0.00268753 -0.000398684 -0.0174624 -0.00155441 -0.0326651 -0.000134697 -0.00460983 -8.27006e-05 -0.0288189 -0.0296663 0.00933894 0.0484721 0.0284996 -5.28759e-05 -0.0357403 -0.000344104 0.0124895 0.0100331 -3.42469e-05 0.0123485 0.000892001 -0.0135742 -0.000819291 -0.00219491 -0.000363994 0.0051483 -0.0143413 -0.0145153 0.00143035 -0.0020073 0.0587938 -0.0604688 -0.00317029 2.10447e-05 0.00247857 -0.0638767 0.00125576 0.0133654 0.000140576 -0.00168963 0.040022 0.00251945 -0.00498588 -0.00612972 -0.00382673 -0.00562396 -0.00659009 0.00849097 -0.00489706 -0.0793473 -0.00217104 0.00663037 -0.000189191 0.0024728 0.00921023 0.000976506 0.00311888 0.00102442 -0.00487719 0.0565996 0.0045334 -0.0012979 -0.000989164 0.0146666 -0.045868 -0.00459308 0.00387871 -0.000349668 0.016605 -0.010803 0.00736303 -3.41613e-05 0.0520112 -0.00298057 -0.000920286 -0.000222669 0.00351752 0.0355763 -0.00554586 -0.00331092 0.0095376 -0.00292203 0.0104815 0.000621161 -0.0423395 -0.00544693 -0.00129286 -0.0153077 -0.00026359 -0.00418484 -0.017729 0.18159 -0.221865 -0.00943703 0.452002 0.0101914 0.0010075 -0.00212256 -0.00268038 0.0958937 -0.00166492 0.00104571 0.259568 0.00073471 0.177015 -0.0506085 -0.00906814 -0.192215 -0.0034592 -0.198412 0.00131896 0.224443 -0.00268335 0.400209 -0.000102348 0.002083 0.196389 -0.00153615 -0.0561661 0.108937 -0.00572924 -0.403411 0.00241725 6.89909e-05 -0.00513294 0.00106119 -0.00335541 -0.00103183 0.000844307 -0.00398276 -0.0116148 -0.00146575 -0.129922 -0.000849921 0.00481383 -0.00156752 0.476376 0.39355 0.00452486 -0.0354204 0.111861 -0.000524322 0.352042 -0.00121947 0.0131016 0.00818311 -0.00316886 0.0141959 -0.00149838 -0.0414837 -0.00244777 -0.00425362 -0.00165816 -0.0221787 0.0119587 0.122507 -0.00903537 -0.00419502 -0.0701357 0.0383731 -0.00352383 -0.00337994 0.000667814 -0.835579 -0.0033672 0.0133883 0.000245382 0.214427 0.111122 0.00137138 -0.00105967 -0.00700889 -0.00203464 -0.00527519 -0.00325626 -0.0108575 -0.0043206 0.151201 -0.00152828 -0.0237363 -0.00062396 -0.00136237 0.00776853 0.00110717 -0.138132 3.60942e-05 -0.00229564 0.00304327 -0.00638313 0.00114788 -0.18752 -0.0151421 0.22467 0.00451834 0.00431148 -0.000461344 -0.154006 -0.0114089 -0.136631 0.00021304 0.478095 -0.00502304 -0.00534192 -0.0942746 -0.0292285 0.278948 -0.00437006 -0.00288473 -0.0937934 -0.00460316 0.126571 -0.0795145 0.272374 -0.00253069 -0.00480459 0.00195743 -0.0239755 -0.000222967 0.0129027 0.40166 -0.0255173 -0.0144104 -0.150256 0.0161022 -0.00197741 -0.00435403 -0.00358465 -0.604574 -0.00184017 -3.23718e-05 -0.629765 0.00030956 0.0583476 0.013674 -0.00449299 0.728338 -0.00091573 -0.0443669 -0.000696905 -0.0518931 -0.000125741 -0.125934 0.00201587 0.000200947 -0.648924 -0.00416839 -0.847445 -1.90913 -0.00036585 0.591488 0.00124864 -0.00139486 -0.00337668 -0.00190033 -0.00302585 -0.00193518 -0.00109488 -0.00204842 0.0239086 -0.000361246 -0.0212963 -0.0038533 -0.00503642 -0.00143067 -0.763428 0.0984083 0.00617317 -0.0814322 0.0631871 -0.00374128 0.0157029 -0.00103111 0.0112266 0.00887675 0.00129796 0.0146604 0.000494109 -0.0100444 -0.00491446 0.000336138 -0.00233748 0.0133415 0.0105156 -0.0263459 -0.0147928 -0.0052533 -0.110424 -1.06828 -0.00131107 -0.00348458 0.00114566 -2.24904 -0.00666815 0.0113103 0.00390705 -0.189554 -0.159312 -0.00213002 0.000160933 -0.00129084 -0.0025156 -0.00332462 0.00426633 0.00696152 -0.00456598 -0.239042 0.00389865 0.00420705 0.00129128 0.000852365 0.0104567 -0.000212039 -0.0132776 -0.00155184 -0.00108741 0.134132 -0.00250681 -0.000694805 -0.0181473 0.0144508 0.182186 0.00163675 -0.00372851 0.000787132 -0.0659271 -0.00988832 -0.0578004 -0.00102616 -0.249342 -0.00348095 -0.00473251 -0.0342908 -0.0513191 -0.238132 -0.00147467 -0.00274602 -0.0011054 -0.00153609 0.139367 0.0200642 -0.00566725 -0.0043215 -0.000396884 -0.00021364 0.0119637 -0.00481061 0.0118182 -0.534835 -0.37072 -0.0188527 -0.376175 -0.0176807 -0.000696788 -0.00169439 -0.00522449 -0.38772 -0.00118756 -0.000492623 -0.156483 -0.00237023 -0.251326 -0.202773 -0.00816542 0.156672 -0.00391386 -0.259099 -0.00221448 -0.206871 0.000985302 -0.461233 -0.000628205 -0.00340011 -0.260916 -5.54906e-05 -0.254697 0.0277615 -0.0251815 -0.0689487 0.000830203 -0.000839593 -0.000674695 0.00148712 -0.00859146 -0.00418991 -0.00169319 -0.00490661 -0.0148251 -0.00535253 -0.264101 0.000334653 -0.00984113 -0.00353314 -0.250726 0.0190075 -0.0161434 -0.234905 -0.232689 -0.00360213 -0.246563 -0.00452815 -0.0161487 -0.0171491 -0.00994969 -0.0186244 -0.00038767 -0.170096 -0.00244899 -0.00189823 -0.00197274 -0.0165046 -0.0182754 -0.219795 -0.20398 -0.00386879 -0.259603 0.302852 0.000345426 -0.00323845 -0.0116754 0.29134 -0.00883992 -0.0170809 -0.000825775 -0.206145 -0.661179 -0.00394593 -0.000589878 -0.0269655 -0.00137083 -0.00573394 -0.00644212 -0.016209 -0.00161953 0.269647 -0.0191504 -0.0097696 -0.000135047 0.000742299 -0.0203728 -0.00355038 -0.216862 -0.000366353 -0.000385746 -0.253723 -0.00594211 -0.0042081 -0.269693 -0.0189684 0.0182639 -0.0240958 -0.013413 0.000343771 -0.218557 -0.0150554 -0.221778 -0.00597509 0.0662471 -0.00260468 0.000259719 -0.192141 -0.279339 -0.318049 -0.00485502 -0.00305706 -0.211771 2.04336e-06 -0.216681 -0.212662 -0.0801289 -0.00514856 -0.0036436 -0.00830237 -0.00762049 -0.00101353 -0.0146141 -0.285362 -0.296584 -0.0212697 -0.758892 -0.0158345 0.00199891 -0.00313079 -0.000927307 0.198727 -0.004046 -0.00135004 0.685219 -0.00106727 -0.3265 -0.110241 -0.0101037 0.300962 -0.00297331 -0.163497 0.000888308 -0.0562081 -0.00260677 0.185672 0.00096695 0.00199094 0.0670933 -0.00384334 -0.424764 0.394278 -0.0246374 -0.149149 7.94665e-05 -0.000489793 -0.00201678 -0.00316929 -0.00525795 -0.00200478 -0.00155457 -0.00170367 -0.0096425 -0.0043011 -0.234473 -0.00447512 -0.004889 -0.00516298 -0.867428 -0.613493 -0.00957927 -0.0981278 -0.00538401 -0.000273544 -0.459355 -0.00329197 -0.0120264 -0.0163412 -0.00153832 -0.0182681 0.0003895 -0.0163507 -0.00187515 -0.00315438 -0.00179454 -0.015557 -0.0172257 -0.18359 -0.109938 -0.00208347 -0.128771 0.101548 -0.00434589 -0.00433634 -0.0055182 0.387403 -0.00593589 -0.0120669 -0.00409992 -0.345514 0.558702 0.00191559 -0.00314334 -0.0340012 -0.00393884 -0.00156779 -0.00396265 -0.0198513 -0.001869 0.551838 -0.0213955 -0.0167326 -0.00272285 -0.00182714 -0.015858 0.000100888 -0.0698936 -0.000717793 -0.00556423 -0.0135619 -0.00214089 -0.00248002 -0.200139 -0.0147481 0.612198 -0.0173603 -0.00278713 -0.000176252 -0.115513 -0.0118686 -0.107474 -0.00454557 -0.00264518 -0.00386681 -0.00442728 -0.120815 -0.00572095 -0.136254 -0.000621025 -0.0018846 -0.142002 -0.00584489 0.0143071 -0.0862372 1.10972 -7.5005e-05 -0.00425503 -0.011951 -0.000765045 -0.00174265 -0.0140479 0.811953 0.305027 -0.0186301 0.213968 -0.012745 -0.000320814 -0.00166136 -0.00233266 0.348554 -0.000362964 0.00024978 -0.168664 -0.00214471 0.109554 0.173482 -0.0023341 -0.444649 -0.00423517 0.251428 -0.00308629 0.00405236 -0.00056244 0.694919 0.0013875 -0.000971723 0.0050929 -0.0034883 0.184016 -0.109948 -0.019034 -0.189851 -0.00105501 -0.00254425 -0.0012806 0.00182401 -0.0019949 -0.00152214 0.000593209 -0.00510215 -0.00993822 -0.00329197 0.18154 9.43977e-05 -0.00681705 -0.000702526 0.467243 -0.261629 -0.0100309 0.122306 0.0408236 -0.00392737 -0.154902 -0.00429302 0.00194341 -0.012897 -0.00526967 -0.013403 0.000641606 0.153482 -0.00229282 -0.00202803 -0.00354059 -0.0183911 -0.00537078 0.0628687 0.145052 -0.00588317 0.117976 -0.39345 -0.00202351 -0.00526194 -0.0017391 -0.579863 -0.00582579 -0.0117679 -0.00255636 -0.0180737 1.00093 -0.000903537 -0.00308292 -0.0330576 -0.00205094 -0.000285065 -0.00438463 -0.0211156 -0.000999733 -0.675573 -0.0206762 -0.0168146 -0.00201661 -0.00105468 -0.0110326 -0.0040682 0.246068 -0.00303004 -0.00511382 -0.0150826 -0.00211133 0.00101632 0.231805 -0.0144556 -0.407793 -0.0167819 -0.00307158 -0.000419989 0.195973 -0.0164961 0.19749 -0.00267366 0.091548 -0.000768271 -0.00284422 0.169767 -0.010184 0.495977 0.000285996 -0.00431048 0.161386 -0.000596441 -0.00812485 0.188068 0.0747421 -0.00105786 -0.00279276 -0.0106291 -0.0332774 -0.00286597 -0.0141304 0.0691724 0.198457 -0.0171785 1.02009 -0.0115678 0.000340168 -0.00462105 -0.00198993 -0.0481572 -0.00338849 0.000946638 -0.684226 -0.00178006 -0.207501 -0.00321623 -0.0102291 0.0624733 -0.00293366 0.0879716 0.00215248 -0.151767 7.14993e-05 -0.0264764 -0.00104727 0.00033754 -0.060865 -0.00565943 0.393542 -0.362355 -0.0206049 0.518 -0.00276857 -2.61416e-05 -0.00294869 -0.00175175 -0.00303045 -0.00415529 0.001027 -0.00237932 -0.0233971 -0.00563602 0.107573 -0.00517727 -0.00185697 -0.000991291 0.587699 0.583367 -0.00350256 -0.00780574 0.0374306 -0.00308805 -0.723268 -0.00511172 -0.0145308 -0.012603 -0.00176889 -0.0137124 0.00190418 0.00598082 -0.00280447 -0.00384086 -0.00490358 -0.0206405 -0.00350214 -0.00365076 -0.0163914 -0.00200608 0.0474296 -0.296584 -9.53624e-05 -0.00233099 -0.00366258 -1.45523 -0.00230521 -0.00567184 0.000531216 -0.261243 -0.426278 0.000152167 -0.00358922 -0.0319713 -0.00250573 -0.000752802 -0.00675238 -0.0198917 -0.0032958 -0.43105 -0.00788426 -0.012678 -0.000578228 -0.000658944 -0.016637 -0.00274033 0.00124864 -0.00293117 -0.00339419 -0.477033 -0.00563619 -0.000987483 0.11983 -0.0172062 -0.591662 -0.0152689 0.000166455 -0.00255546 -0.0311336 -0.0167019 -0.0168257 -0.00336112 -0.0747288 -0.00485552 -0.00366948 0.00701295 0.0951294 0.125688 5.33894e-06 -0.000596321 -0.00660612 -0.0030425 0.132105 -0.0050599 -1.22838 -0.00549802 -0.00332146 -0.0185557 -0.0169718 0.000490507 -0.0169617 0.00276935 0.00157449 -0.00295591 0.00108023 0.0012357 0.000870773 0.000313859 -0.00169135 0.0016342 -0.00163183 -0.000774812 0.00234557 0.00213826 -0.000585399 -0.00109189 0.000651813 0.00246117 0.00245459 0.000549566 -0.00100457 0.00211838 -0.000345613 0.00242613 -0.00280092 0.000194559 0.00129898 -0.00192419 -0.000980803 -0.00187372 -0.00106844 -0.00057686 0.000291398 -0.00270757 0.000316393 -0.00135113 -0.00155099 -0.00154113 -0.00207504 0.0027385 0.00261397 0.00191229 0.00136957 -0.00194513 -0.000837774 -0.00186726 -0.00299281 -0.00110148 0.0011977 0.000751531 0.000258373 -0.000365777 -0.00127544 9.95467e-06 0.00156928 0.00157445 0.000456335 0.00148598 0.000873207 -0.00226068 2.63872e-05 -0.000916432 -0.00244711 -0.0021129 -0.00181098 0.00103362 -0.000410933 0.00116642 -0.00145929 -0.00294145 0.000193698 -0.00132365 0.00267738 0.00243866 -0.000643892 -0.00285087 0.00102862 0.00202302 0.002829 -0.0026584 -0.000298057 0.000494822 0.00111983 0.0013166 0.000900245 0.00136149 -0.000756914 0.000489492 -0.00230329 -0.00265407 0.00287859 -0.00129106 0.000569846 0.00277297 -0.00188533 -0.00184176 -0.000950135 0.00259739 -0.000655995 -0.0013607 -0.00208832 -0.000617347 -0.000751665 -0.00221331 -0.000389756 -0.00245092 0.000687762 -0.00293413 0.000439562 0.00173838 -0.0015878 -0.000311882 0.000416149 -0.00263159 -2.22665e-05 0.000853891 -0.00167241 0.00202234 0.00282645 0.00207824 3.59968e-05 -0.00132675 0.0014797 -0.00157842 0.00274407 0.00072156 0.000601573 -0.00196437 -0.00245792 -0.0306661 -0.0229102 0.00652888 -0.000501567 0.0139713 -0.00162068 -0.002174 -0.00101716 0.0223836 -3.58787e-05 -0.00154098 0.033141 0.000183833 -0.0998235 -0.00747622 0.00535977 -0.0628623 0.00161239 -0.00942132 0.00154039 0.0402722 0.000106396 0.0110364 -0.00200052 -0.0019685 -0.0235544 -0.00282423 -0.0231166 0.0134308 -0.014321 -0.0228747 0.00237003 0.00147196 -0.00212781 -0.00103304 -0.0020623 0.00054912 0.000508312 -0.000297244 -0.0214682 -0.00247361 -0.033786 -0.000330912 -0.00907032 -0.00333391 -0.0658157 0.0144684 0.0103198 0.0431735 0.0191915 -5.35913e-05 -0.0234395 -0.00255301 0.0117003 0.00914608 0.000825514 0.0149601 0.000376737 -0.015732 -0.00554917 -0.000718725 -0.00278035 0.00534271 -0.0122796 -0.0142732 -0.000177315 -0.00171421 0.0540752 0.00371319 -1.86307e-05 -6.04467e-05 -0.000314639 0.0360188 -0.00225734 0.0134931 -0.000671872 -0.0100117 0.0209128 -0.00127035 -0.000858 -0.00597522 -3.03835e-05 -0.00115062 -0.00717604 0.0108491 -0.00296093 0.0315693 -0.00546268 0.00299122 0.000545949 0.00246113 0.00974872 -0.000922593 0.000920118 -0.00211164 -0.000304409 0.0223656 0.00608694 -0.000999591 -0.00170838 0.012403 0.0524334 -0.000918975 0.00295022 0.00107365 0.015773 -0.0105763 0.00550751 0.000796368 0.0341424 -0.00148645 0.00182042 -0.00377382 0.0110621 -0.0449817 -0.00271164 0.000674305 0.0069158 -0.0056459 -0.00583273 -0.00448865 0.03204 -0.000524854 -0.00271302 -0.018146 -0.0020581 -0.000565287 -0.0225831 0.302687 -0.160736 -0.0109981 0.553874 0.012132 0.000970589 -0.00472572 -0.00418188 0.160245 -0.00473805 -0.00165351 0.3452 -0.000570926 0.250734 0.0229547 -0.00352275 -0.368122 -0.000418184 -0.122811 -0.000868902 0.341285 0.00129667 0.485837 0.00170971 0.00213081 0.230393 -0.00393622 0.152901 0.0764647 -0.00195382 -0.552502 0.00116894 0.00169128 -0.00266856 -3.45249e-05 -0.00215083 -0.00130938 -0.00190812 -0.00539772 -0.0128 -0.00590454 -0.0620174 -0.00143363 0.00341339 -0.00579496 0.581462 0.635485 0.00477099 0.0403077 0.213507 -0.00250979 0.405612 -0.00333571 0.013515 0.00724246 -0.0033902 0.0100972 0.000856256 0.0166243 -0.000709914 -0.000484063 0.000271866 -0.0221636 0.0123695 0.206815 0.0713209 -0.00138676 0.000181495 -0.0629247 -0.000263479 -0.000307821 0.000996633 -0.486361 -0.0046068 0.0142386 0.00199432 0.30374 0.206283 0.00100287 -0.00184057 -0.00773279 -0.00114983 6.31487e-05 -0.00297295 -0.01122 -0.00452419 0.0718429 -0.000538918 -0.0277001 -0.000555243 0.00230446 0.0108339 -0.000732276 -0.0463642 -2.86814e-05 -0.000217614 0.132338 -0.00549464 0.00165293 -0.129932 -0.0117438 0.490498 0.00566383 0.00506724 0.00111168 -0.0830205 -0.0120812 -0.0700266 0.00072074 0.617697 -0.00370448 -0.00363598 -0.02891 0.205891 0.440461 -0.00111977 3.63348e-05 -0.0163357 -0.000203785 0.469183 -0.0130753 0.417851 -0.000878342 -0.00497222 0.00342908 -0.0161065 -0.000112669 0.0136736 0.421471 -0.0262831 -0.0120729 -0.244315 0.0104027 0.00231252 -0.00345441 -0.0057631 -1.20225 -0.0050158 -0.00153707 -1.08851 -0.000556757 0.0738699 0.0155743 -0.00436518 1.73569 -0.00180499 -0.0329502 -0.00167302 -0.15961 7.74707e-05 -0.846309 -0.00132604 0.0010582 -1.17938 -0.00101928 -0.171156 -0.646992 -0.000974943 -0.077379 -0.00125483 0.00105015 -0.00109105 0.000742422 -0.00159462 0.000407111 -0.00159808 -0.00323201 0.0235298 -0.00274402 0.00340011 -0.000764817 -0.00373708 -0.00457794 0.0294802 -0.128918 0.0100788 -0.127578 -0.0301163 0.000954723 0.332514 -0.00351547 0.0101786 0.0111408 -0.00145068 0.010595 -0.000616479 -0.0136896 -0.00135057 -0.00089355 -0.00232299 0.0112821 -0.0109238 -0.0209246 -0.0432744 -0.000617434 -0.165054 -1.45015 -0.00254022 -0.00214105 0.00340964 -0.883595 -0.00744672 -0.0117034 -0.00145142 -0.145548 -0.781295 0.00157716 -0.0031416 -0.0191313 -0.00062636 -0.00450922 0.00349823 0.00380014 -0.00383789 -1.69019 0.00463034 0.00303157 0.000556001 -0.00202261 0.0129728 -0.00156688 -0.00711016 0.00253957 -0.00384221 0.71308 -0.00638253 -0.00134159 -0.0101871 0.0101142 -0.745116 0.00537579 -0.00315633 -0.000372161 -0.0698884 -0.0158353 -0.0671867 -0.000134412 -0.918667 -0.000209607 -0.00100605 -0.0339555 -0.205825 0.447873 -0.0038599 -0.00363065 -0.0259785 -0.00243431 0.466659 -0.0406917 -0.0303697 -0.000741091 -0.00225596 0.00439089 0.0143715 -0.000372343 0.0120334 -0.534424 -0.368136 -0.0207973 -0.374663 -0.0168413 -0.00236959 -0.00052982 -0.00030787 -0.391057 -0.0034105 -0.00153427 -0.157156 -0.000215247 -0.250483 -0.203891 -0.00876992 0.160759 -0.00196781 -0.25671 -0.00192268 -0.207963 -0.00140115 -0.45563 -0.00332677 -0.000919575 -0.262598 -0.00544936 -0.249672 0.0274308 -0.0226566 -0.0683615 -0.00298142 -0.000325522 -0.00442311 -0.00123297 -0.00728309 -0.0038399 -0.00117689 -0.00309969 -0.0130491 -0.00120326 -0.261875 -0.00434903 -0.0105466 -0.0017835 -0.254379 0.0191758 -0.0143695 -0.236973 -0.23213 -0.00321103 -0.246746 -8.17242e-05 -0.0145649 -0.0156287 -0.00879471 -0.0181897 -0.000169313 -0.169273 -0.00475776 -0.00283679 0.000478885 -0.0171614 -0.0148179 -0.218704 -0.203985 -0.00207701 -0.26478 0.30099 -0.00126529 -0.00256375 -0.0083842 0.29451 -0.00561875 -0.0157945 -0.00362304 -0.20507 -0.662103 -0.00382312 -0.00147127 -0.0293812 -0.00564237 -0.000649682 -0.00673002 -0.0190569 -0.00531292 0.270168 -0.0193941 -0.00989581 -0.00260304 -0.00134741 -0.0201006 0.000667273 -0.219173 -0.000432399 -0.00237284 -0.249673 -0.0063519 0.00106872 -0.26754 -0.019824 0.0156866 -0.0227364 -0.00989677 -0.00161821 -0.219713 -0.0133081 -0.219252 -0.00531826 0.0651993 -0.0025827 -0.00273209 -0.195266 -0.277188 -0.317689 -0.00187588 -0.00123234 -0.210156 -0.000749905 -0.221238 -0.214258 -0.0827393 -0.000222644 -0.00124336 -0.0111553 -0.0111249 -0.0049404 -0.0138787 -0.28789 -0.290842 -0.0194501 -0.733067 -0.0150183 -0.000789895 0.000130857 -0.00532425 0.159643 -0.00222147 -0.00142746 0.659855 -3.24897e-06 -0.318865 -0.100794 -0.0120315 0.318248 -0.00437757 -0.144873 -0.00287393 -0.059189 -0.000749026 0.225206 0.00172561 -0.00339482 0.123238 -0.00281118 -0.398572 0.427628 -0.0227879 -0.115016 0.00207324 -0.00136591 -0.00546724 -0.00310463 -0.00351611 5.75079e-05 0.00114715 -0.00392222 -0.00912201 -0.00286912 -0.223957 -0.00486017 -0.00871115 -0.0013445 -0.849493 -0.621647 -0.0124533 -0.0947356 -0.00548092 -0.00082302 -0.44264 -0.0046219 -0.0151833 -0.0113619 -0.00237305 -0.0158533 -0.000181647 -0.00727528 -0.00173171 -0.000543348 -0.00286614 -0.0177896 -0.0145774 -0.18556 -0.108451 -0.000569709 -0.115089 0.0836431 -0.00351021 -0.0018097 -0.00617359 0.400566 -0.00567397 -0.0130255 -0.00131757 -0.361437 0.61988 0.000679384 1.91549e-05 -0.0309473 -0.00206387 -0.000642998 -0.00550202 -0.0214757 -0.00013066 0.531991 -0.0196523 -0.0127812 -0.000809804 -0.0011451 -0.0193281 0.00126081 -0.0520565 -0.00221226 -0.000603615 0.00836516 -0.00325253 -0.000599777 -0.187911 -0.0204597 0.572639 -0.0222957 -0.000421219 -0.000960083 -0.0999488 -0.0121795 -0.094793 -0.00191836 -0.177199 -0.00538879 -0.00513645 -0.107453 0.00342701 -0.116927 -0.000527647 -0.00217992 -0.13671 -0.00555881 0.0224398 -0.0742669 1.08473 -0.0045336 -0.00451312 -0.0162045 -0.0009687 -0.00113824 -0.014969 0.934657 0.414079 -0.0210073 0.331213 -0.010038 -0.0021131 -0.00542081 0.000325001 0.46116 -0.00524262 -0.00192482 -0.0335311 -0.00264077 0.225572 0.294773 -0.00500367 -0.33063 -0.000953467 0.349969 0.000850375 0.142863 0.00106441 0.815686 -0.000281895 0.0018475 0.133832 -0.00449012 0.281757 0.0370544 -0.0223459 -0.0150803 -0.00256572 -0.000209137 -0.00119697 -0.00046632 -0.00354455 -9.27417e-05 -0.00159976 -0.00239039 -0.0146762 -0.00289976 0.300197 0.000221221 -0.00839124 -0.00433179 0.587194 -0.0731254 -0.0108516 0.254931 0.198041 -0.00491351 -0.0113829 -0.00361485 -0.0145849 -0.0159161 -0.00341408 -0.0147954 -0.00111139 0.240125 -0.00411177 -0.00484427 -0.00193371 -0.019465 -0.00806498 0.203307 0.269197 -0.00269001 0.235968 -0.504169 0.0007818 -0.00517843 -0.00150305 -0.427304 -0.00177162 -0.0126925 -0.00178283 0.135132 1.10547 0.000175376 -0.00183382 -0.0336298 -0.00287655 -5.54846e-05 -0.00577684 -0.0194189 -0.00352246 -0.783213 -0.0190978 -0.0128003 -0.000920988 -0.0025001 -0.00510024 -0.00193663 0.318931 -0.000449058 -0.00116581 0.115481 -0.00623024 -0.00335641 0.337655 -0.0165929 -0.267551 -0.0140182 -0.00180133 0.000267131 0.301994 -0.0123622 0.299124 -0.000716159 -0.402768 -0.00132519 -0.00322057 0.276182 0.138502 0.641828 -0.00424093 -0.00467566 0.292693 -0.00571922 0.120713 0.306454 0.203615 -0.00369545 -0.000106205 -0.00938205 -0.0335591 -0.00449417 -0.0179914 0.0688341 0.191959 -0.0200592 1.01991 -0.0111718 0.00124807 -0.00470091 -0.000137754 -0.0749105 -0.00317764 -0.0038842 -0.706342 0.000269064 -0.2162 -0.00853965 -0.0118381 0.0800206 -0.00216357 0.0795732 -0.000999053 -0.164726 -0.00121766 -0.0472681 0.00219242 -0.000413425 -0.100545 -0.00337483 0.37305 -0.470935 -0.0197975 0.470359 0.000265286 -0.00179738 -0.00462065 -0.00173887 -0.00327571 -0.00228903 0.00144782 -0.00555448 -0.0185637 -0.00189526 0.100275 -0.000144792 -0.0034712 -0.00234089 0.593897 0.593832 -0.00817494 -0.0109591 0.0337627 -0.00125928 -0.699304 -0.0024567 -0.0160727 -0.00764065 -0.00310106 -0.0171202 0.00191043 -0.00549079 -0.000515546 -0.00505403 -0.00440772 -0.0193989 -0.00349434 -0.005354 -0.0198395 -0.0034231 0.0388254 -0.320951 -0.00168036 -0.00273435 -0.00442493 -1.51762 -0.00393312 -0.00573858 0.000829838 -0.257802 -0.444296 0.00170689 -0.000894831 -0.0349166 -0.00596111 -0.00543024 -0.00761672 -0.0205027 -0.0034149 -0.464712 -0.00771518 -0.0121795 -0.001209 -0.000971491 -0.0132861 -0.00153393 -0.0108769 -0.000412395 -0.000831182 -0.472548 -0.00309268 -0.000545615 0.112893 -0.0172965 -0.56785 -0.0153967 -0.00298635 -0.000317956 -0.0401022 -0.0114614 -0.0254416 -0.00077792 0.18094 -0.00290381 -0.000111901 -0.000786341 0.06749 0.146168 -0.00402659 -0.00570047 -0.0140721 -0.000609211 0.140472 -0.0109603 -1.22713 -0.000672802 -0.000312466 -0.0187974 -0.0145767 0.000646492 -0.0156842 0.00237846 -0.000106618 -0.00291544 0.000737282 -0.00161343 0.000164604 0.00134995 0.000644495 0.000530199 -0.000399391 -0.00153496 -0.000426238 -0.00293894 0.000652929 0.00274785 -0.00242732 -0.00278646 0.00231741 -0.00151835 -0.00294651 0.00188952 -0.002157 0.0022792 -0.00242774 -0.000884639 0.000560523 0.00051109 0.00100609 0.000888163 -0.000399786 -0.00216145 0.00151158 -0.00154928 0.000902756 0.00214424 -0.00249378 0.00283254 -0.00281124 0.00201243 0.00201428 -0.00270086 0.000275317 0.00265902 -0.00107116 0.0018388 0.000608393 0.00173772 0.00179511 -0.00270261 -0.00130081 0.000920741 -6.2068e-05 0.00283711 0.00149094 0.000407047 -0.00120622 -0.00146334 0.00231938 -0.000319195 0.00189592 -0.00240998 0.00215756 -0.00283423 0.00239494 0.00239961 0.000144636 -0.0022788 -0.00193324 0.00123665 0.00198816 -0.002791 0.00154703 0.00274267 -0.000942777 0.000829462 -0.000941965 -0.00170117 0.0017172 0.00133854 -0.00132697 0.000494589 -0.000473965 -0.00244759 -0.00285584 -5.31252e-05 -0.0013304 -0.000961457 -0.0012759 -0.00197458 -0.00060442 0.0011859 -0.00177794 0.000997959 -0.000341604 -0.000400228 -0.00194856 -0.00184079 0.000698528 -0.00138594 0.000358068 0.0026687 0.00128683 0.00107532 0.00275628 0.00165201 0.000646362 0.00268801 -0.00264215 -0.00138773 0.00292008 0.00163324 -0.000147874 0.0010854 -0.000498391 -0.000719105 -0.00172038 -0.000702372 -0.00282199 -0.000166074 -0.000999764 0.00285507 0.000332661 0.00207782 -0.000551619 -0.000227891 0.00195784 0.00294722 0.000143686 -0.0338683 -0.0264887 0.00441426 0.00771674 0.0145671 0.00275766 -0.00175224 -0.00360348 -0.0306555 -0.000495175 -0.00199186 0.0287732 -5.52116e-05 -0.0970075 -0.0115474 0.00393044 -0.0475098 -0.00270729 -0.013541 -0.0015124 0.0409566 0.0010457 0.0199061 -0.0018451 0.00064307 -0.0274434 -0.000950021 -0.0356868 -0.0395597 -0.0129251 -0.0231468 -0.00200612 0.00114018 -0.000564815 -0.00125808 -0.00213242 -0.00163512 0.00201016 -0.00316953 -0.0194458 -0.00296498 -0.0374989 -0.00450359 -0.0049934 -0.00237139 -0.0577559 0.0198262 0.00660726 0.0409708 0.0218189 0.00117753 -0.0157058 -0.00281708 0.00236541 0.0129303 -0.00161476 0.0111842 -0.000660095 -0.00736493 -0.00335259 -0.00410984 -0.00190267 0.00592323 -0.0116262 -0.0146391 -0.00315829 -0.00173069 0.0490458 0.0284663 -0.00352814 -0.00389399 -0.000744425 0.0581009 -0.0016953 0.0138353 -0.00089504 -0.0096448 0.0257052 -0.00197955 -0.00503505 -0.0127582 -0.00352564 -0.0052239 -0.00707353 0.0118695 -0.00382922 0.022341 -0.00425774 0.00780218 -0.00090855 -0.00274847 0.00944016 -0.00305724 0.00101128 0.000392402 -0.00197286 0.0215493 0.00647242 0.00077216 -0.00306943 0.0132711 0.0504141 -0.00324297 -0.00197619 -0.00259119 0.0142149 -0.0143383 0.00245535 0.00332016 -0.0377836 -0.00142628 0.00149858 -0.0081388 -0.0142786 -0.0558481 -0.00358635 -0.00440569 0.0069538 -0.00184514 -0.0143892 -0.00540012 0.0274589 -0.00137004 -0.00245171 -0.0183209 -0.000740865 -0.00186365 -0.018775 1.15703 0.196028 -0.0133193 0.915292 0.012255 0.00165183 -0.00466716 -0.00519842 0.307843 -0.000650374 0.00238421 0.897798 -0.00317627 0.611332 0.421591 -0.00557268 -0.160691 -0.00506419 0.181716 0.00240771 0.822747 -0.000823672 0.903489 0.0011407 -0.00317793 0.716272 -0.000406085 0.842327 0.376355 -0.00266195 0.188723 0.00246423 0.00185862 -0.00284406 0.00268038 -0.00128242 0.000819456 -0.00172071 -0.00479616 -0.0106388 -0.00160072 0.302723 -0.000315595 0.00647611 -0.0026655 1.18381 1.36247 0.00486397 0.480352 0.74682 -0.000983136 0.964079 -0.00351797 0.000779448 0.010279 -0.00292252 0.0105658 -0.00270197 0.274046 -0.00282721 -0.00466813 -0.00150878 -0.0249895 0.0117657 0.694017 0.50452 -0.00577393 0.398774 -0.615422 -0.00264206 -0.000806216 0.00490874 0.296238 -0.00806009 0.0139172 0.0021153 0.840058 0.602572 0.0009946 -0.00412495 -0.00402509 -7.7248e-05 -0.000835626 -0.00715377 -0.00788748 -0.00376889 -0.334407 -0.00322533 -0.0268633 0.00186808 -0.00249346 0.0107326 0.00185744 0.15022 -0.00182436 -0.00332742 1.00727 -0.00585898 0.000524421 0.209996 -0.0104621 1.23537 0.00494186 0.00766002 0.0025897 0.246014 -0.0116323 0.248494 0.00112204 -2.28059 -0.00428942 -0.00423192 0.308494 0.859401 1.07287 3.71664e-06 -0.00372164 0.398272 -0.00214649 0.812054 0.394381 0.866698 -0.00142507 -0.00100542 0.00428728 0.00451677 -0.000171621 0.00898467 0.080408 0.0326284 -0.0133615 -0.493471 0.012295 0.00230654 -0.00162491 -0.0037125 -1.65414 -0.00442765 0.00220295 -1.31176 0.00202809 0.17978 0.0160472 0.00218854 1.60606 -0.00390197 0.0104204 0.00203501 -0.0124627 -0.00131588 -0.491523 -0.00159162 -0.000193857 -1.43136 -0.00407504 0.0134336 -0.14839 0.00386764 -0.686304 0.000862008 -0.00362599 -0.00114578 0.00147184 0.00250365 -0.00312692 0.00245063 -0.00291085 0.0248933 -0.0040792 0.0601411 -0.000192455 -0.00875264 -0.00376372 -0.0829905 0.797988 0.00864165 -0.156246 -0.147863 -0.00258691 0.451487 -0.00558471 0.00148597 0.010418 0.00217084 0.0115569 -0.000656909 -0.00891692 -0.00152669 -0.0029055 -0.004991 0.0136606 -0.012094 0.0512323 -0.0608204 -8.48557e-05 -0.197129 -0.751404 -0.00425996 -0.00503262 0.00399073 -0.820121 -0.00483629 -0.013671 -0.00119561 0.044529 -0.60357 -0.00117996 -0.00178015 0.0139396 -0.00377009 -0.00203117 0.00924462 0.00845142 -0.00424093 -1.84887 0.00178016 0.00288729 0.00225711 0.000660553 0.00892982 0.000547254 0.00791689 0.00171672 -0.00331704 0.468764 -0.00457081 0.00108237 0.0463205 0.00921479 -1.79129 0.00156255 -0.00449947 -0.00277199 -0.0611589 -0.0114161 -0.0611394 -0.00186068 -0.627154 -0.00424463 -0.00103581 -0.0216485 -0.589125 0.637657 -0.00517384 -0.0013888 -0.0335037 -0.00155714 1.28546 -0.0574169 0.0664284 -0.00207299 -0.00515216 0.00116086 0.0131917 -0.000433514 0.00982667 -0.533026 -0.365209 -0.00215542 -0.37633 -0.0170486 -0.00125445 -0.00379123 -0.00531605 -0.39046 -0.00336974 -0.0031576 -0.15914 -0.00323041 -0.248932 -0.200586 -0.00884951 0.19255 -0.00205095 -0.258392 -0.00197465 -0.205283 -0.00384519 -0.455763 -0.00366528 -0.00194575 -0.260756 -0.00212548 -0.253605 0.0148532 -0.000579822 -0.0803807 -0.000480362 -0.00100697 -0.000648166 -0.00102815 -0.00978387 -0.00315862 -0.00266812 -0.00148436 -0.0142801 -0.00385885 -0.264948 -0.000481177 -0.0118761 -0.000938813 -0.254425 0.0145642 -0.0173103 -0.235984 -0.235599 -0.00433394 -0.244202 -0.00243446 -0.0161174 -0.0154688 -0.00784735 -0.0199564 -0.00400826 -0.169849 -0.000870374 -0.00449465 -0.00523934 -0.0159623 -0.0156498 -0.220537 -0.209434 -0.00186452 -0.259278 0.309324 -0.00428353 -0.00384017 -0.0127993 0.273444 -0.00554626 -0.0171591 -0.000689576 -0.20559 -0.660178 -0.00191177 -0.00532317 -0.0282099 -0.00063985 -0.00501539 -0.00802786 -0.0149524 -0.00310708 0.269863 -0.000509447 -0.0126827 -0.0015168 -0.00267487 -0.0180297 -0.000900888 -0.218293 -0.00483471 -0.000420222 -0.250888 -0.005041 -0.00378954 -0.268402 -5.21993e-05 0.0158765 -0.0237738 -0.0116357 -0.0021363 -0.217612 -0.0149126 -0.220722 -0.00806294 0.0597469 -0.00267914 -0.00163491 -0.190212 -0.275135 -0.315904 -0.00410418 -0.00276978 -0.208124 -0.00240905 -0.216281 -0.20919 -0.079704 -0.00469152 -0.00577632 -0.0111328 -0.0130562 -0.00245214 -0.0134411 -0.00653301 -0.00569818 0.190249 -0.00307353 -0.000424896 -0.00828823 0.719663 -0.00151056 -0.00115188 -0.000952464 -0.000925602 0.21013 -0.00118821 0.427747 0.319251 -0.00410277 0.181528 -0.00399258 -0.00600277 -1.03082 -0.811272 0.0712902 -0.0060414 -1.74517 -0.0172794 0.433898 0.74937 -0.00278781 -0.00683859 -0.00132469 -0.00475611 -0.27715 -0.000920108 -0.00199014 -0.0019441 0.509793 -0.00474293 -0.00168535 -0.169026 -0.0168889 -0.0258653 -0.780677 -0.00137055 0.0670098 -0.00163859 -0.00691152 0.126213 -0.0054378 -0.148336 -0.00961296 0.000335411 -0.00204392 -0.00469449 -2.76392 -0.742308 -0.00177898 0.135011 0.23666 -0.0155027 0.1669 -0.143821 -0.0114055 -0.0014302 -0.00926586 1.08193 -0.00177459 -0.69629 -0.110409 0.0109638 0.0746419 -0.016062 -0.685742 -0.276535 -0.00493565 -0.00269258 -0.00146322 -0.472479 0.000558512 -0.00354195 -0.00822119 0.00108749 -0.017315 -0.33291 0.000977598 0.00189741 0.00194396 -0.000185369 -0.689412 -0.00826795 -0.00969551 -0.00130064 -0.00218433 0.00123651 -0.00355976 -0.00167899 -0.00594652 0.00028421 -0.0076655 -0.0189325 -0.419663 -0.00246152 -0.0437921 0.475316 -0.0160143 -0.622601 -0.00375077 -0.00461048 -1.30246 0.69588 -0.484485 -0.00738624 -0.693979 0.658168 -0.00322866 -0.0010418 -0.0679623 0.0395802 0.32978 -0.00597024 -0.224799 -0.0137406 -0.773768 -0.00103785 0.0913511 -0.150479 0.35447 0.342979 -0.00240423 -0.00766045 -0.00380056 0.631859 -0.00571504 -0.00378089 -0.00644739 1.41285 -0.00326779 -0.00135389 0.000193507 -0.00247724 1.27422 -0.00367602 1.25561 -0.769686 -0.00399886 1.36145 0.0122694 -0.00610348 1.30562 0.141888 1.30915 -0.00334696 -0.0940933 -0.0174493 1.23528 1.12865 -0.00561428 -0.00727237 -0.00547562 -0.00211555 1.27701 0.00160835 -0.00346565 -0.00195139 1.39165 -0.000792605 -0.00172239 1.31928 -0.000916882 -0.0149357 1.13972 -0.0049321 -2.4483 -0.0143437 -0.00566359 1.20048 -0.00358495 1.33694 -0.0110604 0.00286935 -0.00276777 -0.00197077 -1.22207 -0.00643324 -0.000669866 1.27945 1.50281 -0.016436 -0.251156 1.14026 -0.0109599 -0.00499637 -0.00430568 1.37172 0.00149551 1.22958 -0.980774 -0.0181992 1.28925 -0.0133743 -0.321196 1.25115 -0.00730258 -0.0044536 -0.00397852 0.85538 0.00117779 -0.0019255 -0.00472146 -0.0137884 -0.0129 1.2458 0.000249108 -0.00296411 0.000789384 0.00110918 -0.397632 -0.00851068 -0.00201361 -0.000636396 -0.00635709 -0.00238555 -0.00130627 -0.00527846 -0.00725264 -0.00206668 -0.00760408 0.0164035 1.1467 -0.000986796 1.31379 1.24035 -0.0189059 1.18293 -0.00275802 -0.00507028 0.1894 1.22811 1.17497 -0.00260042 -0.0763146 1.36187 -0.0023851 -0.00525385 -1.03512 1.24407 -0.0441185 -0.00387178 1.30478 -0.0131063 1.57184 -0.00268673 0.0939233 -0.0423328 1.34205 1.2424 -0.00679395 0.00269012 -9.7024e-05 0.000314686 -0.00165755 -0.00242433 -0.00263901 0.0041254 0.00165824 -0.00464057 0.00237071 0.00261893 0.00494439 0.00294738 0.000102811 -0.000413421 -6.77218e-05 0.00561368 -0.00250038 0.000960928 0.00166591 0.000340793 0.00556699 -6.70856e-05 0.0615284 -0.00171733 0.00500497 0.00170823 -0.00234524 -0.000734931 -0.00140086 -0.00155229 0.00336735 0.000137567 -0.000520573 -0.00489456 0.0054165 0.00217074 -0.00132762 0.00511446 0.00167694 0.00272908 0.00616272 -0.000691106 -0.00202414 0.00178051 -0.0023171 0.00272403 -0.000865031 0.00631103 0.000496687 0.000517066 0.00255503 0.00045047 -0.0103491 0.00187982 0.00065285 0.00382277 -0.00143822 -0.00144749 -0.000113943 0.0020326 -0.00270839 -0.00198455 -0.00149907 -0.000577348 0.000634158 0.00577712 -0.0209915 -0.000630491 0.00687705 0.00215627 -0.0420605 0.00212275 0.00302791 -0.00237364 0.000903711 -0.0581016 -0.00153676 -0.000942536 -0.00181283 4.30368e-05 0.00270455 0.00435489 0.000506789 0.000639223 0.00128786 -0.000590782 0.00215215 0.00252291 0.00150503 -0.00444692 0.0017809 -0.0021434 3.4616e-05 0.00119927 0.00122278 -0.00069996 0.0013993 0.00232371 0.00146427 -0.00221888 0.00789046 0.0044467 -0.000532115 0.00524159 0.00150147 0.00295241 -0.00155301 0.00237667 0.00430001 1.6354e-06 0.000421535 0.00365427 -0.000235663 -0.000594637 0.00296994 0.00196215 0.000991948 0.00278965 0.00840433 -0.00120495 0.000186759 -0.00299122 -0.0473735 -0.000591899 0.00416593 0.00727301 -0.000236111 -0.00645026 -0.00749088 -1.51206 -0.00716117 -0.00495199 -0.0122426 -4.10787 -0.0050476 -0.00122573 -0.000243231 -0.0045186 0.284838 -0.000254842 -1.33141 0.289234 -0.00275188 0.34894 0.0338981 -0.00492119 -0.488668 0.728752 0.200979 -0.00662011 -1.78371 -0.0145522 -0.253424 0.553221 -0.00451674 -0.00816093 -0.00208636 -0.000143559 -0.334268 -0.00174051 -0.00185936 -3.46692e-05 -0.645357 -0.000173393 -0.00200437 0.131038 -0.0136252 -0.0109429 -1.01406 -0.00520559 0.221065 -0.0162382 -0.00795301 0.65008 -0.00188624 -0.369179 -0.0119873 0.00265599 -0.00158406 -0.0042564 -0.12599 0.204749 -0.0124712 -0.240169 0.0328697 -0.00859062 0.553716 -0.134278 -0.0121557 -0.000971676 -0.00736032 0.297037 2.59455e-05 0.830552 0.652566 -0.010107 0.603812 -0.00771834 -0.559087 1.40681 -0.00714746 -0.00480302 -0.00151316 0.528451 -0.00180788 -0.00404842 -0.00912819 -0.0242619 -0.0137788 -0.421204 0.00134158 -0.0117246 -0.000718078 0.00196678 -0.424975 -0.0108216 -0.00345598 -0.00302118 -0.00638878 -0.00148253 -0.00166738 -0.00501791 -0.00834257 -0.00264489 -0.0062581 -0.0136019 0.171944 -0.00111516 -1.85574 -0.123736 -0.0151174 0.233327 -0.00475729 -0.0041208 -1.12553 0.0463626 -0.523321 -0.000640019 -0.558654 -2.11614 -0.00393881 -0.00137288 0.229331 -0.481699 0.184006 -0.00121213 -0.255808 -0.0165174 -0.192606 -0.000216545 0.249154 0.491298 -0.486643 -0.243346 -0.00430336 0.00204133 0.00303578 0.00366934 -0.000978393 -0.00192781 -0.00153897 0.00117902 -0.000963353 0.00289764 0.00125783 -0.00194738 0.00224267 0.00323204 0.00196333 0.00158894 0.000377275 -0.00202029 8.20744e-05 0.000290832 -0.00152504 0.00010147 0.00397749 -0.00191852 0.00802402 -0.00284211 -0.00193441 -0.00044093 -0.000558225 0.000613143 -0.000404513 -0.00219048 0.00179553 0.000843353 0.000952645 0.00105198 0.000605025 0.0019449 9.9943e-05 -0.00319139 -0.000716014 0.00192612 -0.0032227 -0.00102015 0.00279883 0.00183776 -0.00166687 0.00259057 -0.00261757 -0.000717986 -0.000573971 -0.000598243 -0.00232846 -0.000454135 -0.00339988 0.00365234 -0.0016806 -0.000834295 -0.00139207 -0.000990815 -0.00186966 -0.00375436 -0.000303575 -0.00153816 0.00173115 0.000320385 0.00248481 0.00220965 0.000512556 -0.00228615 0.00274589 0.000561364 -0.00682331 -0.0010584 0.00158061 -0.00185703 0.00273974 -0.00146516 -0.002373 0.00198272 -0.000625174 -0.0026716 -0.00171313 -0.00166248 -0.00164008 0.00121803 0.00152492 0.00028372 0.00651233 0.000783437 0.00291274 0.000805669 0.000605476 0.00245512 0.00033186 -0.00098748 0.00274283 -0.000360461 0.00165857 0.00132157 1.44268e-05 -0.00222525 -0.00242212 -0.00131702 0.00220511 -0.000462483 -0.000212233 0.000588213 0.00259453 0.00077189 0.00045826 -0.00203387 -0.00807189 -1.76721e-06 -0.000748006 -0.000117767 -0.000945471 0.000680173 -0.00231468 0.00140973 -0.0066473 0.00137508 0.00262536 0.000103527 0.00930462 -0.002555 0.000262475 -0.00243373 -0.000207579 -0.00286842 0.00184968 -0.00192474 -0.00200765 -0.00191038 0.00114862 -0.00171742 -0.00121137 0.00161001 6.9004e-06 0.00245679 -0.00265288 -0.000379488 0.000433528 0.000390403 0.0019429 -0.00224341 -0.0011993 -0.00298727 0.00270664 0.0015978 0.00150782 -0.00216681 -0.000904083 -0.00209196 -1.96761e-05 0.00185191 0.000797213 0.00113041 0.000837422 0.00137593 0.00215907 0.000761732 -0.00191645 0.000439839 -0.0020186 0.00243631 -0.00253594 -0.000968792 0.000483705 -0.000148589 0.00183192 0.000184669 -0.00163614 0.00125691 -0.0021082 0.000948697 0.000803895 -0.00162416 -0.00190663 -0.00200188 -0.00210236 -0.00178352 0.00272975 -0.00290455 0.00274509 -0.00284585 0.00282666 -0.00121443 0.000150438 0.00217404 0.00237843 -0.00186594 0.000964317 0.00264739 0.00285424 -0.00235239 -0.0019266 0.00147931 -0.00270319 -0.00257229 -6.52468e-05 0.00209936 0.00298225 -0.00297364 0.000255645 0.00216809 0.00245483 0.0020721 0.00227324 0.00147709 -0.00229506 5.41334e-05 -0.00198701 0.00198667 0.00256807 -0.00198309 0.00230242 -0.000672823 -0.000704583 -0.00137128 0.0022073 0.00144901 -0.000312764 0.00125783 0.00266599 -0.00195529 -0.00153242 0.000845575 0.00185168 0.00212023 -0.000611294 -0.00230704 -0.00251831 -0.000837194 0.00197343 -0.00171234 0.00174624 0.00092813 -0.00284312 0.00171466 0.00253538 -4.61212e-05 0.00200407 -0.00221188 0.0015587 0.00255442 0.00199625 -0.00144359 -0.00172187 0.000133889 -0.000615857 -0.000125341 0.00296342 0.000626871 0.00266945 -5.73467e-05 -0.000372321 -0.00105066 -0.00119404 -0.003054 -0.00534616 -0.00247307 0.00178792 0.00360778 -0.00550847 0.000342401 0.00131881 -0.00233755 0.00104425 0.00196824 0.000528058 -0.000405233 0.00254134 -0.000200648 -0.000737044 -0.00199313 0.00293535 -0.00227581 -4.11278e-05 9.50561e-06 0.00282955 -0.000834432 0.00356613 0.000113901 -0.00135769 -0.00276238 -7.36819e-05 -0.00209942 0.00565045 -0.000437626 0.00273223 0.00134548 0.00317556 0.000235546 0.00123265 -0.000322813 0.00169509 0.00256116 -0.000449349 0.00194777 0.00160402 0.00298282 -0.00163408 0.00500733 0.000851996 -0.00240201 -0.00139103 0.00158306 0.00183306 -0.00237448 -0.000181447 -0.00437228 0.00253625 0.00165743 0.00485614 -0.00142935 0.00226838 0.000836483 0.00155516 -0.00280986 -0.00181247 0.00311235 -0.000741543 0.000974275 0.00175294 -0.00212734 0.00230535 -0.00292293 -0.00188033 0.00255814 -0.000689299 -0.00488063 0.0013933 -0.00157663 -0.00279304 3.99698e-05 0.00282834 -0.00234065 0.00145928 0.00355599 0.000565097 -8.26502e-06 0.000407116 -0.000440974 -0.00254256 -0.00125648 0.00036801 0.000800001 0.00258466 0.00286662 -0.00486646 0.00097041 0.000616637 -0.000157093 -0.00353929 -0.000146529 0.00372167 0.000226198 0.000177071 0.00450389 0.000544654 0.00516147 -0.00239322 -0.00395284 -0.00540385 2.4769e-05 0.00433635 -0.00130209 -0.00164784 0.0017147 -0.000280492 0.00142431 5.93141e-05 0.00195174 0.0024329 0.00121925 0.000769604 -0.00220781 0.000709811 -0.000701879 0.00294716 -0.00127904 -0.00131723 0.00295792 -0.00184073 -0.00141852 -0.00519125 -0.00453719 -0.00521695 0.00231025 0.00203877 0.000235836 -0.00313982 -0.00227863 0.000432555 0.00269634 0.00128647 0.00305198 0.00166169 -0.00434661 0.000994963 0.00550406 0.000736199 -0.00261877 0.00179467 -0.00179705 0.00104462 -0.00504703 0.00241054 0.00175975 0.00181257 0.00459783 0.00179344 0.000731179 -0.000521586 -0.000844332 0.000120802 -0.000949938 0.000292024 -0.000236715 0.00342089 2.01486e-05 0.00188656 1.07967e-05 -0.000217719 0.000538905 0.000221604 0.000667981 -0.00268835 0.000454362 0.00205407 0.00218399 -0.000365851 -0.0022001 -0.00283032 0.00154002 0.00177664 -0.00123867 -0.00230876 -0.00330898 0.00197336 0.0047583 0.00362344 0.00278244 0.00265871 0.000272939 0.000889725 -0.000115176 -0.00514856 0.00502555 -1.66192e-05 0.00420525 -0.00263783 -0.00142526 0.00273322 -0.00219838 0.000831275 0.00176364 -0.00107668 -0.0017863 -0.000711065 -0.00388498 -0.000959163 0.0026852 -0.000262399 -0.000415328 -0.000274885 0.00533947 -0.00168529 0.00229442 -0.00288075 -0.000949411 0.00159616 -0.000943178 0.000712838 -0.000281873 -0.00293902 0.000594487 -0.00143451 0.000896505 -0.000943676 -4.02045e-05 -0.0013181 0.00232682 -0.000110779 -0.00460173 0.00331632 0.00424063 0.00292775 0.000290447 -0.000813137 -0.00159534 -0.00340884 0.00218075 0.00141919 -0.00219915 0.0010359 0.000904207 0.00221109 0.00150694 -0.000483722 -0.000549486 -0.00210322 -0.00228821 0.00223455 0.000607507 -0.00107287 -0.00129424 -0.000388105 0.00242255 0.000227821 0.00277476 0.000765491 -0.00382495 -0.00789903 0.013764 -0.00782648 -0.00284999 -0.0121112 -1.65748 -0.0067959 -3.62369e-05 -0.00218486 -0.00440399 -1.29975 -0.00505757 -0.726698 -0.793351 -0.00442941 -1.07059 -0.0389855 -0.00634017 -0.513202 -0.0659014 -0.223316 -0.00180219 -0.163591 -0.0135617 -1.33449 -1.24626 -0.0022368 -0.00555827 -0.00299476 -0.000389996 -1.16866 -0.00551045 -0.00427509 -0.00451739 -2.3361 -0.00289994 -0.00337608 -1.57099 -0.00297867 -0.0335628 -2.46869 -0.0040249 -1.23495 -0.0123702 -0.00513152 -1.63919 -0.00506279 -0.49752 -0.0116806 -0.00213068 -0.00312125 -0.000480612 0.621816 -1.97228 -0.00931218 -1.21065 -0.632486 -0.0459053 -1.01099 -0.483002 -0.0113843 -0.00494724 -0.00893748 -0.197919 -0.00259514 0.483541 0.868457 -0.00496375 -0.643869 -0.0107943 -0.29166 -1.653 -0.00220362 -0.00625132 -0.00128546 1.02904 -0.00352241 -0.00412221 -0.00420298 -0.0102412 -0.0187726 -0.894477 0.0018191 -0.00143032 -0.00211958 -0.00142111 -0.209724 -0.0141988 -0.0143878 -0.00363399 -0.00184276 -0.000476655 -0.00533175 -0.00590743 -0.00724845 -0.00187668 -0.00797304 -0.0109343 -0.491796 -0.00237966 -0.948995 -0.691091 -0.0163826 -1.27399 -0.00786308 -0.00491641 -0.141961 -0.974397 -1.88745 0.00103249 -0.30145 0.433178 -0.00228179 -0.00172437 -1.10769 -1.75754 0.598879 -0.001085 0.0696678 -0.0158081 -1.98347 -0.00563296 0.307059 -1.88454 -2.29409 -0.794671 -0.00530947 -0.00270758 -0.0048886 -0.0021759 -0.000187911 0.000204083 -0.000122315 0.00462268 -0.00541853 0.0022848 -0.00297676 6.91744e-05 0.00405171 -0.00254097 0.00282558 -0.00405829 0.000609479 0.00540721 0.00109511 0.0026804 0.000527108 -0.00278149 0.000637477 -0.00267676 0.00113272 -0.0021155 0.00461242 0.00236793 -0.000587441 -0.00115774 -0.00560252 -0.00168317 0.000463083 0.00270237 -0.00290178 -0.00231199 5.55388e-06 -0.00463396 -0.00293143 0.0036054 0.000101946 -0.00152675 -0.00462424 -0.00245478 -0.00078935 -0.00295324 0.000616208 -0.00294139 -0.00115129 0.00146667 0.0020361 -0.00142541 8.54284e-05 -0.000319355 -0.000952733 -0.000934811 0.00289496 0.00372726 0.00104264 -0.00517947 0.000479812 0.00193821 -0.00139088 0.000301434 -0.00487652 0.00400194 -0.00266587 0.000137959 -0.00128089 -0.00253566 -0.000453 0.00207964 -0.000625809 0.000676313 -0.0033988 -0.0034861 0.00137258 -0.00353983 0.00271084 -0.000513101 0.00270849 -0.00376926 -0.00125853 0.0052586 -0.00173982 -0.00221474 0.000123095 0.00243278 -0.000584819 -0.00170543 -0.00252756 0.00259836 0.000617229 -0.000735047 -0.00194323 0.00175314 -0.000999047 0.00115595 -0.00474696 0.00275228 0.00420993 -0.0049411 0.00226372 0.0037083 0.0025798 0.00312544 0.000758847 -0.00189633 -0.000444262 -0.002083 0.00238809 -0.00112514 0.00116339 0.00532041 -5.59741e-05 0.00183494 -0.00104137 0.00314715 -0.000667294 -0.000530125 0.00105672 0.00197038 -0.00233947 -0.00132464 0.00160582 -0.00170366 -0.0057384 0.00259447 0.00262118 -0.000622663 0.000605494 -0.000531177 -0.002338 2.51527e-06 0.00196209 -0.00136241 -0.00237704 -0.00152117 0.000964393 -0.00102354 0.00139799 -0.00236178 0.000658541 -9.0555e-05 -0.00279897 -2.34096e-05 0.00129785 0.00252802 0.00242044 0.00300479 0.00196192 0.00197778 0.00180577 0.000329873 -0.000990883 -0.00287937 0.000905951 0.00218379 -0.00112316 0.00204098 -0.00321708 -0.000727247 -0.00139098 -0.00208247 0.000348537 -0.00123178 0.00275467 -0.000465281 0.00143165 -0.00292347 0.000186679 0.000458708 0.00184427 0.000929809 0.00226937 0.00286352 -0.0020866 -0.00184452 0.00174585 -0.00263577 -0.000661037 -0.0012002 0.00140508 -0.00207099 0.00175545 0.00209603 0.000350927 -0.00126443 -0.00257427 0.000108185 -0.00285191 -0.00262775 -0.00274096 0.000172202 0.00103402 0.00188762 -9.32743e-06 -0.00270729 -0.00154546 0.000849787 0.00171832 -0.00127837 -2.54871e-05 0.00170491 0.00057077 -8.2698e-05 -0.00101476 8.22902e-05 0.00176404 -0.00111893 -0.00022436 -0.000326632 0.00107742 0.000406674 0.000910661 -5.33175e-05 -0.000609251 -0.000135095 -0.00260047 -0.000533829 0.00281455 0.00168433 0.00120641 0.0015939 0.00153949 0.00205962 0.00209598 0.00287197 -0.00283618 -0.000290969 -0.000419147 -0.000785993 -0.0027782 0.00211173 0.00135856 -0.00203125 -0.00207756 0.00122894 -0.000487528 -0.00254153 -0.000534958 -0.00199334 0.00179352 0.00258149 -0.00297168 0.000318925 0.0010712 -0.00142282 0.00205909 -0.00123625 -0.00283884 -0.00244016 0.00178731 0.00126842 0.00115601 0.00124148 0.00195249 -0.00797076 -0.00554969 -0.296495 -0.00518106 -0.0131555 -0.014562 0.329184 -0.00706652 -0.00465865 -0.000395566 -0.00543632 0.74821 -0.00394948 0.0408759 -0.341705 -0.00203948 0.642644 -0.000871037 -0.00739606 0.199463 -0.628431 0.0950809 -0.00425281 0.691281 -0.0150311 -0.986792 -0.943061 -0.00146984 -0.00492178 -0.00446775 -0.00228901 0.52021 -0.00205378 -0.0138821 0.000220422 -1.00854 -0.000576426 -0.00238383 0.420091 -0.00208572 -0.0253025 0.805569 -0.00351992 -0.8879 -0.012535 -0.0047761 0.45273 -0.00547061 0.349512 -0.0111664 -0.00183174 -0.00148473 -0.00340514 0.784136 -0.214843 -0.00810488 -0.336076 0.0981537 -0.0510375 0.181028 -0.685424 -0.0076579 -0.00383358 -0.00791154 -2.10609 -0.00652882 -0.468506 -0.219127 -0.0112013 -2.13929 -0.00749098 0.146927 -0.42708 -0.00427555 -0.0048933 -0.00314182 -1.34135 -0.00312282 -0.00220477 -0.00793427 -0.00490435 -0.0161539 -0.0649198 0.0020008 -0.00317246 -0.000148247 0.000325528 -0.470724 -0.0115314 0.000512215 -0.00572572 -0.00458585 -0.00277643 -0.00110003 -0.00306242 -0.0035241 -0.000700512 -0.00283173 -0.0209365 -0.0205372 -0.000832926 0.401905 -1.43904 -0.0178564 1.12789 -0.00718407 -0.00815504 0.083881 0.0407523 1.10681 0.0119936 0.207396 0.275608 -0.000782544 -0.000314551 -0.625801 -0.517371 -0.208041 -0.0025328 -1.02651 -0.0182503 0.44303 -0.0129924 -0.251476 0.602086 -0.619323 -0.642898 -0.00720956 -0.000419383 0.00124078 0.000893225 -0.000465837 0.00073383 0.00129543 -0.00119629 2.48578e-05 -0.000826766 0.00168835 -0.00218708 0.00303163 -0.000399581 -0.00102472 0.00253272 0.00106237 -0.00131736 0.00117972 -0.00222592 0.00187723 0.00249308 -0.000640719 0.000712114 0.00286076 -0.00224724 0.000682323 0.000940713 0.001613 -0.0018547 -9.72321e-05 -0.00291326 -0.00206434 -0.00219179 -0.000296895 0.00043365 0.00102958 -0.000709218 0.000195219 0.00180183 0.00239449 0.000269 0.00169153 -0.00268904 0.00185162 -0.000990573 -0.0016279 0.00261817 -0.000910592 -0.00209229 -0.0028312 0.00273222 0.00108174 0.00216337 0.00263456 0.00156459 0.00250454 -0.000880449 0.00255272 0.00283514 -0.00119962 -0.00358981 0.00160439 -0.00249029 0.000573361 0.000391265 0.000907492 -0.00243244 0.000188695 0.000802805 -0.003622 -0.000177772 0.00231796 -0.00237094 -0.000369175 0.000616753 -0.00123136 0.00222999 0.00116572 -0.000935805 0.000328574 0.00199662 0.000347146 0.00219292 0.0023694 0.00205107 -0.00221486 -0.00186508 -0.00207816 -0.00282659 -0.00294549 0.000578711 0.000654296 0.00251354 0.00111918 -0.00119312 -2.65532e-05 -0.00145102 0.0021394 -0.00229944 0.000651342 0.00237324 0.000829193 -1.60835e-05 0.00050595 -0.00131402 -0.00247641 0.00210016 0.00113589 -0.00139931 0.0031364 -0.00189735 -0.00120035 -0.000328123 -0.00158106 -0.00182967 0.00123228 -0.00283517 0.000133998 -0.00114407 -0.000223309 0.00255139 -0.00170467 -0.00299395 0.00243964 0.00108025 -0.000753299 0.000836726 -0.00238249 -0.00213312 -0.00588566 0.0330515 -0.00573708 -0.00533292 -0.00623374 -0.0102042 -0.0056781 -0.00531455 -0.000330135 -0.00631708 0.022604 -0.00125885 0.170856 -0.119649 -0.00177722 0.094542 0.00222136 -0.00514733 0.188316 -0.205755 -0.0988548 -0.00277655 -0.147768 -0.0181363 -0.0255776 0.19175 -0.00361187 -0.00755924 -0.00147223 -0.00234772 0.0961097 -0.00246793 -0.0028493 -0.00272543 0.23978 -0.00169985 0.000253059 -0.0579009 -0.00244662 -0.029707 0.156397 -0.000886158 0.203209 -0.0159648 -0.00967246 0.118776 -0.00300346 0.139853 -0.0109544 -0.00188467 -0.00345335 -0.00481361 0.502605 -0.00665789 0.000700724 0.1634 -0.0454316 -0.0117687 -0.244568 0.21726 -0.00748172 -0.00127435 -0.0109085 0.0792342 -0.00691246 0.180406 -0.119073 -0.0185354 0.128061 -0.0151173 0.220877 -0.0807712 -0.00557433 -0.00327948 -0.00231186 -0.262594 0.00111411 -0.00154856 -0.00465828 -0.00747007 -0.0180398 0.137088 0.00120932 -0.00553046 -0.00211727 0.000587003 0.415453 -0.00601697 -0.00339107 -0.00153318 -0.00174054 -0.000286609 -0.00664525 -0.00474946 -0.00479618 -0.00320423 -0.00558575 -0.00510284 0.223 -0.0047357 -0.00620297 0.108605 -0.0214621 0.135772 -0.00696512 -0.00446402 0.0659813 -0.147816 0.186704 0.0010463 0.0636967 0.142547 -0.004785 -0.00271801 -0.0100518 0.242376 0.1077 -0.00349186 0.185957 -0.00143671 -0.297093 -0.0012112 0.0362896 0.00215693 0.238454 0.177509 -0.00348369 -0.00792755 -0.00273774 0.0447831 -0.00611978 -0.00135216 -0.0120588 0.0388144 -0.00540143 -0.00456744 -0.000895129 -0.00374399 0.0447046 -0.000143997 0.0217032 -0.00660205 -0.0016971 0.0838687 0.000510596 -0.00803392 0.115093 -0.00491835 0.093495 -0.00494658 0.453065 -0.0176345 0.103783 0.0478229 -0.00372964 -0.00880305 -0.00209311 -0.00544912 0.0397869 0.000831604 -0.000649368 -0.00347319 0.0458269 -0.00520078 -0.00128621 0.0906807 -0.000392115 0.00199346 0.0327652 -0.00624735 0.063726 -0.0154179 -0.00929328 0.0322364 -0.00495306 0.0681506 -0.0112341 -0.00148458 -0.00360529 -0.00326213 -0.136814 -0.0039242 -0.00151389 0.0320076 0.0436208 -0.0026417 -0.0200549 0.109293 -0.0101078 -0.00240991 -0.00980084 0.0437636 -0.000961758 0.0259775 0.0985138 -0.0192272 0.114276 -0.00160201 0.00684801 0.0451622 -0.00293599 -0.00550627 -0.0053254 -0.606491 0.000282431 -0.00303215 -0.00379928 -0.00300905 -0.012503 0.0780098 2.07203e-05 0.00161264 -0.000449646 -0.000280445 -0.00220288 -0.00137977 -0.000525813 -0.00202986 -0.00237685 -0.00167731 -0.00197009 -0.000768614 -0.00742607 0.00135522 -0.00605201 -0.00136391 0.105288 -0.00190189 0.125031 0.0175076 -0.0198052 0.00355438 -0.00587344 -0.00518801 -0.0414997 0.0755971 0.104291 0.000194138 0.118693 0.0351039 -0.00190051 -0.00290316 0.128769 0.0654383 -0.000734633 -0.00337836 0.115787 -0.00228201 0.0705109 0.00282173 -0.133895 0.000463213 0.0485966 0.0696659 -0.00701824 -0.00280987 0.00134962 -0.00213505 0.000815561 0.00173909 0.000397519 -0.00224189 0.00192952 -0.00117072 -0.00108376 0.00170988 -0.00132825 -0.00143402 -0.000262789 -0.0020223 0.00252645 -0.0031731 -0.00249835 -0.00255779 -0.000189351 0.00190606 -0.00015071 0.00154949 -0.00980615 -0.00020145 2.90567e-05 -0.0020417 0.00266238 -0.00299211 0.00288761 0.000421165 -0.00250761 0.000345018 -0.00120129 -0.00204556 -0.000724913 0.00110522 0.00175446 -0.0026839 -0.00149955 -0.00092998 -0.00279301 0.00256491 0.00153643 -0.00127057 0.000637079 4.40416e-05 0.00207691 0.000681936 0.000574243 -0.00258878 -0.00169174 0.00221645 -0.000514693 0.000967255 0.00170091 -0.00290016 -0.000992509 -0.00162249 -0.00295852 -0.000165249 -0.002869 -0.00064138 -0.00148476 -0.00312447 0.000973677 0.000895778 -0.00295858 0.00147854 -6.91272e-05 0.00244679 0.00284744 -0.00388027 0.000113819 0.00193185 0.000822137 0.00272346 0.00268156 0.00279963 -0.00259594 -0.000374791 -0.00107496 -0.00373895 -0.00219249 0.00183569 0.000148586 0.00266554 0.00293004 -0.000540635 -0.000772873 -0.00163888 -0.000323814 -0.00140267 -0.000245422 -0.000402568 -0.00144226 -0.00219771 -0.00048463 4.11631e-05 -0.00288598 0.00110813 -0.00218716 -0.00185223 0.00175814 0.000246936 0.00151268 0.00173554 7.60471e-06 -0.00152367 -0.000912508 -0.00241206 -0.00152594 -0.000614296 -0.00117024 0.00160181 -0.00139663 -0.00447242 -0.00122063 0.00033819 0.000394968 0.00113475 0.00130729 0.000354175 0.000200125 0.00225434 -0.00251372 -0.00166681 -0.00175053 -0.00336374 -0.00465603 -0.0906596 -0.00375801 -0.00470867 -0.0141661 -1.35733 -0.00297077 -0.002111 9.15144e-05 -0.00279037 0.52389 -0.00434586 -0.535498 -0.650338 -0.00545939 -0.853202 -0.101947 -0.0058508 0.242201 0.767361 -1.16304 -0.00182043 -1.32748 -0.0180983 -0.063521 -0.0318423 -0.00451243 -0.0098967 -0.00192235 -4.16642e-05 -0.18977 -0.00206723 -0.0164046 -0.0020603 -0.82472 -0.00395243 -0.0014155 -0.109757 -0.00214631 -0.00818254 -0.72788 -0.00324826 -0.301429 -0.0143281 -0.00453251 -1.25856 -0.00348963 0.453536 -0.0105179 0.00161685 -0.0026645 -0.00253673 0.263871 0.214386 -0.00364751 -0.170829 0.691339 -0.0301575 -0.681525 0.00873143 -0.0106986 -0.00649387 -0.0101124 0.267274 -0.00818142 0.777091 -0.0693794 -0.0157351 0.485709 0.00574318 -1.36711 0.0618705 -0.00633487 -0.00179032 -0.00136498 -0.196404 -0.00352167 -0.00488685 -0.00615137 -0.0122269 -0.0169299 -1.35966 -0.000918135 -0.00109101 4.40658e-05 -0.00158463 -1.68205 -0.00986996 -0.00297309 -0.0011062 -0.0047096 -0.00103565 -0.0026616 -0.00171906 -0.00761734 -0.00229473 -0.00692198 -0.0250087 -1.61763 -0.00242368 0.152221 -0.787503 -0.0162683 -3.13328 -0.00324702 -0.00661985 -0.0988862 -0.112171 -0.290754 -0.0488836 -0.833164 0.303208 -0.00300543 -0.00227867 0.389921 0.130661 -0.681313 -0.00566398 -0.145007 -0.012932 0.36004 0.00296057 0.0544556 0.0438425 -0.689661 -0.35129 -0.00431085 0.000267276 -0.00110684 -0.00202118 -0.00207849 -0.0021783 0.00125882 0.00212542 -0.00231114 0.00120527 -0.00192008 0.00182201 0.00246168 0.000292284 0.000605957 0.00172053 0.000158938 0.00277405 -0.000467755 0.00132694 -0.000218578 0.000569163 0.00454732 -0.000305286 0.000915464 -0.00117916 0.00300005 0.00104519 0.00180762 0.00177701 0.00273149 -0.000333971 0.00210879 0.000598903 0.00205573 -0.0028128 0.000465451 0.00266309 0.00268753 0.00204768 0.001865 0.00257328 0.00333992 -0.000766006 -0.000565826 -0.000367057 0.0010719 0.0021002 0.00271958 0.00148895 -0.000965875 0.00237516 0.000272605 0.0014957 -0.00225074 -0.000273175 -0.0025515 0.00334695 0.00358122 0.00251498 0.000960432 0.00350189 0.00212234 -0.00019259 -0.000247846 0.00418553 0.0019486 0.000493666 -0.00284596 -0.00265911 0.000160233 -0.00197149 0.000755069 -0.00049336 -0.000145333 0.0010904 -0.00231127 -0.00156817 -0.00126552 -0.00195716 -0.00105776 0.00180732 -0.0012022 0.00400195 0.000316625 0.00032815 0.00138388 0.00164175 0.00240508 -0.002171 0.00176446 -0.00186352 -0.00282615 -0.00223568 -0.00219526 -0.00223013 0.00261156 -0.00136062 0.00266506 0.000828903 0.00457518 -0.000817238 0.000744181 0.000465847 0.000273896 0.000889254 -0.00116506 -0.00288649 0.000539258 0.00511431 0.00444466 -0.00295236 0.000804153 0.00153051 -0.00231564 0.000244908 -0.000501472 0.00244101 0.00169567 -0.00210227 -0.000391941 -0.00264577 -0.00071382 0.00133422 -0.00242928 0.00100314 0.00102154 0.00296303 -0.00208889 -0.00508528 -0.00711685 0.211409 -0.00572961 -0.0022792 -0.00773077 0.888435 -0.00232724 -0.00311326 -0.00501455 -0.00426767 0.785779 -0.00103328 0.789537 -0.00193613 -0.00305161 0.766403 0.00513904 -0.00560714 0.801037 -0.00476554 0.755967 -0.00173319 -0.318872 -0.0211849 0.762584 0.787995 -0.00322144 -0.00572002 -0.0035867 -0.00536842 0.794217 0.000546409 -0.00131589 0.000130409 0.771724 -0.00373143 -0.00244254 0.748844 0.00242678 -0.0300088 0.789173 -0.00291677 -0.435074 -0.0117115 -0.00943518 0.80957 -0.00756017 0.768196 -0.00856339 -0.000913351 -0.00121397 -0.000815918 0.113677 -0.00487609 -0.00113219 0.84665 0.930066 0.071356 -0.270881 0.773994 -0.00717356 -0.00586728 -0.00652217 0.95019 0.00162124 0.767746 -0.347074 -0.026414 0.792518 0.000229878 0.16193 0.778662 -0.0031465 -0.00586726 -0.00392153 -0.454737 0.000391926 -0.00415979 -0.00806079 -0.000464383 -0.0145475 0.763927 0.000766183 -0.00956207 0.00171894 0.002187 -0.016872 -0.00218752 0.000693666 -0.0040108 -0.00565137 -0.00179955 -0.0059552 -0.00288571 -0.00653586 0.0015007 -0.00453669 -0.000691283 0.771091 -0.00483905 0.801288 0.787032 -0.015458 0.720504 -0.00578385 -0.0045159 0.195016 0.754077 0.774403 -0.00209055 -0.0442068 0.968713 -0.00209283 -0.00589564 -0.386895 0.778347 -0.000903545 -0.00461545 0.802481 -0.0176168 0.0863988 0.00214209 0.0395835 -0.00126734 0.77489 0.775288 -0.00388131 -0.000234696 -0.000814366 -0.00131841 -0.00254277 -0.00033225 -0.00200576 -0.000593289 0.00252351 6.80061e-05 0.00248485 -0.0024484 0.00296132 -0.0024214 -0.00110595 0.00171225 0.000614401 -0.000206794 -0.00121121 -0.00220096 -0.00122145 -0.00200024 -0.00109291 -0.00234096 0.00199253 0.00282956 -0.00168236 0.00125413 -0.00276592 0.000697771 0.00101619 -0.00277679 -0.00296417 -0.00214521 0.00217443 -0.00133929 0.000204047 0.000133328 0.000405796 -0.000993817 -0.000519501 -0.000513911 0.00291628 -0.00265356 -0.000620743 0.00174792 0.000565113 -0.00113844 0.00241082 -0.00243282 -0.00108584 0.00232177 0.00094459 0.0011071 -0.000156308 -0.00215254 0.00270555 0.00230118 -0.000356555 0.00200974 -0.00104914 -0.000782458 0.00176904 -0.00240415 0.00271069 -0.00297965 -0.00122762 -0.00270044 -0.000343558 0.00173908 0.00248309 0.000199526 0.00182446 0.000384911 0.00150526 -0.00294462 -0.000139291 -0.00149802 -0.00115249 0.00280169 -0.00174717 0.000122858 -0.00164672 0.000403026 0.00298898 -0.00220881 0.00272806 -0.00225673 -0.00188257 0.000879016 -0.00223099 -0.00251208 0.000955362 -0.00283561 0.00291108 0.000235986 -0.000756991 0.00124041 0.00268447 -0.000706336 0.00116772 0.000612428 0.00165097 0.000550521 -0.000742921 0.00212116 -0.00164559 0.00178175 0.00298129 -0.00130434 0.00126464 0.000987852 -0.000510987 3.79598e-06 0.00269474 0.00271919 0.00139754 -0.000678945 -0.0027595 0.000497602 0.000395202 -0.000868904 0.0022812 0.000747181 0.000744093 -0.00122555 -0.00254652 -0.00123815 -0.00159156 -0.00610452 -0.00289463 0.0453553 -0.0071212 -0.00233985 -0.0102377 -0.156799 -0.00341017 -0.000517613 -0.000704528 -0.00501688 0.0639617 -0.00487824 -0.0195742 -0.0890441 -0.00476608 0.107782 0.00289798 -0.00685078 0.0771628 -0.00551583 0.102263 -0.00250608 -0.228987 -0.018243 0.100626 0.031926 -0.00272043 -0.00675797 -0.00487888 -0.005005 -0.00602478 -0.00281667 -0.00194705 -0.00210274 0.0277123 -0.00577052 -0.00142424 0.0868061 0.000560295 -0.0349993 0.0123247 -0.00638078 0.0939396 -0.0154302 -0.0076892 -0.0290844 -0.0045125 0.0832168 -0.0137128 -0.000475312 -0.000807944 -0.00145179 -0.891527 -0.00156085 -0.0105912 -0.0732516 -0.199465 -0.0336951 -0.125659 0.109166 -0.0118378 -0.00535695 -0.0084951 -0.218235 -0.00556434 0.032374 0.166746 -0.0115132 0.0834075 -0.00633777 0.0780459 0.0617396 -0.00386879 -0.00170486 -0.00169463 -0.0651859 -0.00326231 -0.000635443 -0.00564678 -0.00570102 -0.0157018 0.0668715 -0.000685629 -0.00124769 -0.000954573 -0.00179431 -0.307262 -0.0107272 -0.00234901 -0.002187 -0.00233413 -0.00237617 -0.00258255 -0.00230498 -0.00562281 0.000994128 -0.00756062 -0.00595213 0.100982 -0.00601024 0.0849935 -0.0128034 -0.0182507 0.0880971 -0.00725975 -0.0044493 -0.120737 0.0911377 0.11094 0.000314718 -0.209495 -0.224759 -0.00154044 -0.00273238 0.0899523 0.0379222 0.193763 -0.000506357 0.0836175 -0.015562 -0.451382 -0.000395752 0.0146855 0.11273 0.0126165 0.0711316 -0.00270107 0.00107886 0.00208556 0.00151559 -0.00223463 -0.00212432 -0.00159999 -0.00144278 -0.00168245 -0.00158966 -0.00134723 0.00270964 -0.000368701 -0.0005121 -0.00126342 -0.000605139 0.00154387 -0.000218757 -0.0022506 0.000703095 -0.00136751 -0.000714194 -0.00296997 0.00193374 -0.000252623 -0.00253431 0.00191027 -0.00198176 0.000581876 0.000971148 -0.00155223 0.00275992 0.000314134 0.000247799 0.00221381 0.000342285 -0.00334008 -0.000293845 0.00184791 0.000929643 0.000433826 -0.00294609 0.000805466 -0.00030344 0.0009577 0.00151925 0.00182843 -0.00234166 0.0016789 0.000404103 -0.0025433 -0.00149027 -0.00219927 0.000386843 0.000245888 -0.00232106 0.00293059 -0.00101473 -0.0009456 -0.00100496 -0.00274777 -0.000500264 -0.00146387 -0.00054774 0.00208007 0.00302622 -0.00227254 0.000300502 -0.000842087 0.00131584 -0.000317877 -0.00143494 -4.15242e-05 0.00212096 0.00123273 -0.00212834 -0.00205628 -0.00118682 0.00217363 0.00170108 0.000805187 -0.0023831 -0.00252419 0.00280314 -0.000477428 -7.40185e-05 -0.000238047 9.40636e-05 -0.00136803 -0.00161052 0.0023972 0.00245218 0.000621857 -0.000808581 0.000376926 0.00101092 0.00236738 -0.00247599 0.000715227 -0.0004293 0.000177006 0.000708484 -0.00201323 -0.0016302 -0.00294013 -0.003432 -0.00106409 0.001689 -0.00101721 0.000717412 0.00326071 0.000888034 0.000238655 -0.0014026 0.00143899 0.00233395 0.00215885 -4.75517e-05 0.000928513 0.00255824 -0.000400902 -0.00126144 0.000791294 -0.00122747 0.000732173 -0.00271479 0.00234463 -0.00115537 0.000644184 -0.00609447 -0.00368125 -0.121665 -0.00766979 0.0001717 -0.00868245 1.21374 -0.00406618 -0.00409329 -0.00213494 -0.00192045 0.703861 -0.000386053 0.580948 -0.146769 -0.00476335 0.636959 0.0170999 -0.0087485 -1.29301 0.696135 0.270599 -0.00461765 0.228851 -0.0146335 0.556443 1.04201 -0.00561734 -0.00749594 -0.00321138 -0.00427606 0.543512 0.000587642 -0.00396849 4.63146e-06 0.191424 -0.00562784 -0.00506778 0.488693 -0.0127358 -0.0395467 -0.22893 -0.00477844 0.421317 -0.00463973 -0.00667724 1.07728 -0.00510087 0.181891 -0.0141547 -0.00228928 -0.00267061 -0.00216079 -0.652123 -0.16384 0.000493733 -0.534931 0.828203 0.0420993 0.620362 -0.114102 -0.00752538 -0.00419546 -0.00975069 0.945377 -0.0021441 -0.829386 -0.0107924 -0.0232806 0.168779 -0.0119999 0.213892 0.230109 -0.00591931 -0.00583103 -0.00449221 0.124769 -0.0013075 -0.00223113 -0.00638679 -0.017466 -0.0134324 -0.270027 -0.000599822 0.000106341 -0.00208658 -0.0016118 -0.142153 -0.0121827 -0.0119298 -0.0057184 -0.00212605 4.36001e-05 -0.00627505 -0.00325341 -0.00517654 -0.0039474 -0.00227202 -0.0269594 0.183608 -0.00100383 -0.0257308 0.338934 -0.0180331 0.87796 -0.00700509 -0.00243458 0.0417373 0.66102 -1.24142 0.00286168 0.534442 0.871118 -0.00580652 -0.00113105 -0.284033 0.310488 -0.0314131 -0.000931195 0.371353 -0.015126 -1.54363 -0.000984112 0.474972 -0.539825 -0.658906 0.52983 -0.00682935 0.000802925 0.00179825 -0.00174887 0.00237793 0.00147426 0.000218315 0.00279483 0.000389686 -0.00169386 0.00214658 0.002172 -0.00114376 -0.00103752 0.00200813 -4.47305e-05 -0.00268859 0.00164471 -0.000439966 -0.00132023 -0.00103322 -0.000798327 0.00173803 -0.00276807 0.00136002 0.00223611 -0.00131661 0.000909694 -0.00160882 0.000731724 -0.00254947 0.00280054 0.00062916 -0.000697709 -0.00281658 0.00214539 0.000589108 0.00208705 2.76975e-05 -0.00298478 0.00251444 -0.000535771 0.00136303 -0.00209337 0.0018914 0.00245761 0.00166766 0.00151909 -0.000568815 0.00117871 0.000392766 0.000508418 -0.000930513 0.0012254 -0.00203482 -0.00299063 0.000372005 0.000255933 0.000283276 0.00116753 0.00256496 0.00263011 0.00241958 0.000624638 0.00255687 -0.00231911 -0.000955191 -0.00280773 0.000230219 0.00142337 -0.00194556 -0.00044252 -0.00241099 -0.00120748 0.0016806 0.000221507 0.00161431 0.00083342 0.00235889 -0.0026354 -0.00194537 -0.000501994 0.00143875 0.00233264 -0.00284488 -0.00217462 -0.000455475 0.0015874 0.000146623 0.00152689 -0.00198121 0.00103636 0.000711781 -0.00295892 0.00144123 0.00295041 -0.00223091 -0.000836503 -0.00185329 0.00128639 -0.00196796 0.00292091 -0.00293132 -0.0027833 0.00182598 0.00212716 0.000397515 0.00152448 0.000116713 0.000482242 -0.00188574 2.06488e-05 -0.00269451 -0.00268636 -0.000988816 0.000785428 0.00235187 0.00100911 0.0011116 0.00117432 0.00175928 0.000963631 0.00011962 -0.00100958 0.00260504 -0.00152114 3.65583e-05 0.00141818 -0.00147499 0.0022112 0.000293098 0.00255475 -0.000837056 0.00261195 0.00256632 0.000487422 -0.00236318 -0.000798744 -0.00134493 -0.00140341 -0.001668 -0.00288576 0.00226851 -0.000130748 0.000470526 -0.00105404 0.0029641 0.00290336 0.00275277 0.00101563 0.00130333 -0.000984039 0.000136637 -0.00135987 0.00126673 0.00154792 -0.00245926 -0.00167052 -0.00166924 0.000744596 0.00124767 0.00200619 -0.00288663 -0.00178729 -0.000245579 -0.000746118 -0.000957638 -0.00263566 0.00156802 -0.000584027 0.00100358 0.000306454 -0.00269126 -0.00115502 0.00279267 0.00262112 -0.00073184 0.000706021 0.0003752 0.00198336 0.00274619 -0.00254697 0.00232815 0.000404867 -0.00183387 -0.00168776 0.00115307 0.000570828 0.000517776 0.00273167 0.000490461 -0.0024012 -0.00202563 -0.00241005 -0.00212252 0.000995446 0.000839119 -0.000765387 -0.00201015 -0.000662887 0.00179986 -0.000610371 0.00159133 -0.00117862 0.000840035 0.00232814 -0.00174214 -2.00515e-05 -0.00232207 -0.0022392 -0.00261599 -0.00248567 0.000761725 -0.000531996 0.000831538 0.00213934 0.00158145 0.00285696 0.00168922 0.0026135 0.00143491 -0.00147828 0.00131858 0.00116108 0.00163991 0.0014833 -0.00101394 6.25856e-05 0.0015924 0.000499325 0.00275407 -0.00191581 0.00244341 0.00140985 -0.00128295 0.000852507 -0.000105923 -0.00222336 0.000309165 0.00281706 -0.000347157 0.000462762 -0.00233418 -0.00180089 -0.00202222 -0.00283504 -0.00136365 -0.00157133 -0.000848732 -0.00219394 0.00299157 8.11249e-05 -0.000672922 -0.00150088 -0.000846541 -0.00059738 0.0025578 -0.00358714 -0.00260864 -8.11525 -0.00279176 -0.000612588 -0.00621191 2.62995 -0.0010712 0.000188437 -0.00338634 -0.0018277 3.19784 -0.00587927 1.57197 0.63414 -0.00461301 3.1158 -0.0341728 -0.00648187 0.671409 -0.810064 3.43688 -0.00317919 0.431991 -0.0128604 3.25361 2.64312 -0.000560011 -0.00766186 -0.0023674 -0.00202808 2.12537 -0.00200522 0.000473979 -0.00183099 -1.26917 -0.00410689 -0.00375065 2.53328 -0.0023959 -0.0275861 2.50755 -0.00345475 -2.70623 -0.00878747 -0.00584482 3.62097 -0.00274746 2.10274 -0.0110426 -0.000235469 0.00116161 0.000433688 -4.50304 -0.361283 -0.00794916 -0.171239 3.53657 0.0283552 2.50039 1.6236 -0.00773041 -0.00494157 -0.00566965 0.190279 -0.0108649 -6.39872 -1.51277 -0.0207351 2.63496 -0.012359 3.45741 1.89438 -0.00607478 -0.00332541 -0.00431891 -0.581201 5.51004e-05 -0.00563709 -0.00861626 -0.0608476 0.000327404 2.20461 -0.00127149 -0.000740331 -0.00210502 -0.00443668 -1.01309 -0.000777634 -0.0118411 -0.00269943 -0.0142389 -0.000237715 -0.00589942 -0.0061697 -0.00773078 -0.000804367 -0.00209167 -0.0208477 2.10162 -0.00198811 2.84789 3.21362 0.00362644 3.33868 -0.00303079 -0.00126696 -1.97171 2.11894 1.26951 -0.00422151 1.85764 0.900235 -0.00537011 -0.00262245 -6.50201 0.247184 0.400498 -0.00566303 2.59665 -0.0141408 -2.33028 -0.0167674 3.07063 -1.51491 -0.79806 1.88693 -0.00488058 -0.00215919 -0.00319145 -0.00107089 -0.00501211 0.00284898 0.00200256 0.00161183 -0.00221361 -0.00117746 -0.00246469 0.000129155 0.00488402 -0.00119742 0.00553584 -0.00393187 -0.00066157 0.000665403 -0.000997774 0.000322073 0.00308298 -0.00456734 0.000622159 -0.00343095 0.0019883 -0.00188999 0.00283012 0.000667714 -0.000730576 0.00159987 -0.00250143 -0.000662584 0.00282636 0.00232142 0.00243029 -9.66643e-06 0.00295143 -0.000309727 0.000471591 0.00396707 0.000968368 -0.000182057 -0.00404733 0.000615538 -0.00189445 -0.00181494 0.00217195 -0.00469527 0.000873481 -0.000376091 0.000675631 0.00142489 -0.00118032 -0.00274219 0.00201304 -0.00367783 0.000968036 0.00526508 0.00149183 0.000260537 0.00200612 0.00463669 0.000939676 0.000262038 -0.00353807 0.00470408 0.000572007 0.00447267 0.00292605 0.00172952 -0.000428333 -8.63229e-05 0.00224254 0.00111318 -0.00470126 -0.00297334 -0.00281275 -0.000957623 -0.00141446 -0.00187623 0.00176319 -0.00143302 0.000904555 0.00121854 -0.000135579 0.00261852 -0.00155338 -0.00174532 -0.00136517 0.0016549 -0.00101153 0.000618448 -0.00189591 -0.00247525 -0.00391993 -0.00161473 0.00245512 0.00262131 -0.00570345 0.000561882 6.33903e-05 -0.00325634 0.00215341 0.00474944 0.000750178 0.00136491 0.00242815 -0.00132846 -0.00256372 0.00238292 0.00205239 -0.000973614 0.000713132 0.000438363 -0.000747015 -0.00187571 0.00186316 0.0038857 0.00104804 -0.000223812 0.00192577 0.000292348 -0.00290675 -0.00243188 8.85497e-05 0.0027149 -0.000744597 0.00552289 0.00284048 -0.00477485 -0.00463366 -0.0337526 -0.00538564 0.000435874 -0.00324157 -0.280341 -0.00410554 -0.00143397 -0.00101868 -0.00180688 0.192248 -0.0053885 -0.278895 0.137282 -0.00190006 -0.0546805 -0.0131278 -0.00778348 -0.0112675 -0.891578 -0.337484 -0.00578181 -0.219577 -0.0150536 0.564905 0.190149 -0.00124433 -0.00799817 -0.000505013 -0.00196857 -0.0806077 -0.00139881 -0.0136312 -0.00320094 -1.45644 -0.0002911 -0.00184833 0.466127 -0.0158121 -0.0273982 -0.253112 -0.00314305 -0.0754341 -0.0133568 -0.00633954 -0.071367 -0.00754893 -0.207371 -0.00268083 0.0022371 -0.000615708 -0.000735357 -1.48965 -0.658553 0.00272315 -1.36251 0.264195 -0.00336359 0.0486396 0.07698 -0.0113393 -0.00275467 -0.00511906 0.633738 -0.000431423 -0.793717 0.55238 -0.0275687 0.239139 -0.0113766 -0.365623 0.110414 -0.00423068 -0.000735809 -0.00507078 -0.261561 -0.00431975 -0.00292045 -0.0076733 -0.0409312 -0.0130417 -0.286467 -0.000996455 -0.00989692 -0.000478235 0.000458999 -0.766043 0.00069509 -0.00295768 -0.000891004 -0.00280754 -0.00234692 -0.00507676 -0.00441541 -0.0061096 -0.00126929 -0.00513548 -0.00742929 -0.0162955 -0.00412568 -1.14656 -0.302797 -0.0368975 -0.0732341 -0.00440647 -0.00528053 0.65438 0.0575784 -0.156248 -0.0757186 0.120098 -0.406022 -0.000476301 -0.00295417 0.234179 -1.40077 0.735953 -0.0035154 0.404897 -0.000425509 -0.294961 -0.000761534 0.0784237 -0.528115 -1.31976 0.253373 -0.00254913 -0.0078413 -0.00570557 -0.640725 -0.00672049 -0.0032529 -0.00792939 -0.46355 -0.00239788 -0.0034851 -0.00265051 -0.000897698 -0.335464 -0.00555338 -0.637892 -0.164716 -0.00579157 -0.908754 -0.173217 -0.00496389 0.354708 0.578453 -1.56296 -0.000918939 -0.377253 -0.0172636 -1.60059 0.277429 -0.00250189 -0.00632128 -0.00447329 -0.00157242 -0.37805 0.00264304 -0.00415055 -0.00345165 -1.40094 -0.00295004 -0.00249508 -0.599931 0.00161344 0.0165213 -1.3364 -0.00118673 0.183163 -0.0128207 -0.00536272 -1.15056 -0.00692169 0.438109 -0.0109412 0.00138735 -0.000508305 -0.00537762 0.779739 -2.45646 -0.0050971 -0.152319 -0.103202 -0.045645 -0.798721 -0.103558 -0.00765091 -0.00376832 -0.00713973 -0.0848856 0.00138595 1.6605 -0.499015 -0.0131782 -0.273542 -0.0175896 -0.575628 -0.066714 -0.00512197 -0.00641945 -0.00574607 0.112718 -0.00128954 -0.00455389 -0.00798583 -0.010254 -0.0151697 -0.914057 0.000708479 -0.00149569 -0.00171511 0.000278183 -0.462218 -0.0107146 -0.0105748 -0.0035254 -0.00375718 -0.0017665 -0.00131401 -0.00312014 -0.00686158 -0.00308804 -0.00243235 -0.0104287 -0.519417 -0.00221301 -0.568624 -0.461791 -0.0185115 -0.90191 -0.00612813 -0.00671282 -0.349544 -0.387078 -0.904233 -0.0289218 -0.68397 0.0419704 -0.00589303 -0.00046171 0.686169 -0.943906 -0.0240423 -0.00427563 -0.296874 -0.0168063 0.366639 -0.0147889 0.444063 -0.159672 -2.87307 -0.322233 -0.00393102 0.00096975 -0.00104229 -0.00286261 0.000425862 -0.00278199 -0.00141154 0.00735509 -0.00029782 -0.00121627 0.000767617 -0.0011118 0.0083842 -0.00252947 0.00794461 0.00133663 -0.00479692 0.0131475 -0.000421938 -0.00252166 0.0114634 0.00199059 0.00926276 0.00168027 0.0103082 0.000545654 0.00983338 0.00866489 -0.000423083 -0.000461846 -0.00168169 -1.9412e-05 0.00676454 0.000388899 -0.00270514 -0.000160095 0.0125593 -0.000969439 0.00268084 0.0138601 0.00293173 -0.00205369 0.00805808 -0.00151092 -0.000922259 -0.00159997 0.00153535 0.00938313 -0.000309341 0.00938611 -0.000925233 0.00241773 -0.00292379 -0.00220666 0.00435394 0.00204884 -0.0017204 0.0124646 0.0095989 -0.000747599 0.00290918 0.00813398 0.00156575 0.00047617 0.00115746 0.0076545 -0.0016773 0.00821252 0.00197837 -0.000558887 0.0130587 -0.000170382 -0.0217228 0.0111449 -0.00162283 0.00111798 -0.00107614 -0.0282854 0.00298886 -0.0013774 0.00259122 0.00117876 -0.00242844 0.00920639 0.00260795 -0.000121295 0.00229517 0.00167578 -0.0028903 0.00162457 0.00111479 -0.000891408 0.000483058 0.000756629 -0.00233154 -0.0049828 -0.00278178 -0.00033273 -0.00103447 -0.00127623 0.0109778 -0.00193553 0.0143341 0.0132581 0.000548779 0.00663702 0.00241804 0.00111366 -0.00254688 0.0147393 0.00994929 0.00185532 -0.000231296 0.00770715 -0.00138312 0.00060233 -0.0019481 0.0109653 -0.00207119 -0.000326396 0.0169268 -0.000228599 0.00200466 0.00297703 -0.0466815 0.00145501 0.0106624 0.00725139 -0.00186838 -0.00470025 -0.00422839 -0.446887 -0.00425613 -0.00844221 -0.0116778 -0.695888 -0.00645578 -0.00241195 -0.00046216 -0.00480631 0.000697891 -0.00334929 -1.43268 0.493205 -0.0023062 0.192083 -0.103591 -0.00374037 -0.0800463 0.159699 -0.226264 -0.00462829 0.583974 -0.0143191 0.14633 -0.00210048 -0.00321464 -0.00817509 -0.000992156 -0.00206184 -1.13508 -0.00140213 -0.00348464 -0.00210041 -1.51038 -0.00301504 -0.00132061 0.347075 -0.0137823 -0.0113593 -0.706105 -0.000869586 -0.266257 -0.0121057 -0.00812767 0.423125 -0.00783092 0.401222 -0.0131855 -0.000716193 -0.00355584 -0.00187147 0.539405 -0.170616 -0.00458355 -1.1906 0.596815 -0.0333701 0.166406 0.654823 -0.00797408 -0.0023891 -0.0107664 -0.198572 -0.00143218 0.36018 -0.309586 -0.0135926 0.10827 -0.0138735 0.109695 0.249432 -0.00385179 -0.00604855 -0.00443004 -0.0671706 -0.000223279 -0.00130829 -0.00440192 -0.0368766 -0.0160754 -0.364984 -0.00266767 0.00191665 -0.00177664 -0.00296356 0.39887 -0.00799557 -0.00216807 -0.00360773 -0.00201801 0.00104895 -0.00334645 -0.00355967 -0.00257481 0.000454279 -0.0080755 0.00140642 -0.0265653 -0.00268408 -0.271886 -0.365831 -0.0192782 0.296799 -0.00277466 -0.00600046 -0.105178 -0.160816 -0.276621 -0.00328207 0.14996 -0.56351 -0.000945586 -0.00495379 0.0894139 -0.541724 -0.542575 -0.0058126 -0.272063 -0.0176974 -0.123954 -0.00160796 -0.0341442 -0.009724 -0.00288031 -0.275557 -0.00430903 -0.00256472 -0.00155064 0.00234438 -0.000160245 -0.00298162 -0.000210352 0.00192496 0.00228739 -0.00119355 -0.00158397 0.00198947 -0.000385463 0.000150036 -0.00199372 -0.00195076 0.00244083 0.00301304 -0.000659511 0.00196086 0.00266371 0.00238063 0.00196686 0.00110111 -0.00196922 -0.00157469 -0.000463298 -0.00297854 -0.0013402 0.00288096 -0.00104051 0.00043051 0.000553537 0.00240923 -0.000623761 0.0011566 -0.00184221 -0.00263275 0.000734315 0.00108344 -0.00121929 0.000429371 -0.00115337 0.00185699 -0.000807015 0.00119274 0.000800556 0.00283646 -0.00179522 0.000589066 -0.00249778 0.000266488 0.00207689 -0.00275581 -0.00102384 0.00130737 0.00216187 6.23356e-06 0.00292361 -0.000414034 -0.00139593 -0.000267795 -0.00203493 -0.00204661 -0.00142802 0.00155587 0.000655044 0.00275934 0.00163992 0.000437187 -0.000319972 -0.00127766 0.00151432 -0.00244181 -0.00230268 0.00145173 -0.000872448 0.000496384 -0.00120687 0.00140001 -0.000837083 0.00128577 0.00297194 -0.00245583 -0.000190765 -0.00243718 0.00135102 0.00247227 -0.00248151 0.000119705 0.000315786 0.00111089 -0.00120207 0.000611266 -0.00181096 0.000940545 0.00119014 -0.000241918 -0.00196696 -0.000469285 0.000507472 -0.00100488 0.00197198 -0.00219267 -0.00149292 0.00250496 0.000931249 0.00159277 0.00195583 -0.00270944 -0.000504142 0.00135293 -0.00216574 0.000738647 -0.001519 0.00203983 0.00202002 -0.00035696 -0.000631448 0.00280165 -0.00295093 -0.000609368 -7.33663e-05 0.000708821 -0.00257994 -0.00214387 0.000876319 -0.00167305 -0.00228521 -0.00579814 -0.00504306 -0.00299564 -0.000834929 0.00159756 -0.00219029 0.000197398 -0.00201679 -0.000106758 -2.74924e-05 -0.0011191 0.0019787 -0.000514793 0.00268932 -0.00156942 -0.00188848 0.000442422 -0.00175782 0.000353494 0.00391603 -0.000286735 0.000270093 -0.00503363 -7.66724e-05 -0.00104599 0.000510388 0.00488606 -0.00359318 0.000931886 -0.00258492 -0.00298127 0.00391685 -0.00109742 -0.0014044 -0.000237311 0.00368378 -0.001156 0.000366985 -0.000260095 0.00176124 -0.00136147 -0.00131955 0.00113133 0.000623415 -0.000678299 -0.00260679 -0.000242133 0.000966263 -0.00587215 -0.00244647 -0.00155413 0.00241542 -0.00169591 -0.000122863 -0.000589045 -0.00183731 0.00270125 0.00369586 -0.00239493 0.000995263 0.00161808 -0.000456797 0.00179594 -0.000437649 0.00276028 -0.00116218 0.00258115 -0.00115884 -0.00134992 -0.00538079 -0.00200072 -3.63158e-05 -6.45637e-05 -0.000499928 -0.00517284 -0.00203712 -0.00175065 0.00104937 -0.0038429 -0.00245725 -0.00587317 -0.000763326 0.00468417 -0.000316284 -0.00240225 0.00183499 0.00095673 -0.000285815 0.000200174 0.000159988 0.000778086 0.000879386 -0.00184902 -0.00118296 -0.00182057 -0.000532238 -0.00158584 -0.00441135 -0.00294799 0.00552994 -0.00288824 0.00208624 0.00304002 -0.000979127 0.00197081 0.00292973 -0.00321844 -0.00158312 -0.00253538 0.00476142 -0.00136474 -0.00129651 0.0043327 -0.00189218 0.00200222 -0.00198201 0.00549869 0.00133529 -0.00515776 -0.000372813 0.00259016 0.000385108 -0.00060706 -0.000350385 0.00121008 -0.00456548 0.000197244 0.00268779 -4.31241e-06 -0.00128928 -4.80707e-05 -0.0030435 -0.0022321 -0.000213796 0.00431886 -0.00193692 0.00224388 0.0015495 0.000703051 0.00163042 -0.00392138 0.00497152 -0.0036682 -0.00251792 0.00512221 -0.000387756 -0.00196751 -3.84542e-05 -0.00194045 0.002196 -0.00369476 -0.000351945 9.6743e-05 0.00175019 0.00284499 -0.00594183 -0.00197138 -0.00414925 0.00146679 0.0034532 0.00120724 0.00182799 0.00211191 0.000640493 -0.00199106 0.00151771 0.00397753 0.000630711 -0.0027704 -0.00462439 -0.00101591 0.000857 -0.00169558 -0.00253854 4.99176e-05 -0.00175945 0.00276165 0.000662226 -0.00151213 0.000107748 0.00127699 -0.00144079 -0.00528421 0.000298017 0.00128259 0.00182909 -8.31749e-05 -0.00114486 0.00564633 -0.000536629 -0.002938 -0.00410158 0.000862768 0.0029645 0.00263739 0.00027131 -0.00142601 -0.000568641 -0.00238163 0.00194138 0.00223064 -0.000461185 -0.00281701 0.00222501 -0.00386359 -0.000599086 -0.00239841 0.00246911 -0.00505381 -0.002747 0.00234538 0.000574246 0.00251808 -0.00123735 0.000270236 0.00169009 -0.0010356 -0.00242842 -0.000349904 -0.00282554 0.00105234 -0.00526677 -0.00180216 0.000180969 0.000764141 -0.00373105 0.000638722 0.00502032 -0.00173602 0.00198624 0.00334099 -0.00150136 0.00431632 -0.000940025 -0.00551121 -0.00417192 -0.00123725 9.44159e-05 -0.00194331 0.00216551 0.00391274 0.00213923 -0.00137436 0.00237569 0.00110926 0.00278501 -0.00342972 -0.00162261 0.00191022 -0.000837339 9.14466e-06 0.00148604 0.0019911 -0.00357955 0.000555573 -0.00140765 0.00175167 0.00262116 0.000409551 0.00262813 0.00058349 0.00292771 0.00157506 -0.0018863 9.68691e-05 0.000840913 0.00221371 0.000572315 0.00299802 -0.00223396 -0.00123978 -0.000138724 -0.00226527 -0.00163126 -0.00191357 0.000999821 -0.00104529 0.00170621 0.000276083 -0.00156101 0.00112057 -0.0027341 0.000434643 0.00296257 -0.000822186 0.000352324 0.00256368 -0.00144562 0.00199485 -0.00194924 0.00228123 -0.00133521 0.00209686 0.00183722 -0.00189511 0.00287135 -0.00147763 0.00165716 0.00186471 -1.22823e-05 0.00249434 -0.0023941 -0.00220999 0.0021499 -0.00291751 0.00136997 0.00189995 -0.00230268 -6.86618e-05 -0.00091531 0.00164335 -0.00128828 0.00192576 -0.00194191 0.00218186 0.00255633 -0.00187823 -0.00269789 0.000290697 -0.00294289 0.00197071 0.00245127 0.00121166 -0.00154002 0.00053539 0.00258574 0.00237301 0.000637357 0.00173692 0.002017 0.000360847 -0.00299583 -0.00149235 -0.000408308 -0.000416083 0.0022514 -0.00259415 -0.000960559 -0.00197756 -0.00152379 0.00136692 -0.00127077 -0.00157595 -0.00216205 -0.00167562 0.00190528 -0.000730626 0.000993092 0.00261488 -0.000441113 0.00063096 0.00281751 -0.000812094 0.000986686 -0.00111147 0.00228533 -0.00122673 -0.00128358 0.00240705 -4.26925e-05 -0.00175954 -0.00284508 -0.00197875 -0.00118596 0.0027362 0.00165975 0.00103954 0.00204433 -0.000470712 0.00122242 -0.000114399 0.00192346 -0.000389572 0.00215984 -0.00294662 0.00293002 -0.00134879 -0.0027989 -0.0020874 -0.000122423 0.00233305 -0.00133314 0.00166647 -0.00197764 -0.00158154 -0.00448007 -0.00548721 -0.000837394 0.00111931 0.00274866 0.00577342 -0.00275914 0.00243588 -0.000140108 0.00233803 0.000121379 -0.00516203 0.00438045 -0.00363142 -0.000638229 0.00353808 -0.00285669 -0.000673974 0.00024739 -0.00169951 0.00308751 -0.0054934 -0.00169786 -0.000418723 0.00388147 0.00127302 -0.00549014 -0.00019397 -0.00159642 0.000683903 0.00535582 -0.00148332 -0.00167943 -0.00158517 0.00477352 -0.00171661 0.00227103 0.00392799 0.000966481 -0.000362535 -0.00245128 0.00294187 0.00274389 -0.00097909 -0.00206727 -0.00328476 0.000326862 -0.00322851 0.00220024 0.00236649 -1.68576e-05 -0.00174428 0.00190876 -0.00176425 -0.000235517 0.00099044 0.00472448 -0.000585737 -0.00214491 0.00558892 -0.00299843 -0.00036717 -0.00589791 0.00134825 0.00124191 0.00408296 -0.00115029 -0.00104056 -0.00534386 -0.0027504 0.00185223 0.00158074 -0.00284806 -0.000271006 0.00101387 -0.00248539 0.000896233 -0.00199104 -0.00161912 -0.0010152 1.67103e-05 0.00253963 0.0012542 0.000331584 -0.00146998 -0.0025488 0.000534614 0.00104545 0.00052808 0.000202213 -0.000164302 -0.00105713 -0.00334704 0.00158939 0.00297878 -0.00140989 -0.00120902 -0.00219234 0.000129582 -0.0032142 0.00280975 0.00130491 -0.00213143 0.00399077 -0.000875577 -0.00291646 -0.00181461 0.00048418 0.002983 0.0016584 0.00111122 0.0018915 0.00199286 0.000964929 0.000522409 -9.09551e-05 0.0020217 -0.00522723 0.00204151 -0.00097502 -0.000423386 0.00176267 -0.00210642 0.000648611 -0.000370061 0.00379091 -0.00271338 0.00119008 -0.00145734 0.00114541 -0.000820921 0.000251306 -0.00166715 0.00221598 -0.000758753 -0.0025271 -0.00281442 0.000761405 0.00234275 -0.00108039 0.00122545 -0.00126643 -0.00225388 -0.000141284 -0.000674929 0.00287166 -0.00147693 0.000554055 0.000153626 0.000695136 0.000365486 -0.00132084 -0.00232898 0.00113067 -0.00276181 0.00180973 -0.000561499 0.00198007 0.00256833 -0.000465102 -0.00267657 0.00172222 0.000554029 5.29164e-05 0.000406117 -0.00135984 0.00148282 -0.000980035 0.00210327 -0.000998064 0.00177609 0.0018287 -0.00269857 -0.000780854 0.00279115 -0.000751686 -0.00101686 0.000818234 0.00214815 0.0017297 0.000230459 0.00145002 0.00143832 -0.000583979 0.00186173 -3.27909e-05 0.00268895 0.00153495 -0.00220173 -0.00157338 -0.00223366 -2.21126e-05 -0.00265982 -0.000421431 0.00289613 0.00109333 0.00202928 -2.27366e-05 -0.00127403 -0.00211372 0.00276731 0.00153757 0.00270212 0.0010276 -0.00188367 -0.00126095 -0.00265075 -0.0027356 -0.00132265 -0.00220478 0.0010626 0.00241451 -0.000888076 -0.00239905 0.00175801 -0.000189405 0.00112405 0.00109847 -0.000471385 0.000956055 0.000800563 0.000150876 -0.00185231 7.14362e-05 0.00148998 -0.000481038 0.00119841 0.00111881 0.00252189 -0.00137178 -0.000946195 -0.000922432 -0.00284294 0.000801279 0.000391506 -0.00100971 -0.000700043 -0.000226798 -0.00111337 -0.00191514 -0.00230438 -0.0021962 0.00267914 -0.000267593 0.00148928 -0.00113439 -0.00303321 0.00069373 -0.00085456 0.000892974 0.00207586 -0.00239188 0.000365639 0.000231452 0.000130822 -0.000272401 0.00280021 -0.00190616 0.000356353 0.000758847 -0.00281922 0.000853638 0.00202897 -0.000629184 -0.000375947 -0.0024907 0.000488265 0.00223009 -0.00175856 -0.00243234 -0.00187229 0.00100702 0.00139453 0.000786063 -0.000190763 -0.00111383 0.0008488 0.000372162 0.00098236 -0.00225074 0.00104416 0.00108187 0.00258072 0.00197292 -0.0019314 0.00269544 -0.00180226 -0.00169392 -0.00294887 -0.00119624 -0.00135318 0.000518691 -0.000620683 -0.00188158 -0.000643102 -0.00207244 0.00199383 -0.00210149 0.00107728 0.00150054 -0.00291066 -0.00214652 -0.00281607 0.00185217 -0.00271712 0.000997089 -0.000263806 0.00181798 -0.000849367 -0.002848 -0.00168847 0.00126549 0.000293525 0.00221816 0.00143301 -0.00238062 0.0028286 0.00143228 -0.00291685 0.00107473 -8.69837e-05 -0.00279169 -0.00231336 -0.00254025 0.000646948 -0.0015992 -0.00214793 0.000181039 0.00258181 0.000701417 0.00113935 -0.00159344 -0.00175894 -0.0027758 0.00098019 4.35272e-05 -8.51974e-05 0.00217017 0.00279309 0.00155813 -0.00151992 0.0010576 0.00155583 0.000517139 0.00193464 0.00256101 0.000825401 -0.00288637 -0.00189396 -0.00283956 0.00260999 -9.31958e-05 0.00176871 -0.000258988 -3.47444e-05 -0.000445716 0.00235063 0.00224571 0.000798902 -0.00124632 -0.00124993 -0.001527 0.00122609 0.00164767 0.00193592 0.00183714 -0.00147737 0.001803 0.000778252 -0.00161099 -0.00071354 -0.00028079 3.35742e-06 0.000243429 -0.000929129 -0.00125142 0.00122117 0.00260447 0.000565049 0.000558545 0.00143239 -0.000764141 -0.000280378 -0.00291681 -0.000381186 -0.00327267 -0.00213218 -0.000243817 0.000322647 7.17801e-05 -0.00115479 0.00102907 -0.00179803 -0.00291248 0.00455349 -0.00251465 0.0038679 -0.00216754 0.00140598 0.00523178 0.000995454 -0.00227595 0.00419756 -0.00312936 0.00381549 -0.0020414 0.00107025 -0.00264703 0.00127665 0.000973684 -0.000399526 9.1386e-05 -0.00192013 0.0010068 0.000445238 -0.00164956 -0.00129486 0.00248258 0.00128766 -0.00442223 0.00105774 0.00358917 0.00122206 0.00202262 -0.00137214 -0.00288339 0.000502479 0.00252526 -0.00244993 -0.00245007 0.00258482 -0.00182691 0.000151918 -0.00223957 0.00149236 -0.00111199 -0.00187696 -7.92329e-05 0.00127696 0.00491262 0.00404101 -0.00176095 0.000185255 0.00109082 -4.19058e-05 0.000357239 -0.000978832 0.0011282 0.000166477 0.00476269 -0.000869373 0.00028653 -0.00151615 -0.00178493 0.000862542 -0.00041485 -0.00289682 -0.00255923 -0.00295778 -0.00061747 0.00199916 -0.00132963 0.00172881 -0.00356655 -0.00208613 0.0020343 0.000870588 0.00259162 -0.00244007 0.00143267 -0.0026684 0.00154295 -0.000219064 -0.00272997 0.00205218 -0.00201173 -0.0052252 -0.00137063 -0.00111368 0.000636538 -0.00189702 0.00292585 0.00588256 -0.00138319 0.00118417 0.00560859 -0.000533506 0.00123587 0.00077478 -0.00588632 -0.0057185 -0.00191843 0.00114329 0.00131615 -0.000342795 0.00504161 -0.00066126 0.00202531 0.00149051 0.00331636 -0.00203656 -0.00271612 -0.000223975 -0.000722737 -0.00244062 -0.00144513 -0.00098498 -0.000749327 -0.00505 0.00186779 -0.00131265 0.00192074 -0.000947462 0.0241359 -0.00139182 0.00165259 0.000655254 0.01243 0.00120907 -0.00290549 0.00110336 0.00226741 0.0133228 0.000788057 0.0151581 -0.00163553 0.00170793 0.0129523 0.00254625 -0.00120915 0.0162489 -0.000998115 0.0138013 0.000271435 0.00552912 -0.00217707 0.013586 0.0115333 0.00187582 8.13461e-05 0.00219886 0.00288292 0.0119974 -0.0016823 0.000109343 -0.000881965 0.0164021 -0.00143988 0.00206233 0.0159639 0.00131643 -0.000938857 0.0100586 -0.00184532 -0.0138352 -0.00285455 0.000300249 0.0190663 0.00117745 0.016529 -0.00285191 -0.000952761 -0.000471566 -0.00251993 0.00893112 -0.00256574 0.00240205 0.0181819 0.014911 -0.00111849 0.0288238 0.0173194 0.00178988 0.00217955 0.00178777 0.0124206 0.00251941 0.010517 -0.0194314 0.00126871 0.0162603 0.000147532 0.00732928 0.0109031 -0.00161976 -0.00229776 0.00293863 0.0108093 -0.00263986 0.000969463 -0.000935653 -0.00222892 0.000822814 0.0161494 0.0018316 -0.00138584 -0.000396121 -0.000589161 0.000648854 0.00162053 0.00264674 -0.00221121 -0.00146566 -0.000730135 0.00296241 -0.000954293 0.00239731 -0.00157511 -0.00167999 0.00294646 0.0183577 0.000829301 0.0161574 0.0160359 0.00161071 0.0148364 -0.00282649 -0.00268535 -0.00105949 0.0161574 0.0174308 0.00289679 0.00110034 0.0156593 -0.0011477 -0.00248953 -0.0202144 0.0147318 -0.00118126 -0.00199158 0.0145896 -0.00259532 0.0278935 -0.00153429 -0.00100258 -0.00120591 0.0135825 0.0121073 -0.00281486 -0.00477363 -0.00419201 -0.00551189 -0.00382952 -0.00270057 -0.00239215 -0.000147161 -0.000444844 -0.00112921 0.000550614 -0.000734249 0.00561108 -0.00124282 0.00511122 -0.00231 0.00113778 0.00201248 -0.00166036 -0.00221244 0.000730247 0.000261461 9.11038e-05 -0.000470972 0.000133964 0.00184948 0.00244013 0.0019501 -0.00133918 -0.000838723 -0.00249975 0.00233233 0.0048782 -0.00153584 -0.000386291 0.00197132 0.000605021 -0.00112667 0.00225905 0.00213304 0.0004216 0.00210889 0.000755113 0.00174128 -0.000895902 1.1429e-05 -0.00146873 -0.00221984 -0.00252828 -0.0026646 0.000809927 0.00070142 -0.00251116 0.000657124 0.000268024 -0.000712107 0.000856137 0.00147294 0.000424027 -0.00525803 0.000731298 0.00403579 -0.00135036 -0.000468184 -0.00360206 0.000170942 -0.00258138 0.000422043 0.00106712 -0.00168638 -0.00395957 -0.00294819 0.00136267 0.00224322 -0.0025912 -0.00145842 0.0019478 -0.00352819 -0.00218434 -0.00474 0.00132179 -0.00133847 -0.0026409 0.00201503 -5.25843e-05 0.00164497 -0.00211313 -8.67967e-05 -0.00256899 0.00172466 -0.000637607 -0.00158303 -0.00251659 -0.00252597 -0.000117493 -0.00177171 0.00273948 -0.000961548 -8.96252e-05 -0.000941124 0.000101795 -0.00205287 0.00212325 0.0050284 -0.00179265 0.00449317 -0.000913686 -6.89408e-05 -0.000896111 0.00127083 0.00106748 -0.00290731 -0.00173974 0.00309914 -0.00234925 0.00212257 0.00246511 0.00140217 -0.000185141 -0.00557939 -0.00113455 -8.86666e-05 -0.00142701 0.00109867 0.00246711 0.00042301 -0.00412878 0.00544484 -0.00261453 -0.0040375 -0.00213826 0.304017 -0.00211131 -0.00372978 -0.00865052 0.53189 -0.0054946 -0.000625769 -0.00452967 -0.00398091 0.515998 -0.00162858 0.495952 0.0127881 -0.00597901 0.510109 0.00947488 -0.00406198 0.523646 -0.00232771 0.495416 -0.00282708 0.0928051 -0.0145673 0.522789 0.521764 -0.00124962 -0.00935114 -0.00424012 -2.09705e-05 0.505757 0.00173892 -0.00300826 -0.000775359 0.541202 -0.00121009 -0.000118432 0.487068 -0.00287747 -0.0107433 0.499308 -0.00604767 -0.606984 -0.0160906 -0.00906666 0.513612 -0.00620286 0.525189 -0.00837489 -0.00127038 9.31524e-05 -0.00260335 -0.269968 -0.00288462 -0.000649049 0.509606 0.536982 -0.0185225 0.0681804 0.52016 -0.011215 -0.00172634 -0.00866954 0.540932 0.000308794 0.520501 -0.264188 -0.022128 0.506354 -0.000282115 0.306984 0.473412 -0.00372199 -0.00517161 -0.00127211 -0.0138743 -0.00134729 -0.00255638 -0.00595407 -0.000842198 -0.0133567 0.506654 -0.00246494 -0.00141925 0.000770659 -0.000727569 0.030392 -0.0103241 0.00206181 -0.00191941 -0.00346508 -0.00211269 -0.0068878 -0.00276243 -0.0088646 0.0012692 -0.00656737 0.00211707 0.508382 -0.00412038 0.531034 0.465573 -0.0201151 0.457849 -0.00683308 -0.00704952 0.184396 0.513659 0.512846 0.002083 0.227544 0.582798 -0.000912911 -0.00311357 -0.311522 0.503384 -0.00429676 -0.0019264 0.523372 -0.0137566 0.0953953 0.00139749 -0.287986 -0.0142079 0.508004 0.537482 -0.00765709 -0.000640507 -0.00402851 -0.00585327 -0.000399954 0.000896718 -0.000476299 0.00417976 -0.00414471 -0.00169424 -0.00277295 -0.00207945 0.00260426 -0.000711736 0.00306637 -0.00242429 -0.00067316 0.00549866 0.0015979 -0.00224649 0.00102102 -0.0019693 0.00263883 -0.00548041 0.000742866 0.000729603 0.00590528 0.00401648 -0.00307964 0.000460446 -9.49709e-05 0.00011141 0.00248801 0.00289725 0.00295206 0.00237694 0.00491798 -0.00198196 0.00140018 0.00336686 -0.000602207 -0.00169265 -0.000136739 0.00265242 0.00269373 -0.00236134 -0.00265215 -0.00462386 0.000164844 -0.00295631 -0.00293913 -0.00244992 0.00064461 -0.00266349 0.000948602 -0.00275377 -0.00255699 0.00184068 0.00252764 -0.00520373 0.00143645 0.00306787 -0.00289433 0.00109025 -0.000882803 0.00130959 0.00186512 0.00198062 -0.00285369 0.000184341 -0.00014338 0.00161597 -0.000571486 0.00514542 -0.00336215 -0.00360943 0.00265417 -0.00276659 0.00170166 -0.001706 -0.002147 -0.00177223 -0.000638106 0.00122139 0.000845426 -1.49491e-05 -0.00261616 0.000141223 -0.00111276 0.00212935 -0.00294591 -0.00178449 0.00228363 -0.0016917 -0.00416163 -0.000936218 0.00180046 0.000426507 -0.00133087 -0.00248292 0.00160522 -0.00233324 0.00124796 0.00496979 0.000620384 0.00522117 -0.00203643 -0.00182173 -0.00171489 0.00204806 0.002998 -0.0018751 -0.00118181 0.00229885 -0.00034796 -0.000828691 0.0007536 0.00625027 -0.00127858 -0.00451714 0.00242516 0.0025573 -0.00114035 -0.00254115 0.00168527 -0.00221553 -0.0033375 0.00301763 0.000630011 -0.00223788 0.000594265 -0.00220725 -0.00230798 -0.00035356 -0.0013734 0.000710705 9.98583e-05 -0.000328248 -0.00114847 -0.000182415 -0.000333994 -0.00198712 -0.00483453 0.00125238 0.000630898 -0.00245606 0.00248862 -0.000136915 0.000559895 -1.85592e-05 0.000573704 0.00122191 0.00116785 -0.00297244 -0.00170918 -0.00252012 0.000768779 0.000261214 -0.00170401 0.000312629 0.000195867 -0.00297036 -0.0022495 0.00165042 -0.00482614 -0.0021442 -0.00107754 0.000500007 0.000684934 -0.00290461 -0.00305647 -0.00184337 -0.00134719 -0.00283974 0.00198384 -0.000346308 0.00132694 -2.60227e-05 0.00158726 -0.0022766 -0.00069401 -0.00283246 -0.00299217 -0.00295801 -0.00199329 -0.00408351 -0.00189433 -0.000486705 0.000562876 -0.00330186 0.000556963 0.000510842 -0.00227046 -0.00449879 -0.0028076 -0.00394258 0.000145027 0.00204821 -0.00306918 -0.00185304 -0.00260928 0.000740562 -0.0015314 0.000752425 -0.00175996 -0.00154954 0.00146048 -0.00206398 0.00193903 -0.00243609 0.00287879 -0.00102817 -0.00129531 0.0022034 -0.00281916 0.00156563 0.00237706 0.000713248 0.00132447 -0.0002169 0.00155332 -0.00295715 -0.00183908 -0.00245129 -0.0019924 0.00265349 0.00209659 -0.0021763 -0.000973728 -0.00276906 -0.00402466 -0.00383591 0.000872172 0.000177856 0.00212025 -3.57716e-05 0.00168526 -0.00327404 0.00086137 0.00294318 -0.00249331 -0.00303425 -0.00139021 -0.00170446 0.00160213 -0.00274746 -0.0020759 -0.00200987 0.000590445 0.00267474 0.000104804 -0.00288976 -0.000484165 -0.00226749 0.000827908 -0.00336348 0.00236192 -0.000588229 -0.00127615 -0.000512958 -0.00583431 0.00275573 -0.00254848 0.0014502 -0.00302263 0.00282343 0.00040868 -0.00135618 0.000735574 -0.00494529 0.00152569 -0.00336045 -0.000624579 0.00241203 0.000686335 -0.000319168 -5.64447e-05 -0.00551471 0.00234631 -2.40433e-05 0.000256613 0.00247432 0.00184302 0.00169114 -0.000681659 0.00167486 -0.00357179 0.00229396 0.00248784 -0.000201732 